{"learner":{"attributes":{"scikit_learn":"{\"_estimator_type\": \"classifier\"}"},"feature_names":["OLD_GPA_M6","GENDER_ENCODED","FAC_ENCODED","COUNT_F","COUNT_WIU","TERM1","TERM1_missing","TERM2","TERM2_missing","TERM3","TERM3_missing","TERM4","TERM4_missing","TERM5","TERM5_missing","TERM6","TERM6_missing","TERM7","TERM7_missing","TERM8","TERM8_missing","avg_gpa_up_to_now","min_gpa_up_to_now","max_gpa_up_to_now","gpa_range","gpa_std","gpa_change_from_start","improvement_from_hs","has_F","multiple_F","excessive_F","has_WIU","low_gpa","very_low_gpa","critical_gpa","early_warning","term1_low","term1_excellent","term2_low","declining_trend","improving_trend","decline_last_term","consecutive_decline_2","term3_low","num_terms_with_data","latest_available_gpa","term4_low","term4_excellent","term5_low","term5_excellent","term6_low","term6_excellent","term7_low","term7_excellent","term8_low","term8_excellent","improving_term4","improving_term5","long_decline_3terms","overall_gpa_stability","has_recovered","performance_category","risk_score","current_term"],"feature_types":["float","int","int","int","int","float","int","float","int","float","int","float","int","float","int","float","int","float","int","float","int","float","float","float","float","float","float","float","int","int","int","int","int","int","int","int","int","int","int","int","int","int","int","int","int","float","int","int","int","int","int","int","int","int","int","int","int","int","int","float","int","int","int","int"],"gradient_booster":{"model":{"cats":{"enc":[],"feature_segments":[],"sorted_idx":[]},"gbtree_model_param":{"num_parallel_tree":"1","num_trees":"100"},"iteration_indptr":[0,1,2,3,4,5,6,7,8,9,10,11,12,13,14,15,16,17,18,19,20,21,22,23,24,25,26,27,28,29,30,31,32,33,34,35,36,37,38,39,40,41,42,43,44,45,46,47,48,49,50,51,52,53,54,55,56,57,58,59,60,61,62,63,64,65,66,67,68,69,70,71,72,73,74,75,76,77,78,79,80,81,82,83,84,85,86,87,88,89,90,91,92,93,94,95,96,97,98,99,100],"tree_info":[0,0,0,0,0,0,0,0,0,0,0,0,0,0,0,0,0,0,0,0,0,0,0,0,0,0,0,0,0,0,0,0,0,0,0,0,0,0,0,0,0,0,0,0,0,0,0,0,0,0,0,0,0,0,0,0,0,0,0,0,0,0,0,0,0,0,0,0,0,0,0,0,0,0,0,0,0,0,0,0,0,0,0,0,0,0,0,0,0,0,0,0,0,0,0,0,0,0,0,0],"trees":[{"base_weights":[1.0959493E-2,1.3828036E0,-1.7690318E0,1.8562851E0,1.0128866E-1,-1.8878148E0,-1.2394015E-2,1.9293555E0,9.1582566E-1,9.8806435E-1,-7.6527005E-1,-1.9258704E0,-3.8984174E-1,8.024657E-1,-5.769356E-1,1.9478315E0,-6.661866E-1,1.4746964E0,-1.2573247E0,3.975559E-1,1.5156795E0,1.1227186E0,-1.223942E0,-6.6117436E-1,-1.9444362E0,1.0773257E0,-8.0227625E-1,9.3266517E-1,-7.58261E-2,-1.1254884E0,5.579135E-1,1.9524643E-1,-4.206028E-3,1.5618482E-1,-1.4459534E-1,1.6539465E-1,6.0922027E-2,7.101495E-2,-1.758294E-1,-4.6117716E-3,1.0277915E-1,1.6660051E-1,2.3192968E-2,1.5829551E-1,-9.7193226E-2,4.0713516E-3,-1.4802645E-1,5.305655E-2,-1.880597E-1,-1.9905299E-1,-1.767656E-1,1.4368896E-1,2.4438823E-2,-1.0119238E-1,7.961395E-2,-4.784772E-2,1.0285554E-1,8.969832E-2,-1.3681215E-1,1.168012E-1,-8.35036E-2],"categories":[],"categories_nodes":[],"categories_segments":[],"categories_sizes":[],"default_left":[0,0,0,0,0,0,0,0,0,0,0,0,0,0,0,0,0,0,0,0,0,0,0,0,0,0,0,0,0,0,0,0,0,0,0,0,0,0,0,0,0,0,0,0,0,0,0,0,0,0,0,0,0,0,0,0,0,0,0,0,0],"id":0,"left_children":[1,3,5,7,9,11,13,15,17,19,21,23,25,27,29,31,33,35,37,39,41,43,45,47,49,51,53,55,-1,57,59,-1,-1,-1,-1,-1,-1,-1,-1,-1,-1,-1,-1,-1,-1,-1,-1,-1,-1,-1,-1,-1,-1,-1,-1,-1,-1,-1,-1,-1,-1],"loss_changes":[1.355584E4,1.9021343E3,5.0415283E2,1.555498E2,6.515431E2,1.2826807E2,7.1327255E1,1.0312256E2,2.046134E2,1.2994131E2,3.7278003E2,5.0532715E1,3.555286E1,1.3603405E1,5.763975E1,1.9518555E1,2.9626507E1,1.9665314E1,3.544166E1,5.571138E1,4.2248413E1,8.2856285E1,1.1207031E2,4.9599583E1,1.4200195E1,3.5439672E0,1.5992647E1,8.47916E0,0E0,3.1686234E1,2.6904984E1,0E0,0E0,0E0,0E0,0E0,0E0,0E0,0E0,0E0,0E0,0E0,0E0,0E0,0E0,0E0,0E0,0E0,0E0,0E0,0E0,0E0,0E0,0E0,0E0,0E0,0E0,0E0,0E0,0E0,0E0],"parents":[2147483647,0,0,1,1,2,2,3,3,4,4,5,5,6,6,7,7,8,8,9,9,10,10,11,11,12,12,13,13,14,14,15,15,16,16,17,17,18,18,19,19,20,20,21,21,22,22,23,23,24,24,25,25,26,26,27,27,29,29,30,30],"right_children":[2,4,6,8,10,12,14,16,18,20,22,24,26,28,30,32,34,36,38,40,42,44,46,48,50,52,54,56,-1,58,60,-1,-1,-1,-1,-1,-1,-1,-1,-1,-1,-1,-1,-1,-1,-1,-1,-1,-1,-1,-1,-1,-1,-1,-1,-1,-1,-1,-1,-1,-1],"split_conditions":[1.88E0,2.22E0,4E0,2.76E0,2.44E0,4E0,2.44E0,2.5E0,5E0,2E0,2E0,2.61E0,1E0,3.2E0,4E0,2.69E0,7.7E-1,3.5E0,2.85E0,1.15E0,1.5E0,2.89E0,1E0,2.57E0,2E0,2.57E0,3.07E0,1.68E0,-7.58261E-2,1E0,-9.2E-1,1.9524643E-1,-4.206028E-3,1.5618482E-1,-1.4459534E-1,1.6539465E-1,6.0922027E-2,7.101495E-2,-1.758294E-1,-4.6117716E-3,1.0277915E-1,1.6660051E-1,2.3192968E-2,1.5829551E-1,-9.7193226E-2,4.0713516E-3,-1.4802645E-1,5.305655E-2,-1.880597E-1,-1.9905299E-1,-1.767656E-1,1.4368896E-1,2.4438823E-2,-1.0119238E-1,7.961395E-2,-4.784772E-2,1.0285554E-1,8.969832E-2,-1.3681215E-1,1.168012E-1,-8.35036E-2],"split_indices":[17,11,62,9,22,3,45,19,2,3,2,45,22,0,3,15,15,0,45,13,19,15,14,13,62,9,11,7,0,2,26,0,0,0,0,0,0,0,0,0,0,0,0,0,0,0,0,0,0,0,0,0,0,0,0,0,0,0,0,0,0],"split_type":[0,0,0,0,0,0,0,0,0,0,0,0,0,0,0,0,0,0,0,0,0,0,0,0,0,0,0,0,0,0,0,0,0,0,0,0,0,0,0,0,0,0,0,0,0,0,0,0,0,0,0,0,0,0,0,0,0,0,0,0,0],"sum_hessian":[5.549415E3,3.1341443E3,2.4152705E3,2.2882542E3,8.458902E2,2.262225E3,1.5304538E2,2.122307E3,1.6594733E2,4.17999E2,4.278912E2,2.2058992E3,5.6325974E1,6.2463734E1,9.058164E1,2.107554E3,1.4752836E1,1.3225627E2,3.3691044E1,1.980709E2,2.1992807E2,8.33515E1,3.445397E2,3.2443882E1,2.1734553E3,1.2005672E1,4.43203E1,5.8025528E1,4.438209E0,6.10703E1,2.9511345E1,2.1026777E3,4.876418E0,3.5646272E0,1.118821E1,1.0880956E2,2.3446718E1,6.752836E0,2.693821E1,1.16784035E2,8.128687E1,1.9660777E2,2.33203E1,6.853687E1,1.4814627E1,5.8205227E1,2.8633447E2,1.6693882E1,1.575E1,1.7158146E3,4.576406E2,7.8792543E0,4.126418E0,3.9505672E1,4.814627E0,3.438209E0,5.458732E1,6.252836E0,5.4817463E1,2.0634926E1,8.876418E0],"tree_param":{"num_deleted":"0","num_feature":"64","num_nodes":"61","size_leaf_vector":"1"}},{"base_weights":[-1.3838467E-2,1.1232619E0,-1.7243464E0,1.6751252E0,-1.1767598E-1,-1.7872552E0,-6.97863E-1,1.7979089E0,1.213036E0,8.421336E-1,-8.6484593E-1,-1.7953676E0,-8.426099E-1,9.553953E-1,-9.5974016E-1,1.810047E0,4.4753155E-1,4.7555056E-1,1.5493314E0,4.1069573E-1,1.5073147E0,5.736224E-1,-1.2541398E0,-3.9670546E-2,-1.797354E0,-1.6933507E-1,-6.84744E-2,1.3439015E0,-7.788413E-3,-1.2290082E0,3.7675522E-2,1.8122528E-1,1.0832794E-1,1.124106E-1,-5.6954224E-2,8.589964E-2,-6.650111E-2,1.6744691E-1,1.8126462E-3,6.461132E-3,1.0441079E-1,1.6021088E-1,2.4448333E-2,1.3997433E-1,-6.3990906E-2,-1.1895987E-2,-1.477484E-1,-1.8124174E-1,-1.6699319E-1,7.569786E-2,-1.4755224E-1,1.6558464E-1,4.0726062E-2,1.565532E-2,-1.3477409E-1,-9.4827354E-2,8.8431165E-2],"categories":[],"categories_nodes":[],"categories_segments":[],"categories_sizes":[],"default_left":[0,0,0,0,0,0,0,0,0,0,0,0,0,0,0,0,0,0,0,0,0,0,0,0,0,0,0,0,0,0,0,0,0,0,0,0,0,0,0,0,0,0,0,0,0,0,0,0,0,0,0,0,0,0,0,0,0],"id":1,"left_children":[1,3,5,7,9,11,13,15,17,19,21,23,25,27,29,31,33,35,37,39,41,43,45,-1,47,-1,49,51,-1,53,55,-1,-1,-1,-1,-1,-1,-1,-1,-1,-1,-1,-1,-1,-1,-1,-1,-1,-1,-1,-1,-1,-1,-1,-1,-1,-1],"loss_changes":[1.0654513E4,2.2535913E3,1.400039E2,1.2704541E2,7.277708E2,1.4276855E1,5.6315365E1,2.8651367E1,1.1861316E2,1.2687799E2,3.2021564E2,4.959961E0,1.2679284E1,7.3296566E0,2.9846436E1,8.9208984E-1,1.257299E1,6.7116035E1,6.3214478E1,5.9307606E1,2.0486755E1,1.2340967E2,1.1374719E2,0E0,8.8720703E-1,0E0,1.414175E1,3.1633396E0,0E0,1.458934E1,2.1337553E1,0E0,0E0,0E0,0E0,0E0,0E0,0E0,0E0,0E0,0E0,0E0,0E0,0E0,0E0,0E0,0E0,0E0,0E0,0E0,0E0,0E0,0E0,0E0,0E0,0E0,0E0],"parents":[2147483647,0,0,1,1,2,2,3,3,4,4,5,5,6,6,7,7,8,8,9,9,10,10,11,11,12,12,13,13,14,14,15,15,16,16,17,17,18,18,19,19,20,20,21,21,22,22,24,24,26,26,27,27,29,29,30,30],"right_children":[2,4,6,8,10,12,14,16,18,20,22,24,26,28,30,32,34,36,38,40,42,44,46,-1,48,-1,50,52,-1,54,56,-1,-1,-1,-1,-1,-1,-1,-1,-1,-1,-1,-1,-1,-1,-1,-1,-1,-1,-1,-1,-1,-1,-1,-1,-1,-1],"split_conditions":[2.5E0,2.22E0,1E0,1.92E0,2.8625E0,4E0,8.9E-1,2E0,4E0,1E0,2E0,2.79E0,1E0,2.15E0,3E0,4E0,2.21E0,5E0,2.1E0,3E0,1.54E0,2.67E0,3E0,-3.9670546E-2,1E0,-1.6933507E-1,2.91E0,2.65E0,-7.788413E-3,2.1075E0,7.212489E-1,1.8122528E-1,1.0832794E-1,1.124106E-1,-5.6954224E-2,8.589964E-2,-6.650111E-2,1.6744691E-1,1.8126462E-3,6.461132E-3,1.0441079E-1,1.6021088E-1,2.4448333E-2,1.3997433E-1,-6.3990906E-2,-1.1895987E-2,-1.477484E-1,-1.8124174E-1,-1.6699319E-1,7.569786E-2,-1.4755224E-1,1.6558464E-1,4.0726062E-2,1.565532E-2,-1.3477409E-1,-9.4827354E-2,8.8431165E-2],"split_indices":[19,11,30,9,21,62,22,15,62,30,2,23,29,9,11,7,45,2,15,2,19,15,45,0,28,0,13,5,0,21,25,0,0,0,0,0,0,0,0,0,0,0,0,0,0,0,0,0,0,0,0,0,0,0,0,0,0],"split_type":[0,0,0,0,0,0,0,0,0,0,0,0,0,0,0,0,0,0,0,0,0,0,0,0,0,0,0,0,0,0,0,0,0,0,0,0,0,0,0,0,0,0,0,0,0,0,0,0,0,0,0,0,0,0,0,0,0],"sum_hessian":[5.4758486E3,3.2894514E3,2.186397E3,2.2766443E3,1.01280707E3,2.0594414E3,1.2695555E2,1.7964197E3,4.802247E2,4.4326486E2,5.6954224E2,2.0410132E3,1.8428265E1,1.6997879E1,1.0995767E2,1.7800787E3,1.6340961E1,1.5115678E2,3.2906793E2,2.6985425E2,1.7341061E2,1.21205574E2,4.4833664E2,3.1792161E0,2.037834E3,8.214014E0,1.021425E1,1.2134697E1,4.8631825E0,8.640035E1,2.3557325E1,1.7732034E3,6.875313E0,9.749918E0,6.5910425E0,1.13309944E2,3.7846848E1,3.0412015E2,2.4947775E1,1.7521959E2,9.463466E1,1.610526E2,1.2358028E1,7.202236E1,4.918322E1,7.395946E1,3.743772E2,1.8105704E3,2.272635E2,6.72878E0,3.4854696E0,8.526965E0,3.6077316E0,6.79437E0,7.960598E1,1.0827788E1,1.2729537E1],"tree_param":{"num_deleted":"0","num_feature":"64","num_nodes":"57","size_leaf_vector":"1"}},{"base_weights":[-4.5214547E-4,1.1490679E0,-1.4825991E0,1.5182344E0,-9.72188E-2,5.5916476E-1,-1.5606899E0,1.658326E0,1.0512275E0,-4.910327E-1,1.2678782E0,7.2668517E-1,-6.041875E-1,-1.6048245E0,3.795781E-1,1.6692363E0,1.5929408E-2,2.7191028E-1,1.4806274E0,9.785248E-1,-8.262356E-1,1.3593775E0,8.125465E-2,4.759627E-1,1.2390283E0,3.6907956E-2,-1.6510972E-1,-1.6685109E0,-1.4131451E0,-1.2517618E-1,9.0401536E-1,1.6791724E-1,1.2989853E-1,1.0332265E-1,-1.5566441E-1,5.399237E-2,-1.3620852E-1,1.5113288E-1,1.8556958E-2,1.6802905E-1,-1.2524994E-2,-1.1668301E-1,4.1262817E-2,1.4092857E-1,-5.4146755E-2,-1.551926E-1,1.0689346E-1,2.1916188E-2,1.2219649E-1,4.259224E-2,1.438626E-1,-2.3456085E-2,-1.671093E-1,-1.4686678E-1,-1.03224374E-1,1.8059246E-2,-1.5164629E-1,-3.8728412E-2,1.3578232E-1],"categories":[],"categories_nodes":[],"categories_segments":[],"categories_sizes":[],"default_left":[0,0,0,0,0,0,0,0,0,0,0,0,0,0,0,0,0,0,0,0,0,0,0,0,0,0,0,0,0,0,0,0,0,0,0,0,0,0,0,0,0,0,0,0,0,0,0,0,0,0,0,0,0,0,0,0,0,0,0],"id":2,"left_children":[1,3,5,7,9,11,13,15,17,19,21,23,25,27,29,31,33,35,37,39,41,43,45,47,49,-1,-1,51,53,55,57,-1,-1,-1,-1,-1,-1,-1,-1,-1,-1,-1,-1,-1,-1,-1,-1,-1,-1,-1,-1,-1,-1,-1,-1,-1,-1,-1,-1],"loss_changes":[9.132784E3,1.3891274E3,3.7419678E2,1.5063574E2,3.7201184E2,1.7391972E1,1.9374902E2,3.2047363E1,1.8036542E2,2.65276E2,1.6713837E1,9.236332E0,1.2322494E1,2.4564941E1,1.360589E1,4.359375E0,2.2119823E1,8.531261E1,1.3558472E1,7.780448E1,1.851719E2,1.4404907E1,2.1268253E1,9.8824835E0,3.3650742E0,0E0,0E0,5.7163086E0,1.0254517E1,1.169679E1,1.524617E1,0E0,0E0,0E0,0E0,0E0,0E0,0E0,0E0,0E0,0E0,0E0,0E0,0E0,0E0,0E0,0E0,0E0,0E0,0E0,0E0,0E0,0E0,0E0,0E0,0E0,0E0,0E0,0E0],"parents":[2147483647,0,0,1,1,2,2,3,3,4,4,5,5,6,6,7,7,8,8,9,9,10,10,11,11,12,12,13,13,14,14,15,15,16,16,17,17,18,18,19,19,20,20,21,21,22,22,23,23,24,24,27,27,28,28,29,29,30,30],"right_children":[2,4,6,8,10,12,14,16,18,20,22,24,26,28,30,32,34,36,38,40,42,44,46,48,50,-1,-1,52,54,56,58,-1,-1,-1,-1,-1,-1,-1,-1,-1,-1,-1,-1,-1,-1,-1,-1,-1,-1,-1,-1,-1,-1,-1,-1,-1,-1,-1,-1],"split_conditions":[1.88E0,2.57E0,2.5E0,2E0,2E0,3.03E0,5E0,1.54E0,4E0,2E0,1.5E0,3.58E0,2.76E0,2E0,2.64E0,1.9E0,2.05E0,3.58E0,2.69E0,2.12E0,1.15E0,5E0,6E0,2.08E0,2.41E0,3.6907956E-2,-1.6510972E-1,2.6E0,4E0,2.45E0,3.35E0,1.6791724E-1,1.2989853E-1,1.0332265E-1,-1.5566441E-1,5.399237E-2,-1.3620852E-1,1.5113288E-1,1.8556958E-2,1.6802905E-1,-1.2524994E-2,-1.1668301E-1,4.1262817E-2,1.4092857E-1,-5.4146755E-2,-1.551926E-1,1.0689346E-1,2.1916188E-2,1.2219649E-1,4.259224E-2,1.438626E-1,-2.3456085E-2,-1.671093E-1,-1.4686678E-1,-1.03224374E-1,1.8059246E-2,-1.5164629E-1,-3.8728412E-2,1.3578232E-1],"split_indices":[17,11,45,9,3,5,3,19,62,2,19,23,0,62,5,11,7,45,15,13,13,2,3,22,15,0,0,19,62,7,23,0,0,0,0,0,0,0,0,0,0,0,0,0,0,0,0,0,0,0,0,0,0,0,0,0,0,0,0],"split_type":[0,0,0,0,0,0,0,0,0,0,0,0,0,0,0,0,0,0,0,0,0,0,0,0,0,0,0,0,0,0,0,0,0,0,0,0,0,0,0,0,0,0,0,0,0,0,0,0,0,0,0,0,0,0,0,0,0,0,0],"sum_hessian":[5.3583774E3,3.0179487E3,2.3404287E3,2.3281128E3,6.898358E2,8.598923E1,2.2544395E3,1.7889244E3,5.391884E2,5.358809E2,1.5395485E2,7.5493645E1,1.0495581E1,2.204468E3,4.997136E1,1.777103E3,1.182147E1,1.921283E2,3.470601E2,9.9174126E1,4.3670682E2,1.4279823E2,1.1156616E1,5.198368E1,2.3509964E1,5.774621E0,4.7209597E0,1.6489062E3,5.555619E2,2.585146E1,2.4119902E1,1.7272169E3,4.9886154E1,7.386268E0,4.435202E0,1.6563058E2,2.6497715E1,3.3885986E2,8.200217E0,6.0308464E1,3.8865658E1,3.4258096E2,9.412587E1,1.3939685E2,3.4013762E0,3.9891174E0,7.1674986E0,3.963401E1,1.2349672E1,5.251344E0,1.8258621E1,3.1287942E0,1.6457775E3,4.823897E2,7.317217E1,2.1907055E1,3.944404E0,6.3103986E0,1.7809502E1],"tree_param":{"num_deleted":"0","num_feature":"64","num_nodes":"59","size_leaf_vector":"1"}},{"base_weights":[-1.3417301E-3,9.6692014E-1,-1.475526E0,-1.03690974E-1,1.3985125E0,-1.521857E0,2.1098386E-1,-6.344532E-1,7.936665E-1,7.821495E-1,1.4976842E0,-1.5664259E0,-1.2707095E0,-1.5864831E-1,3.9681426E-1,4.8397645E-1,-9.061611E-1,9.3567777E-1,-6.6311926E-1,9.692227E-1,-5.609112E-1,1.5341549E0,2.891403E-1,-4.729433E-2,-1.5691286E0,-1.341899E0,-3.4569114E-1,1.3162556E0,-1.3033907E-1,-4.6251427E-2,1.4493936E-1,-1.0204474E-1,1.438134E-1,6.285791E-2,1.350274E-1,-1.5457231E-1,1.0568231E-1,5.023558E-2,1.2948297E-1,1.1817733E-1,-1.18338004E-1,1.5392753E-1,6.1244696E-2,-2.6538273E-2,1.4509413E-1,-1.5718472E-1,-6.260926E-2,-1.3835488E-1,3.2081201E-3,-8.020531E-2,1.356719E-1,1.5819621E-1,5.138992E-2,-1.2360909E-1,3.2666788E-2],"categories":[],"categories_nodes":[],"categories_segments":[],"categories_sizes":[],"default_left":[0,0,0,0,0,0,0,0,0,0,0,0,0,0,0,0,0,0,0,0,0,0,0,0,0,0,0,0,0,0,0,0,0,0,0,0,0,0,0,0,0,0,0,0,0,0,0,0,0,0,0,0,0,0,0],"id":3,"left_children":[1,3,5,7,9,11,13,15,17,19,21,23,25,-1,27,29,31,33,35,37,39,41,43,-1,45,47,49,51,53,-1,-1,-1,-1,-1,-1,-1,-1,-1,-1,-1,-1,-1,-1,-1,-1,-1,-1,-1,-1,-1,-1,-1,-1,-1,-1],"loss_changes":[7.439386E3,1.4536785E3,1.6176514E2,4.3140402E2,1.3587207E2,2.0519531E1,1.937524E1,1.733596E2,7.027333E1,7.914241E1,8.4631836E1,4.2929688E0,1.9843933E1,0E0,2.5211601E1,1.02893845E2,1.2421826E2,3.826349E1,4.791922E1,4.114612E1,4.3574024E1,7.8984375E0,3.7605263E1,0E0,3.3710938E0,1.6411255E1,1.925602E1,3.2198372E0,1.745686E1,0E0,0E0,0E0,0E0,0E0,0E0,0E0,0E0,0E0,0E0,0E0,0E0,0E0,0E0,0E0,0E0,0E0,0E0,0E0,0E0,0E0,0E0,0E0,0E0,0E0,0E0],"parents":[2147483647,0,0,1,1,2,2,3,3,4,4,5,5,6,6,7,7,8,8,9,9,10,10,11,11,12,12,14,14,15,15,16,16,17,17,18,18,19,19,20,20,21,21,22,22,24,24,25,25,26,26,27,27,28,28],"right_children":[2,4,6,8,10,12,14,16,18,20,22,24,26,-1,28,30,32,34,36,38,40,42,44,-1,46,48,50,52,54,-1,-1,-1,-1,-1,-1,-1,-1,-1,-1,-1,-1,-1,-1,-1,-1,-1,-1,-1,-1,-1,-1,-1,-1,-1,-1],"split_conditions":[2.5E0,1E0,5E0,1E0,1E0,1E0,-7.375E-1,2E0,5E0,3.45E0,1.77E0,-7.9E-1,1E0,-1.5864831E-1,-4.1E-1,1E0,3E0,3E0,1.66E0,4E0,2E0,1.33E0,1E1,-4.729433E-2,3E0,2.82E0,1E0,2.08E0,2E0,-4.6251427E-2,1.4493936E-1,-1.0204474E-1,1.438134E-1,6.285791E-2,1.350274E-1,-1.5457231E-1,1.0568231E-1,5.023558E-2,1.2948297E-1,1.1817733E-1,-1.18338004E-1,1.5392753E-1,6.1244696E-2,-2.6538273E-2,1.4509413E-1,-1.5718472E-1,-6.260926E-2,-1.3835488E-1,3.2081201E-3,-8.020531E-2,1.356719E-1,1.5819621E-1,5.138992E-2,-1.2360909E-1,3.2666788E-2],"split_indices":[19,46,3,3,43,3,27,2,2,45,15,26,47,0,27,48,4,3,24,62,2,19,3,0,4,22,52,7,2,0,0,0,0,0,0,0,0,0,0,0,0,0,0,0,0,0,0,0,0,0,0,0,0,0,0],"split_type":[0,0,0,0,0,0,0,0,0,0,0,0,0,0,0,0,0,0,0,0,0,0,0,0,0,0,0,0,0,0,0,0,0,0,0,0,0,0,0,0,0,0,0,0,0,0,0,0,0,0,0,0,0,0,0],"sum_hessian":[5.209858E3,3.144715E3,2.0651426E3,9.037145E2,2.2410007E3,2.0100217E3,5.512082E1,5.680321E2,3.3568237E2,3.1183E2,1.9291708E3,1.7026333E3,3.0738843E2,4.4584694E0,5.066235E1,1.1087145E2,4.5716064E2,3.061917E2,2.9490656E1,2.7395016E2,3.7879826E1,1.8723973E3,5.677334E1,4.631796E0,1.6980015E3,2.850038E2,2.2384617E1,1.7916368E1,3.274598E1,5.6247536E1,5.4623917E1,4.3644818E2,2.0712486E1,1.7734517E2,1.2884654E2,1.9556406E1,9.934251E0,1.136038E2,1.6034637E2,9.732861E0,2.8146967E1,1.8613866E3,1.1010728E1,3.8952866E1,1.7820475E1,1.6924558E3,5.5457354E0,2.7661185E2,8.391959E0,1.8069603E1,4.315013E0,1.2729314E1,5.1870546E0,9.077573E0,2.3668407E1],"tree_param":{"num_deleted":"0","num_feature":"64","num_nodes":"55","size_leaf_vector":"1"}},{"base_weights":[-9.6150525E-3,9.957431E-1,-1.30113E0,1.3725337E0,5.4067746E-2,2.3491095E-1,-1.3932511E0,1.4338198E0,6.7559874E-1,7.0319897E-1,-5.8091307E-1,4.867271E-1,-1.099893E0,-1.4346412E0,-1.21517144E-1,1.4503049E0,-3.0429274E-1,1.0538203E0,-6.9152975E-1,3.6350274E-1,1.2538503E0,8.131937E-1,-9.157312E-1,6.005689E-1,-1.17151774E-1,4.690825E-2,-1.4904158E-1,-1.4811968E0,-1.281745E0,-4.8104975E-1,8.5478824E-1,1.4710243E-1,9.195448E-2,-1.4650653E-1,6.6468485E-2,1.3615108E-1,4.134214E-2,9.2645444E-2,-1.3426673E-1,-4.376846E-3,8.664047E-2,1.3527782E-1,1.8148025E-2,1.1742623E-1,-3.168198E-2,-4.884673E-3,-1.1299186E-1,-9.596583E-2,6.87026E-2,-1.4841022E-1,-5.9604168E-2,-1.3052727E-1,-2.8507037E-2,-9.331677E-2,2.3355428E-2,9.848533E-3,1.3140482E-1],"categories":[],"categories_nodes":[],"categories_segments":[],"categories_sizes":[],"default_left":[0,0,0,0,0,0,0,0,0,0,0,0,0,0,0,0,0,0,0,0,0,0,0,0,0,0,0,0,0,0,0,0,0,0,0,0,0,0,0,0,0,0,0,0,0,0,0,0,0,0,0,0,0,0,0,0,0],"id":4,"left_children":[1,3,5,7,9,11,13,15,17,19,21,23,25,27,29,31,33,35,37,39,41,43,45,47,-1,-1,-1,49,51,53,55,-1,-1,-1,-1,-1,-1,-1,-1,-1,-1,-1,-1,-1,-1,-1,-1,-1,-1,-1,-1,-1,-1,-1,-1,-1,-1],"loss_changes":[6.467977E3,9.937573E2,3.0885352E2,8.447705E1,3.3077823E2,4.2289112E1,1.08109375E2,5.3102295E1,8.5316185E1,7.3765396E1,1.9012212E2,2.0562738E1,1.29671135E1,1.2282227E1,2.3555258E1,1.8670898E1,2.1325607E1,2.4764038E1,3.9227486E1,5.058889E1,1.577153E1,3.2645626E1,6.077542E1,1.4027409E1,0E0,0E0,0E0,3.0266113E0,1.0706482E1,1.5993833E1,6.1595516E0,0E0,0E0,0E0,0E0,0E0,0E0,0E0,0E0,0E0,0E0,0E0,0E0,0E0,0E0,0E0,0E0,0E0,0E0,0E0,0E0,0E0,0E0,0E0,0E0,0E0,0E0],"parents":[2147483647,0,0,1,1,2,2,3,3,4,4,5,5,6,6,7,7,8,8,9,9,10,10,11,11,12,12,13,13,14,14,15,15,16,16,17,17,18,18,19,19,20,20,21,21,22,22,23,23,27,27,28,28,29,29,30,30],"right_children":[2,4,6,8,10,12,14,16,18,20,22,24,26,28,30,32,34,36,38,40,42,44,46,48,-1,-1,-1,50,52,54,56,-1,-1,-1,-1,-1,-1,-1,-1,-1,-1,-1,-1,-1,-1,-1,-1,-1,-1,-1,-1,-1,-1,-1,-1,-1,-1],"split_conditions":[1.81E0,2.25E0,2.64E0,2.76E0,2.44E0,2.5E0,4E0,1.33E0,5E0,3E0,2E0,5E0,1.83E0,2E0,3.46E0,1.9E0,6E0,3.27E0,2.58E0,1.15E0,2.45E0,2.76E0,3E0,1E0,-1.17151774E-1,4.690825E-2,-1.4904158E-1,3E0,3.93E0,2.5E0,3.65E0,1.4710243E-1,9.195448E-2,-1.4650653E-1,6.6468485E-2,1.3615108E-1,4.134214E-2,9.2645444E-2,-1.3426673E-1,-4.376846E-3,8.664047E-2,1.3527782E-1,1.8148025E-2,1.1742623E-1,-3.168198E-2,-4.884673E-3,-1.1299186E-1,-9.596583E-2,6.87026E-2,-1.4841022E-1,-5.9604168E-2,-1.3052727E-1,-2.8507037E-2,-9.331677E-2,2.3355428E-2,9.848533E-3,1.3140482E-1],"split_indices":[17,11,45,9,22,19,3,19,2,3,2,2,7,62,17,11,3,0,22,13,19,15,45,41,0,0,0,4,11,24,45,0,0,0,0,0,0,0,0,0,0,0,0,0,0,0,0,0,0,0,0,0,0,0,0,0,0],"split_type":[0,0,0,0,0,0,0,0,0,0,0,0,0,0,0,0,0,0,0,0,0,0,0,0,0,0,0,0,0,0,0,0,0,0,0,0,0,0,0,0,0,0,0,0,0,0,0,0,0,0,0,0,0,0,0,0,0],"sum_hessian":[4.979365E3,2.7999895E3,2.1793757E3,1.9994829E3,8.005066E2,1.2322089E2,2.056155E3,1.8368953E3,1.6258757E2,3.9578955E2,4.0471707E2,1.0419873E2,1.9022154E1,1.99122E3,6.493495E1,1.819801E3,1.7094309E1,1.2753397E2,3.5053604E1,2.4580984E2,1.4997969E2,7.809954E1,3.2661752E2,9.8101685E1,6.097046E0,3.750973E0,1.5271182E1,1.519775E3,4.71445E2,4.7828854E1,1.7106098E1,1.7497252E3,7.0075775E1,7.5445065E0,9.549803E0,8.538383E1,4.2150146E1,9.937502E0,2.5116102E1,1.3632285E2,1.09487E2,1.3707301E2,1.2906689E1,5.91579E1,1.8941639E1,6.495442E1,2.6166312E2,4.620429E0,9.3481255E1,1.5141285E3,5.6464343E0,4.6027014E2,1.1174862E1,2.91073E1,1.8721554E1,6.921807E0,1.0184291E1],"tree_param":{"num_deleted":"0","num_feature":"64","num_nodes":"57","size_leaf_vector":"1"}},{"base_weights":[-5.2084615E-3,9.3780625E-1,-1.2254614E0,1.2777098E0,5.323416E-3,3.4299913E-1,-1.3156453E0,1.3912795E0,7.0342416E-1,7.788579E-1,-5.0759715E-1,5.226006E-1,-1.3244361E0,-1.3638585E0,8.448203E-3,1.4022282E0,-1.3931887E-1,3.2195464E-1,1.1546848E0,2.558167E-1,1.2271875E0,7.858312E-1,-8.443701E-1,7.122461E-1,-5.8930707E-1,-1.6748916E-1,-4.073797E-2,-1.4071258E0,-1.1113598E0,8.515133E-1,-2.552561E-1,1.4208446E-1,1.2329091E-1,8.252762E-2,-1.391209E-1,-8.885353E-3,1.0387E-1,1.2344017E-1,-2.3101602E-2,1.1023857E-1,-4.4279895E-3,1.2761533E-1,3.0055616E-2,1.2743966E-1,-6.0611755E-2,-9.1824435E-2,1.5946116E-1,8.0707826E-2,-2.6049767E-2,1.07555225E-1,-1.0708405E-1,-8.886801E-2,-1.4144562E-1,-1.2089443E-1,-2.3186464E-2,1.3082623E-1,-6.457301E-2,-9.8783165E-2,1.2953718E-2],"categories":[],"categories_nodes":[],"categories_segments":[],"categories_sizes":[],"default_left":[0,0,0,0,0,0,0,0,0,0,0,0,0,0,0,0,0,0,0,0,0,0,0,0,0,0,0,0,0,0,0,0,0,0,0,0,0,0,0,0,0,0,0,0,0,0,0,0,0,0,0,0,0,0,0,0,0,0,0],"id":5,"left_children":[1,3,5,7,9,11,13,15,17,19,21,23,25,27,29,31,33,35,37,39,41,43,45,47,49,-1,-1,51,53,55,57,-1,-1,-1,-1,-1,-1,-1,-1,-1,-1,-1,-1,-1,-1,-1,-1,-1,-1,-1,-1,-1,-1,-1,-1,-1,-1,-1,-1],"loss_changes":[5.530353E3,8.592468E2,2.9679443E2,1.2860059E2,2.8813052E2,3.5043243E1,1.264978E2,2.7975342E1,5.6443863E1,6.758206E1,1.9087227E2,2.2406605E1,2.9932518E0,1.9321777E1,1.5914038E1,3.4365234E0,1.6464153E1,5.3163803E1,1.694397E1,3.4320316E1,6.6784363E0,6.2471596E1,6.3975327E1,8.468998E0,1.3770153E1,0E0,0E0,4.930908E0,2.413034E1,1.2506793E1,1.5505337E1,0E0,0E0,0E0,0E0,0E0,0E0,0E0,0E0,0E0,0E0,0E0,0E0,0E0,0E0,0E0,0E0,0E0,0E0,0E0,0E0,0E0,0E0,0E0,0E0,0E0,0E0,0E0,0E0],"parents":[2147483647,0,0,1,1,2,2,3,3,4,4,5,5,6,6,7,7,8,8,9,9,10,10,11,11,12,12,13,13,14,14,15,15,16,16,17,17,18,18,19,19,20,20,21,21,22,22,23,23,24,24,27,27,28,28,29,29,30,30],"right_children":[2,4,6,8,10,12,14,16,18,20,22,24,26,28,30,32,34,36,38,40,42,44,46,48,50,-1,-1,52,54,56,58,-1,-1,-1,-1,-1,-1,-1,-1,-1,-1,-1,-1,-1,-1,-1,-1,-1,-1,-1,-1,-1,-1,-1,-1,-1,-1,-1,-1],"split_conditions":[1.88E0,2.67E0,2.56E0,1.9E0,2.95E0,3.23E0,4E0,7.5E-1,3E0,4E0,2E0,2.5E0,3.3E0,1E0,-9.2E-1,2E0,2.035E0,3E0,2.1E-1,2E0,5E0,6E0,4E0,5E0,2.03E0,-1.6748916E-1,-4.073797E-2,2.85E0,3.43E0,2.28E0,5E0,1.4208446E-1,1.2329091E-1,8.252762E-2,-1.391209E-1,-8.885353E-3,1.0387E-1,1.2344017E-1,-2.3101602E-2,1.1023857E-1,-4.4279895E-3,1.2761533E-1,3.0055616E-2,1.2743966E-1,-6.0611755E-2,-9.1824435E-2,1.5946116E-1,8.0707826E-2,-2.6049767E-2,1.07555225E-1,-1.0708405E-1,-8.886801E-2,-1.4144562E-1,-1.2089443E-1,-2.3186464E-2,1.3082623E-1,-6.457301E-2,-9.8783165E-2,1.2953718E-2],"split_indices":[17,9,45,11,45,0,3,19,3,62,2,19,9,3,26,9,21,2,26,2,2,44,4,2,5,0,0,45,11,15,3,0,0,0,0,0,0,0,0,0,0,0,0,0,0,0,0,0,0,0,0,0,0,0,0,0,0,0,0],"split_type":[0,0,0,0,0,0,0,0,0,0,0,0,0,0,0,0,0,0,0,0,0,0,0,0,0,0,0,0,0,0,0,0,0,0,0,0,0,0,0,0,0,0,0,0,0,0,0,0,0,0,0,0,0,0,0,0,0,0,0],"sum_hessian":[4.80401E3,2.7099697E3,2.0940403E3,1.9857606E3,7.24209E2,1.1370483E2,1.9803354E3,1.6567102E3,3.2905045E2,2.8854156E2,4.3566745E2,1.0326826E2,1.0436565E1,1.9107313E3,6.960406E1,1.6450269E3,1.1683372E1,1.792426E2,1.4980783E2,1.3389932E2,1.5464226E2,8.9726326E1,3.4594113E2,8.8528404E1,1.4739851E1,6.953059E0,3.4835064E0,1.6273083E3,2.8342297E2,1.6053099E1,5.3550957E1,1.4754158E3,1.6961108E2,6.7913427E0,4.8920283E0,1.1449496E2,6.4747635E1,1.4176172E2,8.046119E0,3.434344E1,9.955588E1,1.4652242E2,8.1198435E0,6.647756E1,2.324876E1,3.3637616E2,9.564963E0,8.0819664E1,7.708746E0,3.030066E0,1.17097845E1,2.439216E1,1.6029163E3,2.5477931E2,2.8643656E1,1.2397374E1,3.6557236E0,1.7901886E1,3.564907E1],"tree_param":{"num_deleted":"0","num_feature":"64","num_nodes":"59","size_leaf_vector":"1"}},{"base_weights":[8.70468E-3,8.085651E-1,-1.2700746E0,1.2518086E0,-1.9802526E-2,-1.312913E0,1.1656576E-1,1.2792531E0,-1.5131198E-1,-3.5747316E-1,9.351298E-1,-1.3254962E0,-5.1738E-1,-7.90514E-1,4.786672E-1,1.300892E0,3.8048085E-3,1.1962844E0,-6.1980677E-1,6.051419E-1,-6.1955386E-1,6.3320404E-1,1.199058E0,-1.3369889E0,-9.162649E-1,-7.655818E-1,1.12899736E-1,-1.2587391E0,8.358909E-2,9.84742E-1,-4.110316E-2,1.3557467E-1,1.036786E-1,-1.256694E-1,5.5395134E-2,1.388395E-1,6.1708815E-2,1.3157246E-1,-1.0553149E-1,1.2961398E-1,-1.3741187E-2,-1.8057758E-2,-1.11066245E-1,7.672893E-2,-4.6713915E-2,1.2744002E-1,1.2648984E-2,-2.5509799E-2,-1.3390157E-1,-1.151936E-1,7.871068E-2,-8.645362E-3,-1.4263356E-1,-1.8033907E-2,-1.5930937E-1,-2.0606807E-2,1.4003563E-1,-8.401E-2,7.785017E-2],"categories":[],"categories_nodes":[],"categories_segments":[],"categories_sizes":[],"default_left":[0,0,0,0,0,0,0,0,0,0,0,0,0,0,0,0,0,0,0,0,0,0,0,0,0,0,0,0,0,0,0,0,0,0,0,0,0,0,0,0,0,0,0,0,0,0,0,0,0,0,0,0,0,0,0,0,0,0,0],"id":6,"left_children":[1,3,5,7,9,11,13,15,17,19,21,23,25,27,29,31,33,35,37,39,41,43,45,47,49,51,-1,53,-1,55,57,-1,-1,-1,-1,-1,-1,-1,-1,-1,-1,-1,-1,-1,-1,-1,-1,-1,-1,-1,-1,-1,-1,-1,-1,-1,-1,-1,-1],"loss_changes":[4.671297E3,1.0316187E3,1.0454346E2,7.067334E1,3.1644073E2,1.6379639E1,1.7978027E1,4.954297E1,2.3474072E1,1.8326758E2,1.9669922E1,6.665039E0,1.2381871E1,1.2981116E1,1.027771E1,2.416919E1,2.2160566E1,2.1475506E-1,2.4465572E1,8.003894E1,1.2274927E2,1.8313381E1,1.080246E1,3.2314453E0,2.057867E1,1.11349945E1,0E0,4.2421722E0,0E0,1.0067709E1,1.3855641E1,0E0,0E0,0E0,0E0,0E0,0E0,0E0,0E0,0E0,0E0,0E0,0E0,0E0,0E0,0E0,0E0,0E0,0E0,0E0,0E0,0E0,0E0,0E0,0E0,0E0,0E0,0E0,0E0],"parents":[2147483647,0,0,1,1,2,2,3,3,4,4,5,5,6,6,7,7,8,8,9,9,10,10,11,11,12,12,13,13,14,14,15,15,16,16,17,17,18,18,19,19,20,20,21,21,22,22,23,23,24,24,25,25,27,27,29,29,30,30],"right_children":[2,4,6,8,10,12,14,16,18,20,22,24,26,28,30,32,34,36,38,40,42,44,46,48,50,52,-1,54,-1,56,58,-1,-1,-1,-1,-1,-1,-1,-1,-1,-1,-1,-1,-1,-1,-1,-1,-1,-1,-1,-1,-1,-1,-1,-1,-1,-1,-1,-1],"split_conditions":[2.5E0,2.14E0,5E0,3.44E0,2E0,4E0,2.06E0,2.1E0,3.2175E0,2E0,4E0,3E0,3.53E0,3.64E0,-3.675E-1,2.08E0,3E0,5.375E-2,2E0,2.29E0,3.06875E0,3.22E0,1.54E0,2.77E0,3.02E0,2.76E0,1.12899736E-1,-6.75E-1,8.358909E-2,1.59E0,3E0,1.3557467E-1,1.036786E-1,-1.256694E-1,5.5395134E-2,1.388395E-1,6.1708815E-2,1.3157246E-1,-1.0553149E-1,1.2961398E-1,-1.3741187E-2,-1.8057758E-2,-1.11066245E-1,7.672893E-2,-4.6713915E-2,1.2744002E-1,1.2648984E-2,-2.5509799E-2,-1.3390157E-1,-1.151936E-1,7.871068E-2,-8.645362E-3,-1.4263356E-1,-1.8033907E-2,-1.5930937E-1,-2.0606807E-2,1.4003563E-1,-8.401E-2,7.785017E-2],"split_indices":[19,11,3,9,3,62,24,15,21,2,3,3,15,23,27,9,3,27,2,13,21,45,19,23,7,9,0,27,0,13,2,0,0,0,0,0,0,0,0,0,0,0,0,0,0,0,0,0,0,0,0,0,0,0,0,0,0,0,0],"split_type":[0,0,0,0,0,0,0,0,0,0,0,0,0,0,0,0,0,0,0,0,0,0,0,0,0,0,0,0,0,0,0,0,0,0,0,0,0,0,0,0,0,0,0,0,0,0,0,0,0,0,0,0,0,0,0,0,0,0,0],"sum_hessian":[4.5649614E3,2.8085908E3,1.7563706E3,1.8292715E3,9.793192E2,1.7037876E3,5.258311E1,1.7942648E3,3.5006805E1,7.2395087E2,2.5536835E2,1.676602E3,2.7185463E1,1.4664578E1,3.7918533E1,1.764312E3,2.9952684E1,8.629917E0,2.637689E1,1.546429E2,5.693079E2,1.2069555E2,1.3467279E2,1.628598E3,4.800408E1,2.4088898E1,3.0965636E0,1.1562045E1,3.1025329E0,1.8759125E1,1.9159407E1,1.4574645E3,3.068476E2,8.710606E0,2.1242079E1,5.431324E0,3.1985936E0,4.473622E0,2.1903267E1,7.971606E1,7.492684E1,3.013313E2,2.6797665E2,1.0785523E2,1.2840311E1,1.2565784E2,9.014961E0,3.2823966E0,1.6253156E3,4.2454056E1,5.5500245E0,1.2436946E1,1.1651953E1,3.1006906E0,8.461355E0,4.9838057E0,1.377532E1,9.68901E0,9.470397E0],"tree_param":{"num_deleted":"0","num_feature":"64","num_nodes":"59","size_leaf_vector":"1"}},{"base_weights":[-9.837847E-3,8.348599E-1,-1.129016E0,1.1739494E0,-3.9626494E-2,-1.2553574E0,-2.3391001E-1,1.2850181E0,6.1262214E-1,5.466374E-1,-5.65009E-1,-2.1602929E-1,-1.2824256E0,3.2490927E-1,-6.168975E-1,1.2955446E0,-2.5499048E-2,2.9659772E-1,1.240891E0,8.322645E-2,9.828874E-1,5.683816E-1,-8.473468E-1,5.386072E-1,-1.1548213E0,-4.1786024E-1,-1.2876328E0,5.31821E-1,-8.587981E-1,6.2309504E-1,-7.498937E-1,1.2987436E-1,3.7642E-2,6.988539E-2,-1.24845795E-1,-5.2271695E-3,9.548067E-2,1.2762913E-1,2.7067622E-2,3.1548515E-2,-9.9859625E-2,1.0740763E-1,2.678815E-2,1.3245052E-1,-5.9207886E-2,-9.122801E-2,1.3658617E-1,-2.8439378E-2,1.0805031E-1,-1.5906112E-1,2.2150813E-2,-1.2268867E-1,1.1068974E-1,-1.0660764E-1,-1.3017306E-1,-6.2370326E-2,6.878471E-2,-1.6286163E-1,3.7318103E-2,-4.7362432E-2,9.9932544E-2,-6.4238E-3,-8.6656734E-2],"categories":[],"categories_nodes":[],"categories_segments":[],"categories_sizes":[],"default_left":[0,0,0,0,0,0,0,0,0,0,0,0,0,0,0,0,0,0,0,0,0,0,0,0,0,0,0,0,0,0,0,0,0,0,0,0,0,0,0,0,0,0,0,0,0,0,0,0,0,0,0,0,0,0,0,0,0,0,0,0,0,0,0],"id":7,"left_children":[1,3,5,7,9,11,13,15,17,19,21,23,25,27,29,31,33,35,37,39,41,43,45,47,49,51,53,55,57,59,61,-1,-1,-1,-1,-1,-1,-1,-1,-1,-1,-1,-1,-1,-1,-1,-1,-1,-1,-1,-1,-1,-1,-1,-1,-1,-1,-1,-1,-1,-1,-1,-1],"loss_changes":[4.1018633E3,7.3326697E2,2.1075732E2,1.10301025E2,2.1341249E2,4.5725098E1,4.9866394E1,2.0540771E1,5.8449173E1,6.61257E1,1.1739979E2,3.0878496E1,6.635254E0,2.3730091E1,2.3231712E1,3.847168E0,1.2234744E1,4.5610527E1,3.0488281E0,4.049113E1,1.0705017E1,6.524541E1,4.3339905E1,1.1170606E1,1.1958263E1,1.4952038E1,3.5581055E0,1.5123188E1,1.4379522E1,6.2158914E0,9.953735E0,0E0,0E0,0E0,0E0,0E0,0E0,0E0,0E0,0E0,0E0,0E0,0E0,0E0,0E0,0E0,0E0,0E0,0E0,0E0,0E0,0E0,0E0,0E0,0E0,0E0,0E0,0E0,0E0,0E0,0E0,0E0,0E0],"parents":[2147483647,0,0,1,1,2,2,3,3,4,4,5,5,6,6,7,7,8,8,9,9,10,10,11,11,12,12,13,13,14,14,15,15,16,16,17,17,18,18,19,19,20,20,21,21,22,22,23,23,24,24,25,25,26,26,27,27,28,28,29,29,30,30],"right_children":[2,4,6,8,10,12,14,16,18,20,22,24,26,28,30,32,34,36,38,40,42,44,46,48,50,52,54,56,58,60,62,-1,-1,-1,-1,-1,-1,-1,-1,-1,-1,-1,-1,-1,-1,-1,-1,-1,-1,-1,-1,-1,-1,-1,-1,-1,-1,-1,-1,-1,-1,-1,-1],"split_conditions":[1.88E0,2.65E0,2E0,1.9E0,3.08E0,2.64E0,-1.3E-1,7.5E-1,4E0,1E0,2E0,2.74E0,2.465E0,5E0,1E0,3.93E0,2.035E0,3E0,3.43E0,3.4E0,2.87E0,8.6E-1,4E0,1.93E0,3.36E0,3.53E0,-2.5E0,1E0,-1.92E0,3.44E0,1.77E0,1.2987436E-1,3.7642E-2,6.988539E-2,-1.24845795E-1,-5.2271695E-3,9.548067E-2,1.2762913E-1,2.7067622E-2,3.1548515E-2,-9.9859625E-2,1.0740763E-1,2.678815E-2,1.3245052E-1,-5.9207886E-2,-9.122801E-2,1.3658617E-1,-2.8439378E-2,1.0805031E-1,-1.5906112E-1,2.2150813E-2,-1.2268867E-1,1.1068974E-1,-1.0660764E-1,-1.3017306E-1,-6.2370326E-2,6.878471E-2,-1.6286163E-1,3.7318103E-2,-4.7362432E-2,9.9932544E-2,-6.4238E-3,-8.6656734E-2],"split_indices":[17,9,3,11,45,45,26,19,3,3,2,13,21,2,22,7,21,2,45,5,45,13,4,22,5,45,26,41,26,19,15,0,0,0,0,0,0,0,0,0,0,0,0,0,0,0,0,0,0,0,0,0,0,0,0,0,0,0,0,0,0,0,0],"split_type":[0,0,0,0,0,0,0,0,0,0,0,0,0,0,0,0,0,0,0,0,0,0,0,0,0,0,0,0,0,0,0,0,0,0,0,0,0,0,0,0,0,0,0,0,0,0,0,0,0,0,0,0,0,0,0,0,0,0,0,0,0,0,0],"sum_hessian":[4.336913E3,2.4716748E3,1.8652382E3,1.7808086E3,6.908661E2,1.6341768E3,2.3106134E2,1.4855724E3,2.952363E2,3.2649564E2,3.6437045E2,4.170823E1,1.5924685E3,9.40232E1,1.3703815E2,1.473746E3,1.1826332E1,1.9740968E2,9.7826614E1,1.5889674E2,1.675989E2,7.24641E1,2.9190634E2,2.3358255E1,1.8349972E1,1.0020055E1,1.5824485E3,8.050216E1,1.3521041E1,1.2917404E1,1.2412074E2,1.468223E3,5.5230317E0,7.6963654E0,4.129967E0,1.2962523E2,6.7784454E1,9.40785E1,3.7481117E0,1.3139554E2,2.7501198E1,1.4819637E2,1.9402534E1,4.3790245E1,2.867386E1,2.8415726E2,7.7490873E0,9.462434E0,1.3895822E1,1.3818806E1,4.531167E0,6.67415E0,3.3459048E0,9.925224E1,1.4831963E3,9.220198E0,7.128196E1,8.123201E0,5.39784E0,3.2333255E0,9.684079E0,1.8274948E1,1.0584579E2],"tree_param":{"num_deleted":"0","num_feature":"64","num_nodes":"63","size_leaf_vector":"1"}},{"base_weights":[7.2277808E-3,8.10327E-1,-1.0815629E0,1.1567347E0,3.2842696E-2,-6.0145773E-2,-1.183742E0,1.2650919E0,8.2499444E-1,4.4609356E-1,-5.8085275E-1,1.3171564E-1,-9.645807E-1,-1.2165245E0,2.8464854E-1,1.2722243E0,-6.258036E-2,2.591952E-1,1.1443208E0,8.452789E-1,5.6637324E-2,4.9401492E-1,-8.6738026E-1,3.8721484E-1,-5.63335E-1,-1.3075333E0,1.4231431E-1,-1.3617054E-1,-1.2294563E0,-6.3769585E-1,5.668128E-1,1.275823E-1,5.8518745E-2,1.21673815E-1,-1.3083357E-1,5.544124E-2,-7.5170614E-2,1.1789624E-1,-9.709274E-2,9.715206E-2,-3.041309E-2,1.2854868E-1,-2.6296696E-2,9.370087E-2,-3.7196554E-2,2.00666E-2,-1.0583681E-1,-1.8468173E-2,6.5974884E-2,-1.886057E-3,-1.3361558E-1,-1.452853E-1,-3.0462323E-2,-4.6531387E-2,7.409596E-2,-6.939382E-2,1.529439E-1,-1.0020067E-1,-1.2548082E-1,-1.4842577E-1,7.2724536E-2,4.3709404E-3,1.196885E-1],"categories":[],"categories_nodes":[],"categories_segments":[],"categories_sizes":[],"default_left":[0,0,0,0,0,0,0,0,0,0,0,0,0,0,0,0,0,0,0,0,0,0,0,0,0,0,0,0,0,0,0,0,0,0,0,0,0,0,0,0,0,0,0,0,0,0,0,0,0,0,0,0,0,0,0,0,0,0,0,0,0,0,0],"id":8,"left_children":[1,3,5,7,9,11,13,15,17,19,21,23,25,27,29,31,33,35,37,39,41,43,45,47,49,51,53,55,57,59,61,-1,-1,-1,-1,-1,-1,-1,-1,-1,-1,-1,-1,-1,-1,-1,-1,-1,-1,-1,-1,-1,-1,-1,-1,-1,-1,-1,-1,-1,-1,-1,-1],"loss_changes":[3.6179053E3,6.412754E2,1.8323755E2,5.816797E1,1.8665205E2,2.802613E1,7.720215E1,1.1819824E1,7.3497925E1,6.832127E1,9.1647995E1,2.3929222E1,1.0913012E1,2.1654297E1,9.646421E0,2.302246E0,1.3668739E1,4.4777737E1,2.0254486E1,3.1797592E1,8.818347E1,2.4507051E1,4.798796E1,1.5431078E1,1.5247586E1,2.7159004E0,3.1042147E0,1.9269728E1,7.6418457E0,1.1280345E1,9.126404E0,0E0,0E0,0E0,0E0,0E0,0E0,0E0,0E0,0E0,0E0,0E0,0E0,0E0,0E0,0E0,0E0,0E0,0E0,0E0,0E0,0E0,0E0,0E0,0E0,0E0,0E0,0E0,0E0,0E0,0E0,0E0,0E0],"parents":[2147483647,0,0,1,1,2,2,3,3,4,4,5,5,6,6,7,7,8,8,9,9,10,10,11,11,12,12,13,13,14,14,15,15,16,16,17,17,18,18,19,19,20,20,21,21,22,22,23,23,24,24,25,25,26,26,27,27,28,28,29,29,30,30],"right_children":[2,4,6,8,10,12,14,16,18,20,22,24,26,28,30,32,34,36,38,40,42,44,46,48,50,52,54,56,58,60,62,-1,-1,-1,-1,-1,-1,-1,-1,-1,-1,-1,-1,-1,-1,-1,-1,-1,-1,-1,-1,-1,-1,-1,-1,-1,-1,-1,-1,-1,-1,-1,-1],"split_conditions":[1.81E0,2.22E0,2.88E0,1.82E0,3.0225E0,3.09E0,5E0,1.54E0,4E0,1E0,2E0,2.5E0,3.38E0,1.77E0,3.45E0,4E0,1.9E0,5E0,2.69E0,1.5E0,2E0,2.38E0,3E0,2.33E0,2.69E0,7.5875E-1,3.43E0,1E0,3.05E0,3.06E0,2.33E0,1.275823E-1,5.8518745E-2,1.21673815E-1,-1.3083357E-1,5.544124E-2,-7.5170614E-2,1.1789624E-1,-9.709274E-2,9.715206E-2,-3.041309E-2,1.2854868E-1,-2.6296696E-2,9.370087E-2,-3.7196554E-2,2.00666E-2,-1.0583681E-1,-1.8468173E-2,6.5974884E-2,-1.886057E-3,-1.3361558E-1,-1.452853E-1,-3.0462323E-2,-4.6531387E-2,7.409596E-2,-6.939382E-2,1.529439E-1,-1.0020067E-1,-1.2548082E-1,-1.4842577E-1,7.2724536E-2,4.3709404E-3,1.196885E-1],"split_indices":[17,11,45,9,21,13,3,19,62,14,2,19,9,15,45,45,7,2,15,19,2,15,45,7,0,27,5,4,19,5,11,0,0,0,0,0,0,0,0,0,0,0,0,0,0,0,0,0,0,0,0,0,0,0,0,0,0,0,0,0,0,0,0],"split_type":[0,0,0,0,0,0,0,0,0,0,0,0,0,0,0,0,0,0,0,0,0,0,0,0,0,0,0,0,0,0,0,0,0,0,0,0,0,0,0,0,0,0,0,0,0,0,0,0,0,0,0,0,0,0,0,0,0,0,0,0,0,0,0],"sum_hessian":[4.1355513E3,2.3801746E3,1.7553767E3,1.6462161E3,7.3395844E2,1.5977736E2,1.5955992E3,1.2387771E3,4.0743887E2,4.3877127E2,2.9518716E2,1.3251978E2,2.7257584E1,1.5609226E3,3.4676746E1,1.2321993E3,6.5777774E0,1.4764514E2,2.5979373E2,2.161012E2,2.2267009E2,6.1974476E1,2.3321268E2,9.72235E1,3.529627E1,2.0671585E1,6.586E0,1.8599504E1,1.542323E3,7.828094E0,2.6848652E1,1.2249263E3,7.2730656E0,3.2566645E0,3.3211126E0,1.14622955E2,3.302219E1,2.5604312E2,3.7505953E0,1.9485472E2,2.1246466E1,4.5335827E1,1.7733426E2,4.0946304E1,2.1028172E1,3.5369263E1,1.9784341E2,3.148223E1,6.574127E1,2.1308338E1,1.3987929E1,1.7663536E1,3.0080483E0,3.3790092E0,3.2069907E0,1.43705635E1,4.228941E0,1.5873436E2,1.3835887E3,4.777552E0,3.0505414E0,1.5253853E1,1.1594799E1],"tree_param":{"num_deleted":"0","num_feature":"64","num_nodes":"63","size_leaf_vector":"1"}},{"base_weights":[6.342951E-4,7.593186E-1,-1.0385985E0,1.1355938E0,7.265185E-2,-8.659103E-3,-1.148812E0,1.2350055E0,7.4224E-1,-3.3370942E-1,6.614919E-1,2.672784E-1,-6.064647E-1,-1.203379E0,-5.3807735E-1,1.2404157E0,9.2109805E-3,9.464002E-1,-2.6262844E-1,-4.274103E-1,1.4069575E0,3.5552952E-1,1.1400459E0,-5.702934E-1,4.502252E-1,-7.9071367E-1,1.2779762E-1,-3.430615E-2,-1.2126316E0,1.0807004E0,-6.5658617E-1,1.2426461E-1,6.797909E-2,1.0142448E-1,-5.825422E-2,8.95992E-2,-1.3144788E-1,3.878919E-2,-6.1213996E-2,1.6703682E-1,2.9045744E-2,4.5070924E-2,-8.42079E-2,1.1865369E-1,2.446067E-2,9.656973E-2,-9.439551E-2,5.4363485E-2,-1.3261479E-1,3.9103504E-2,-1.0086546E-1,-1.10855274E-1,9.624327E-2,-9.593573E-2,-1.2241583E-1,-1.6257275E-2,1.9412158E-1,-7.540461E-2,7.0115544E-2],"categories":[],"categories_nodes":[],"categories_segments":[],"categories_sizes":[],"default_left":[0,0,0,0,0,0,0,0,0,0,0,0,0,0,0,0,0,0,0,0,0,0,0,0,0,0,0,0,0,0,0,0,0,0,0,0,0,0,0,0,0,0,0,0,0,0,0,0,0,0,0,0,0,0,0,0,0,0,0],"id":9,"left_children":[1,3,5,7,9,11,13,15,17,19,21,23,25,27,29,31,-1,33,35,37,39,41,43,45,47,49,-1,51,53,55,57,-1,-1,-1,-1,-1,-1,-1,-1,-1,-1,-1,-1,-1,-1,-1,-1,-1,-1,-1,-1,-1,-1,-1,-1,-1,-1,-1,-1],"loss_changes":[3.0626357E3,5.8003503E2,1.8605298E2,5.579895E1,1.906587E2,2.6465305E1,4.8697266E1,7.0352783E0,6.0791306E1,7.7514786E1,4.7225952E1,1.7080227E1,1.86012E1,1.4652466E1,2.4354015E1,5.942383E-1,0E0,2.6055923E1,6.2862873E1,6.7747894E1,6.667572E0,2.3164598E1,4.972473E0,1.2461169E1,1.576553E1,1.24398155E1,0E0,1.359011E1,2.7601318E0,9.714812E0,1.5807743E1,0E0,0E0,0E0,0E0,0E0,0E0,0E0,0E0,0E0,0E0,0E0,0E0,0E0,0E0,0E0,0E0,0E0,0E0,0E0,0E0,0E0,0E0,0E0,0E0,0E0,0E0,0E0,0E0],"parents":[2147483647,0,0,1,1,2,2,3,3,4,4,5,5,6,6,7,7,8,8,9,9,10,10,11,11,12,12,13,13,14,14,15,15,17,17,18,18,19,19,20,20,21,21,22,22,23,23,24,24,25,25,27,27,28,28,29,29,30,30],"right_children":[2,4,6,8,10,12,14,16,18,20,22,24,26,28,30,32,-1,34,36,38,40,42,44,46,48,50,-1,52,54,56,58,-1,-1,-1,-1,-1,-1,-1,-1,-1,-1,-1,-1,-1,-1,-1,-1,-1,-1,-1,-1,-1,-1,-1,-1,-1,-1,-1,-1],"split_conditions":[1.88E0,1.93E0,2.88E0,1.92E0,4E0,2.5E0,2E0,1.54E0,5E0,4E0,4E0,2.12E0,8.710147E-1,2.49875E0,3.784618E-1,4E0,9.2109805E-3,3.76E0,2.69E0,2E0,9E0,5E0,2.03E0,8.3E-1,3.43E0,2.83E0,1.2779762E-1,2.22E0,-2.89E0,3.02E0,9.641873E-1,1.2426461E-1,6.797909E-2,1.0142448E-1,-5.825422E-2,8.95992E-2,-1.3144788E-1,3.878919E-2,-6.1213996E-2,1.6703682E-1,2.9045744E-2,4.5070924E-2,-8.42079E-2,1.1865369E-1,2.446067E-2,9.656973E-2,-9.439551E-2,5.4363485E-2,-1.3261479E-1,3.9103504E-2,-1.0086546E-1,-1.10855274E-1,9.624327E-2,-9.593573E-2,-1.2241583E-1,-1.6257275E-2,1.9412158E-1,-7.540461E-2,7.0115544E-2],"split_indices":[17,11,45,9,62,19,3,19,2,4,3,13,25,21,25,7,0,0,45,2,4,2,19,22,13,23,0,11,26,13,25,0,0,0,0,0,0,0,0,0,0,0,0,0,0,0,0,0,0,0,0,0,0,0,0,0,0,0,0],"split_type":[0,0,0,0,0,0,0,0,0,0,0,0,0,0,0,0,0,0,0,0,0,0,0,0,0,0,0,0,0,0,0,0,0,0,0,0,0,0,0,0,0,0,0,0,0,0,0,0,0,0,0,0,0,0,0,0,0,0,0],"sum_hessian":[3.8823772E3,2.244249E3,1.6381282E3,1.4493757E3,7.948732E2,1.5845496E2,1.4796732E3,1.1552671E3,2.941086E2,4.705664E2,3.2430682E2,1.0879146E2,4.9663498E1,1.357422E3,1.2225122E2,1.1497391E3,5.527988E0,2.444929E2,4.9615704E1,4.4724545E2,2.3320967E1,1.9888995E2,1.2541687E2,1.9123318E1,8.966814E1,4.5768898E1,3.8946009E0,1.0695803E1,1.3467262E3,7.7855062E0,1.1446571E2,1.1439714E3,5.767639E0,2.3442719E2,1.0065719E1,2.3680092E1,2.5935612E1,8.24137E1,3.6483176E2,1.8467855E1,4.8531117E0,1.8482469E2,1.4065251E1,1.189176E2,6.4992733E0,3.431837E0,1.569148E1,8.584784E1,3.8202977E0,7.002855E0,3.8766045E1,5.093763E0,5.6020403E0,6.2289116E1,1.284437E3,3.5162714E0,4.2692347E0,1.072144E2,7.2513127E0],"tree_param":{"num_deleted":"0","num_feature":"64","num_nodes":"59","size_leaf_vector":"1"}},{"base_weights":[9.180729E-3,7.437377E-1,-9.807391E-1,1.0916576E0,-4.525435E-3,-1.1332016E0,-1.1900629E-1,1.2014539E0,7.582412E-1,7.1356344E-1,-3.2505992E-1,-2.773227E-1,-1.1727457E0,-5.271201E-1,3.9193082E-1,1.206894E0,-1.3381848E-2,2.528643E-1,1.0546402E0,7.663591E-1,-9.380915E-2,6.9276506E-1,-5.8463943E-1,1.6583636E-1,-1.215678E0,-1.2079926E0,-1.0313628E0,-9.6903044E-1,-2.4103504E-1,1.2705262E0,2.0077324E-1,1.2102427E-1,8.714099E-3,1.1309307E-1,-6.240536E-3,1.12986244E-1,4.76351E-2,5.8003135E-2,1.2026703E-1,9.435773E-2,-6.354383E-2,3.69296E-2,-8.572071E-2,6.6081636E-2,-5.9733547E-2,-1.5859036E-1,-3.384939E-2,-1.2123674E-1,-1.5834099E-2,-1.1331146E-2,-1.058509E-1,-1.3500233E-1,-3.373866E-2,3.0931447E-2,-6.1887927E-2,1.3845704E-1,6.8055876E-2,3.7167996E-2,-6.1460238E-2],"categories":[],"categories_nodes":[],"categories_segments":[],"categories_sizes":[],"default_left":[0,0,0,0,0,0,0,0,0,0,0,0,0,0,0,0,0,0,0,0,0,0,0,0,0,0,0,0,0,0,0,0,0,0,0,0,0,0,0,0,0,0,0,0,0,0,0,0,0,0,0,0,0,0,0,0,0,0,0],"id":10,"left_children":[1,3,5,7,9,11,13,15,17,19,21,23,25,27,29,31,-1,33,35,37,-1,39,41,43,45,47,49,51,53,55,57,-1,-1,-1,-1,-1,-1,-1,-1,-1,-1,-1,-1,-1,-1,-1,-1,-1,-1,-1,-1,-1,-1,-1,-1,-1,-1,-1,-1],"loss_changes":[2.6730803E3,5.493705E2,2.0559192E2,5.1821045E1,1.54623E2,4.4700928E1,4.952425E1,8.020508E0,5.3591843E1,1.8797302E1,1.23113785E2,2.5177658E1,5.0893555E0,1.6443401E1,1.7480314E1,3.9353027E0,0E0,3.7230293E1,9.306686E0,1.5679588E1,0E0,3.21924E1,9.667868E1,1.6137709E1,5.7590523E0,4.4543457E0,6.3728333E0,1.1939922E1,1.7119392E1,3.1470108E-1,1.2479952E1,0E0,0E0,0E0,0E0,0E0,0E0,0E0,0E0,0E0,0E0,0E0,0E0,0E0,0E0,0E0,0E0,0E0,0E0,0E0,0E0,0E0,0E0,0E0,0E0,0E0,0E0,0E0,0E0],"parents":[2147483647,0,0,1,1,2,2,3,3,4,4,5,5,6,6,7,7,8,8,9,9,10,10,11,11,12,12,13,13,14,14,15,15,17,17,18,18,19,19,21,21,22,22,23,23,24,24,25,25,26,26,27,27,28,28,29,29,30,30],"right_children":[2,4,6,8,10,12,14,16,18,20,22,24,26,28,30,32,-1,34,36,38,-1,40,42,44,46,48,50,52,54,56,58,-1,-1,-1,-1,-1,-1,-1,-1,-1,-1,-1,-1,-1,-1,-1,-1,-1,-1,-1,-1,-1,-1,-1,-1,-1,-1,-1,-1],"split_conditions":[1.62E0,2.25E0,1E0,1.82E0,2.12E0,2.78E0,4E0,1.54E0,4E0,3.59E0,2E0,4.505552E-1,2E0,6.3204885E-1,9.5E-1,4E0,-1.3381848E-2,2E0,2E0,3E0,-9.380915E-2,3.93E0,1E0,2.31E0,1.72E0,3E0,2.465E0,3E0,2.17E0,2.8E0,5E0,1.2102427E-1,8.714099E-3,1.1309307E-1,-6.240536E-3,1.12986244E-1,4.76351E-2,5.8003135E-2,1.2026703E-1,9.435773E-2,-6.354383E-2,3.69296E-2,-8.572071E-2,6.6081636E-2,-5.9733547E-2,-1.5859036E-1,-3.384939E-2,-1.2123674E-1,-1.5834099E-2,-1.1331146E-2,-1.058509E-1,-1.3500233E-1,-3.373866E-2,3.0931447E-2,-6.1887927E-2,1.3845704E-1,6.8055876E-2,3.7167996E-2,-6.1460238E-2],"split_indices":[17,11,29,9,22,45,62,19,62,0,2,25,62,25,22,45,0,2,13,2,0,23,14,19,24,4,21,2,15,5,2,0,0,0,0,0,0,0,0,0,0,0,0,0,0,0,0,0,0,0,0,0,0,0,0,0,0,0,0],"split_type":[0,0,0,0,0,0,0,0,0,0,0,0,0,0,0,0,0,0,0,0,0,0,0,0,0,0,0,0,0,0,0,0,0,0,0,0,0,0,0,0,0,0,0,0,0,0,0,0,0,0,0,0,0,0,0,0,0,0,0],"sum_hessian":[3.67409E3,2.10922E3,1.5648701E3,1.4394568E3,6.697631E2,1.3293579E3,2.3551227E2,1.0809042E3,3.585526E2,2.0632036E2,4.6344275E2,5.90616E1,1.2702963E3,1.3091307E2,1.04599205E2,1.076614E3,4.290217E0,1.332341E2,2.2531851E2,2.0044894E2,5.8714094E0,9.38364E1,3.6960635E2,4.0675133E1,1.8386463E1,1.0107672E3,2.5952908E2,5.0507637E1,8.0405426E1,1.7682177E1,8.691703E1,1.0733234E3,3.2905955E0,3.451585E1,9.871825E1,1.9853926E2,2.6779259E1,1.4209593E2,5.8353027E1,7.9174934E1,1.4661472E1,8.205934E1,2.87547E2,2.4754145E1,1.5920989E1,1.2361291E1,6.025173E0,1.0064174E3,4.3497767E0,7.602328E0,2.5192676E2,3.079531E1,1.9712328E1,3.280485E1,4.7600574E1,1.3689128E1,3.9930487E0,7.230559E1,1.4611443E1],"tree_param":{"num_deleted":"0","num_feature":"64","num_nodes":"59","size_leaf_vector":"1"}},{"base_weights":[9.833915E-3,7.1241915E-1,-9.3460745E-1,1.0796652E0,7.1771435E-2,-1.0385338E0,2.9754144E-1,1.1193238E0,8.3997E-2,4.26495E-1,-5.110434E-1,-1.0022842E-1,-1.0991564E0,7.7652836E-1,7.6860175E-2,1.1800017E0,8.510648E-1,6.206328E-1,-1.0511528E0,2.547737E-1,1.0675564E0,1.3559918E-1,-5.7524526E-1,-1.327209E0,1.4485434E-1,-1.1764199E0,-8.792014E-1,1.1030936E0,-2.7362576E-1,4.248371E-1,-4.4773963E-1,1.18394546E-1,4.408064E-2,1.1603216E-1,5.9284694E-2,1.1198922E-1,-3.6392488E-2,1.3614582E-3,-1.3121659E-1,4.5590517E-3,8.134852E-2,1.12837486E-1,8.0756313E-4,2.1345502E-2,-7.406662E-2,3.538431E-2,-1.8247597E-1,4.150295E-2,-8.952697E-2,-7.8152485E-2,-1.1812126E-1,-4.767546E-2,-9.4069645E-2,1.2021279E-1,4.0657632E-2,8.561827E-2,-1.4952068E-1,-3.316092E-2,6.518926E-2,-1.2302218E-1,2.4033522E-2],"categories":[],"categories_nodes":[],"categories_segments":[],"categories_sizes":[],"default_left":[0,0,0,0,0,0,0,0,0,0,0,0,0,0,0,0,0,0,0,0,0,0,0,0,0,0,0,0,0,0,0,0,0,0,0,0,0,0,0,0,0,0,0,0,0,0,0,0,0,0,0,0,0,0,0,0,0,0,0,0,0],"id":11,"left_children":[1,3,5,7,9,11,13,15,17,19,21,23,25,27,29,31,33,35,37,39,41,-1,43,45,47,49,51,53,55,57,59,-1,-1,-1,-1,-1,-1,-1,-1,-1,-1,-1,-1,-1,-1,-1,-1,-1,-1,-1,-1,-1,-1,-1,-1,-1,-1,-1,-1,-1,-1],"loss_changes":[2.2913992E3,4.658045E2,1.8894092E2,4.9603027E1,1.4960287E2,7.7177124E1,1.2134321E1,1.8696167E1,3.0678825E1,4.923633E1,3.3605362E1,2.5319088E1,2.0653564E1,1.2742413E1,1.4809569E1,2.3477783E0,1.7426895E1,1.7168339E1,4.5183487E0,4.1573036E1,6.0932465E0,0E0,3.47902E1,1.2363672E1,2.0196648E1,8.585205E-1,7.85968E0,1.4336739E0,1.4261986E1,8.573895E0,1.7752975E1,0E0,0E0,0E0,0E0,0E0,0E0,0E0,0E0,0E0,0E0,0E0,0E0,0E0,0E0,0E0,0E0,0E0,0E0,0E0,0E0,0E0,0E0,0E0,0E0,0E0,0E0,0E0,0E0,0E0,0E0],"parents":[2147483647,0,0,1,1,2,2,3,3,4,4,5,5,6,6,7,7,8,8,9,9,10,10,11,11,12,12,13,13,14,14,15,15,16,16,17,17,18,18,19,19,20,20,22,22,23,23,24,24,25,25,26,26,27,27,28,28,29,29,30,30],"right_children":[2,4,6,8,10,12,14,16,18,20,22,24,26,28,30,32,34,36,38,40,42,-1,44,46,48,50,52,54,56,58,60,-1,-1,-1,-1,-1,-1,-1,-1,-1,-1,-1,-1,-1,-1,-1,-1,-1,-1,-1,-1,-1,-1,-1,-1,-1,-1,-1,-1,-1,-1],"split_conditions":[1.62E0,1.93E0,4E0,3.31E0,3.19E0,2.75E0,1.39E0,1.94E0,5E0,4E0,1E0,2.26E0,2E0,3E0,2.24E0,2.17E0,2.65E0,3.45E0,2.95E0,3E0,1.35E0,1.3559918E-1,2.62E0,2.9410884E-1,3.08E0,2.01E0,2.47E0,3.02E0,2.1E0,1.68E0,3.71E0,1.18394546E-1,4.408064E-2,1.1603216E-1,5.9284694E-2,1.1198922E-1,-3.6392488E-2,1.3614582E-3,-1.3121659E-1,4.5590517E-3,8.134852E-2,1.12837486E-1,8.0756313E-4,2.1345502E-2,-7.406662E-2,3.538431E-2,-1.8247597E-1,4.150295E-2,-8.952697E-2,-7.8152485E-2,-1.1812126E-1,-4.767546E-2,-9.4069645E-2,1.2021279E-1,4.0657632E-2,8.561827E-2,-1.4952068E-1,-3.316092E-2,6.518926E-2,-1.2302218E-1,2.4033522E-2],"split_indices":[17,11,3,9,45,45,19,9,2,3,2,7,62,2,7,13,0,0,7,2,17,0,9,25,13,0,17,9,15,13,23,0,0,0,0,0,0,0,0,0,0,0,0,0,0,0,0,0,0,0,0,0,0,0,0,0,0,0,0,0,0],"split_type":[0,0,0,0,0,0,0,0,0,0,0,0,0,0,0,0,0,0,0,0,0,0,0,0,0,0,0,0,0,0,0,0,0,0,0,0,0,0,0,0,0,0,0,0,0,0,0,0,0,0,0,0,0,0,0,0,0,0,0,0,0],"sum_hessian":[3.4512363E3,1.979156E3,1.4720804E3,1.2575757E3,7.215803E2,1.35772E3,1.1436054E2,1.2092843E3,4.8291393E1,4.487326E2,2.7284772E2,8.255786E1,1.2751621E3,3.5275837E1,7.90847E1,9.8343994E2,2.258443E2,3.3097836E1,1.519356E1,3.5502847E2,9.370415E1,8.4016285E0,2.6444608E2,1.300989E1,6.954797E1,9.4045874E2,3.347033E2,2.6869764E1,8.406074E0,4.7660656E1,3.1424044E1,9.776226E2,5.8173666E0,1.011762E2,1.2466809E2,2.187021E1,1.1227624E1,3.177838E0,1.2015722E1,2.5910165E2,9.59268E1,8.8555664E1,5.148478E0,4.5798042E1,2.1864804E2,3.0371704E0,9.972719E0,5.5684696E1,1.3863276E1,1.3244219E1,9.2721454E2,4.5524734E1,2.8917856E2,2.2889334E1,3.980431E0,4.522474E0,3.8835995E0,1.0896835E1,3.6763824E1,1.4334669E1,1.7089375E1],"tree_param":{"num_deleted":"0","num_feature":"64","num_nodes":"61","size_leaf_vector":"1"}},{"base_weights":[1.1226942E-2,6.7614603E-1,-9.1256285E-1,1.0489312E0,7.350291E-2,-1.0256178E0,6.1935566E-2,1.1213832E0,5.010316E-1,3.622058E-1,-5.0669867E-1,-1.14818E0,-7.249231E-1,-1.6511665E-1,5.659956E-1,1.1331048E0,-4.09584E-1,8.342398E-1,-6.446328E-1,1.10940374E-1,8.8288647E-1,1.358162E-1,-6.053185E-1,-1.1533265E0,1.4841233E-2,-5.290612E-1,-1.0618973E0,1.2749455E0,-3.1819457E-1,7.893906E-1,-2.54858E-1,1.1600342E-1,9.2873655E-2,2.3065079E-2,-1.0471906E-1,1.0821515E-1,2.995241E-2,5.4580618E-2,-1.1337334E-1,8.010324E-2,-2.7618146E-2,1.3343757E-1,-4.193616E-2,-6.956529E-2,1.367146E-1,2.9208919E-3,-1.1575085E-1,-5.8919515E-2,1.2684183E-1,-1.12676166E-1,5.776919E-3,1.6968949E-1,5.3411197E-2,2.6059214E-2,-6.387639E-2,9.310037E-2,-2.8292423E-2,-1.4194255E-1,5.6922745E-2],"categories":[],"categories_nodes":[],"categories_segments":[],"categories_sizes":[],"default_left":[0,0,0,0,0,0,0,0,0,0,0,0,0,0,0,0,0,0,0,0,0,0,0,0,0,0,0,0,0,0,0,0,0,0,0,0,0,0,0,0,0,0,0,0,0,0,0,0,0,0,0,0,0,0,0,0,0,0,0],"id":12,"left_children":[1,3,5,7,9,11,13,15,17,19,21,23,25,27,29,31,33,35,37,39,41,-1,43,45,-1,47,49,51,53,55,57,-1,-1,-1,-1,-1,-1,-1,-1,-1,-1,-1,-1,-1,-1,-1,-1,-1,-1,-1,-1,-1,-1,-1,-1,-1,-1,-1,-1],"loss_changes":[2.014114E3,4.2826196E2,1.5125916E2,4.619629E1,1.2242048E2,4.448889E1,1.652872E1,1.9118652E1,5.3743786E1,6.3728836E1,4.5491337E1,5.989624E0,2.311995E1,2.2401663E1,8.420644E0,4.6015625E0,3.7656426E0,1.4046768E1,1.9231522E1,8.843669E1,9.3840454E1,0E0,4.217787E1,4.3293457E0,0E0,2.5490295E1,9.571945E0,2.1531181E0,1.7049618E1,5.6509323E0,1.0736058E1,0E0,0E0,0E0,0E0,0E0,0E0,0E0,0E0,0E0,0E0,0E0,0E0,0E0,0E0,0E0,0E0,0E0,0E0,0E0,0E0,0E0,0E0,0E0,0E0,0E0,0E0,0E0,0E0],"parents":[2147483647,0,0,1,1,2,2,3,3,4,4,5,5,6,6,7,7,8,8,9,9,10,10,11,11,12,12,13,13,14,14,15,15,16,16,17,17,18,18,19,19,20,20,22,22,23,23,25,25,26,26,27,27,28,28,29,29,30,30],"right_children":[2,4,6,8,10,12,14,16,18,20,22,24,26,28,30,32,34,36,38,40,42,-1,44,46,-1,48,50,52,54,56,58,-1,-1,-1,-1,-1,-1,-1,-1,-1,-1,-1,-1,-1,-1,-1,-1,-1,-1,-1,-1,-1,-1,-1,-1,-1,-1,-1,-1],"split_conditions":[1.75E0,1.9E0,4E0,2.65E0,3.0575E0,2E0,5E0,7.5E-1,5E0,3E0,1E0,3E0,3.11E0,1E0,5E0,1.88E0,2.53E0,3.27E0,2.71E0,2E0,5E0,1.358162E-1,3E0,2.43E0,1.4841233E-2,3.62E0,3.93E0,-2.6E-1,3.09E0,2E0,-1.92E0,1.1600342E-1,9.2873655E-2,2.3065079E-2,-1.0471906E-1,1.0821515E-1,2.995241E-2,5.4580618E-2,-1.1337334E-1,8.010324E-2,-2.7618146E-2,1.3343757E-1,-4.193616E-2,-6.956529E-2,1.367146E-1,2.9208919E-3,-1.1575085E-1,-5.8919515E-2,1.2684183E-1,-1.12676166E-1,5.776919E-3,1.6968949E-1,5.3411197E-2,2.6059214E-2,-6.387639E-2,9.310037E-2,-2.8292423E-2,-1.4194255E-1,5.6922745E-2],"split_indices":[17,11,62,9,21,62,3,19,2,2,2,4,13,2,2,9,0,0,0,2,2,0,4,21,0,11,11,26,23,4,26,0,0,0,0,0,0,0,0,0,0,0,0,0,0,0,0,0,0,0,0,0,0,0,0,0,0,0,0],"split_type":[0,0,0,0,0,0,0,0,0,0,0,0,0,0,0,0,0,0,0,0,0,0,0,0,0,0,0,0,0,0,0,0,0,0,0,0,0,0,0,0,0,0,0,0,0,0,0,0,0,0,0,0,0,0,0,0,0,0,0],"sum_hessian":[3.2770007E3,1.9056401E3,1.3713606E3,1.1768928E3,7.2874725E2,1.2287559E3,1.4260472E2,1.038517E3,1.3837585E2,4.86864E2,2.4188327E2,8.7094366E2,3.5781216E2,9.878139E1,4.3823334E1,1.030884E3,7.632906E0,1.0740865E2,3.0967203E1,3.292099E2,1.5765411E2,1.1507599E1,2.3037567E2,8.6761035E2,3.3332813E0,2.2791156E2,1.299006E2,8.787289E0,8.9994095E1,3.4478382E1,9.344952E0,9.067293E2,1.2415473E2,4.1270747E0,3.505831E0,7.268549E1,3.472316E1,8.98423E0,2.1982973E1,1.1792499E2,2.1128491E2,1.17048676E2,4.060544E1,2.20906E2,9.469668E0,3.036342E0,8.6457404E2,2.2118414E2,6.7274165E0,1.2278131E2,7.119293E0,4.776349E0,4.01094E0,3.2144474E1,5.7849625E1,3.0572647E1,3.905733E0,3.5731213E0,5.77183E0],"tree_param":{"num_deleted":"0","num_feature":"64","num_nodes":"59","size_leaf_vector":"1"}},{"base_weights":[5.2730115E-3,6.3610476E-1,-8.90132E-1,1.1014855E0,1.6936837E-1,-9.918651E-1,2.5303134E-1,1.1285503E0,4.0180483E-1,-8.432186E-2,8.093973E-1,-5.606244E-1,-1.099001E0,8.097363E-1,2.3411596E-2,1.1326876E0,7.644585E-3,6.636759E-1,-1.0241411E-1,2.1174362E-1,-3.9175388E-1,9.08432E-1,-5.0080664E-2,-2.3247138E-1,-7.63902E-1,-1.1437738E0,-8.291307E-1,-2.5744444E-2,9.696182E-1,-2.7354112E-1,5.67624E-1,1.1485362E-1,9.435362E-2,9.4054945E-2,6.2443167E-3,6.9380933E-3,7.805496E-2,-4.7128614E-2,1.0386632E-1,6.302653E-2,1.1149086E-1,5.4210056E-2,-1.4376473E-1,-1.0147989E-1,-2.7369861E-3,-8.093366E-2,2.4641981E-2,-1.1492379E-1,9.492733E-4,-9.166284E-2,7.143653E-2,1.0850155E-2,1.1074334E-1,1.1719684E-2,-9.384218E-2,-6.880032E-2,7.639994E-2],"categories":[],"categories_nodes":[],"categories_segments":[],"categories_sizes":[],"default_left":[0,0,0,0,0,0,0,0,0,0,0,0,0,0,0,0,0,0,0,0,0,0,0,0,0,0,0,0,0,0,0,0,0,0,0,0,0,0,0,0,0,0,0,0,0,0,0,0,0,0,0,0,0,0,0,0,0],"id":13,"left_children":[1,3,5,7,9,11,13,15,17,19,21,23,25,27,29,31,-1,33,-1,35,37,39,41,43,45,47,49,-1,51,53,55,-1,-1,-1,-1,-1,-1,-1,-1,-1,-1,-1,-1,-1,-1,-1,-1,-1,-1,-1,-1,-1,-1,-1,-1,-1,-1],"loss_changes":[1.7619609E3,3.9731586E2,1.5019397E2,1.6895752E1,1.486147E2,5.4092896E1,1.3551388E1,3.7504883E0,1.400012E1,5.979944E1,2.2158188E1,1.5677422E1,1.0499756E1,5.5338764E0,1.2467743E1,1.5483398E0,0E0,5.059105E0,0E0,2.7062368E1,3.7145832E1,1.2679581E1,2.3613642E1,1.479104E1,6.9165115E0,5.1152344E0,1.935363E1,0E0,3.1012554E0,1.3091073E1,7.2378035E0,0E0,0E0,0E0,0E0,0E0,0E0,0E0,0E0,0E0,0E0,0E0,0E0,0E0,0E0,0E0,0E0,0E0,0E0,0E0,0E0,0E0,0E0,0E0,0E0,0E0,0E0],"parents":[2147483647,0,0,1,1,2,2,3,3,4,4,5,5,6,6,7,7,8,8,9,9,10,10,11,11,12,12,13,13,14,14,15,15,17,17,19,19,20,20,21,21,22,22,23,23,24,24,25,25,26,26,28,28,29,29,30,30],"right_children":[2,4,6,8,10,12,14,16,18,20,22,24,26,28,30,32,-1,34,-1,36,38,40,42,44,46,48,50,-1,52,54,56,-1,-1,-1,-1,-1,-1,-1,-1,-1,-1,-1,-1,-1,-1,-1,-1,-1,-1,-1,-1,-1,-1,-1,-1,-1,-1],"split_conditions":[1.81E0,2E0,4E0,1.68E0,2E0,3.17E0,1.07E0,4E0,1.54E0,3.44E0,1.35E0,2.78E0,1E0,1.86E0,2.67E0,1.55E0,7.644585E-3,1E0,-1.0241411E-1,2.12E0,3E0,4E0,1E0,1E0,3.93E0,3E0,2.82E0,-2.5744444E-2,2.1E0,2.28E0,1.97E0,1.1485362E-1,9.435362E-2,9.4054945E-2,6.2443167E-3,6.9380933E-3,7.805496E-2,-4.7128614E-2,1.0386632E-1,6.302653E-2,1.1149086E-1,5.4210056E-2,-1.4376473E-1,-1.0147989E-1,-2.7369861E-3,-8.093366E-2,2.4641981E-2,-1.1492379E-1,9.492733E-4,-9.166284E-2,7.143653E-2,1.0850155E-2,1.1074334E-1,1.1719684E-2,-9.384218E-2,-6.880032E-2,7.639994E-2],"split_indices":[17,9,3,13,3,19,22,7,19,23,19,13,3,7,13,9,0,60,0,13,4,3,1,41,11,4,22,0,17,15,15,0,0,0,0,0,0,0,0,0,0,0,0,0,0,0,0,0,0,0,0,0,0,0,0,0,0],"split_type":[0,0,0,0,0,0,0,0,0,0,0,0,0,0,0,0,0,0,0,0,0,0,0,0,0,0,0,0,0,0,0,0,0,0,0,0,0,0,0,0,0,0,0,0,0,0,0,0,0,0,0,0,0,0,0,0,0],"sum_hessian":[3.117341E3,1.8290361E3,1.2883049E3,9.1516705E2,9.13869E2,1.183146E3,1.0515892E2,8.8049506E2,3.4671997E1,6.550809E2,2.5878818E2,2.3668425E2,9.464618E2,2.9970377E1,7.5188545E1,8.769699E2,3.525156E0,2.9744139E1,4.927859E0,3.33868E2,3.2121283E2,2.3199878E2,2.6789392E1,9.135407E1,1.4533018E2,8.090057E2,1.3745615E2,3.8255243E0,2.6144854E1,4.896685E1,2.6221691E1,8.0449133E2,7.247859E1,1.997917E1,9.76497E0,2.6793124E2,6.5936775E1,3.0492908E2,1.6283762E1,1.0056688E2,1.314319E2,1.920322E1,7.5861726E0,1.8155394E1,7.319868E1,1.3926625E2,6.06393E0,8.051943E2,3.8113852E0,1.304664E2,6.989738E0,3.8535893E0,2.2291264E1,3.1360565E1,1.7606287E1,3.2077541E0,2.3013937E1],"tree_param":{"num_deleted":"0","num_feature":"64","num_nodes":"57","size_leaf_vector":"1"}},{"base_weights":[4.9675955E-3,5.3854465E-1,-9.6988225E-1,9.89829E-1,4.3129124E-2,-1.0834364E0,-2.9244882E-1,1.0928732E0,4.710308E-1,-1.558303E-1,8.0331194E-1,-1.1145859E0,-8.2363695E-1,-5.5589944E-1,1.8198729E-1,1.1020734E0,-4.960578E-2,7.209853E-1,-4.2975512E-1,5.0132316E-1,-3.41464E-1,8.9828223E-1,2.337784E-1,-1.1253707E0,-3.4822288E-1,-9.411833E-1,2.6324004E-1,-1.1029902E0,-2.7818832E-1,-7.393825E-1,5.116806E-1,1.1097008E-1,3.4435127E-2,9.818176E-2,9.987545E-3,7.455785E-2,-8.9274704E-2,9.444453E-2,-9.151566E-3,-7.044004E-2,1.9146977E-2,1.0103978E-1,3.0791134E-2,5.294578E-2,-7.048377E-2,-3.4429606E-2,-1.1287798E-1,-1.0730671E-1,1.4443015E-1,-1.0369816E-1,8.3694935E-2,-1.0258316E-1,1.6494781E-1,-1.17203845E-2,-1.2393861E-1,-7.3902786E-2,1.3102516E-2,4.5965105E-2,-1.14313684E-1,6.435716E-2,-6.628834E-2],"categories":[],"categories_nodes":[],"categories_segments":[],"categories_sizes":[],"default_left":[0,0,0,0,0,0,0,0,0,0,0,0,0,0,0,0,0,0,0,0,0,0,0,0,0,0,0,0,0,0,0,0,0,0,0,0,0,0,0,0,0,0,0,0,0,0,0,0,0,0,0,0,0,0,0,0,0,0,0,0,0],"id":14,"left_children":[1,3,5,7,9,11,13,15,17,19,21,23,25,27,29,31,-1,33,35,37,39,41,43,45,47,49,51,53,55,57,59,-1,-1,-1,-1,-1,-1,-1,-1,-1,-1,-1,-1,-1,-1,-1,-1,-1,-1,-1,-1,-1,-1,-1,-1,-1,-1,-1,-1,-1,-1],"loss_changes":[1.5252689E3,4.2364282E2,7.9474304E1,5.249823E1,1.3691273E2,6.2679443E0,1.8884464E1,1.2629944E1,3.7704266E1,8.771588E1,9.946144E0,6.1382446E0,1.288298E1,1.4410959E1,1.6905716E1,4.3693237E0,0E0,2.1024376E1,2.0637554E1,4.1717445E1,1.0848271E2,1.0317657E1,8.196026E0,1.6847534E0,1.7677282E1,1.610765E1,2.0336458E1,4.1948776E0,1.2466141E1,7.6647263E0,6.725523E0,0E0,0E0,0E0,0E0,0E0,0E0,0E0,0E0,0E0,0E0,0E0,0E0,0E0,0E0,0E0,0E0,0E0,0E0,0E0,0E0,0E0,0E0,0E0,0E0,0E0,0E0,0E0,0E0,0E0,0E0],"parents":[2147483647,0,0,1,1,2,2,3,3,4,4,5,5,6,6,7,7,8,8,9,9,10,10,11,11,12,12,13,13,14,14,15,15,17,17,18,18,19,19,20,20,21,21,22,22,23,23,24,24,25,25,26,26,27,27,28,28,29,29,30,30],"right_children":[2,4,6,8,10,12,14,16,18,20,22,24,26,28,30,32,-1,34,36,38,40,42,44,46,48,50,52,54,56,58,60,-1,-1,-1,-1,-1,-1,-1,-1,-1,-1,-1,-1,-1,-1,-1,-1,-1,-1,-1,-1,-1,-1,-1,-1,-1,-1,-1,-1,-1,-1],"split_conditions":[2.5E0,1.72E0,2E0,2.29E0,3E0,1E0,5E0,1.32E0,5E0,2E0,8.4E-1,2E0,3.49E0,2.33E0,2.06E0,2.03E0,-4.960578E-2,3.27E0,2.61E0,1.38E0,3E0,2.28E0,2.78E0,2.41E0,3.45E0,3.6E0,2.4E0,1.77E0,2E0,2.75E0,2.68E0,1.1097008E-1,3.4435127E-2,9.818176E-2,9.987545E-3,7.455785E-2,-8.9274704E-2,9.444453E-2,-9.151566E-3,-7.044004E-2,1.9146977E-2,1.0103978E-1,3.0791134E-2,5.294578E-2,-7.048377E-2,-3.4429606E-2,-1.1287798E-1,-1.0730671E-1,1.4443015E-1,-1.0369816E-1,8.3694935E-2,-1.0258316E-1,1.6494781E-1,-1.17203845E-2,-1.2393861E-1,-7.3902786E-2,1.3102516E-2,4.5965105E-2,-1.14313684E-1,6.435716E-2,-6.628834E-2],"split_indices":[19,11,3,9,3,3,3,19,2,2,19,4,0,11,24,15,0,0,7,15,2,15,11,21,7,11,22,15,2,23,7,0,0,0,0,0,0,0,0,0,0,0,0,0,0,0,0,0,0,0,0,0,0,0,0,0,0,0,0,0,0],"split_type":[0,0,0,0,0,0,0,0,0,0,0,0,0,0,0,0,0,0,0,0,0,0,0,0,0,0,0,0,0,0,0,0,0,0,0,0,0,0,0,0,0,0,0,0,0,0,0,0,0,0,0,0,0,0,0,0,0,0,0,0,0],"sum_hessian":[2.9303174E3,1.8940631E3,1.0362543E3,9.906559E2,9.034072E2,8.869764E2,1.4927786E2,8.2557324E2,1.6508261E2,7.166393E2,1.8676794E2,7.8907715E2,9.789923E1,9.58702E1,5.3407665E1,8.211252E2,4.4480734E0,1.2938095E2,3.570166E1,1.5747359E2,5.591657E2,1.595805E2,2.7187439E1,7.7766473E2,1.1412407E1,8.846566E1,9.433568E0,3.1278957E1,6.459125E1,1.3747078E1,3.9660587E1,8.1248206E2,8.643139E0,9.070785E1,3.8673103E1,9.916829E0,2.5784832E1,8.9776405E1,6.769718E1,3.3244418E2,2.2672153E2,1.3351384E2,2.6066671E1,2.1006094E1,6.1813455E0,3.8226151E0,7.738421E2,8.4121475E0,3.0002599E0,8.433867E1,4.126993E0,5.0228124E0,4.410756E0,4.0277977E0,2.725116E1,3.0000233E1,3.459101E1,3.4281178E0,1.031896E1,3.6063156E1,3.5974312E0],"tree_param":{"num_deleted":"0","num_feature":"64","num_nodes":"61","size_leaf_vector":"1"}},{"base_weights":[8.7628355E-3,5.114462E-1,-9.335082E-1,9.737251E-1,-1.5420909E-2,-1.0905011E0,-4.2978728E-1,1.0995086E0,6.1421126E-1,-2.0019653E-1,7.605088E-1,-1.1018827E0,-3.3506548E-1,-6.139676E-1,1.9533814E-1,1.1071734E0,-1.9718809E-2,7.64485E-1,-3.6322124E-2,-1.8973056E-2,-6.818789E-1,8.112296E-1,-3.8331938E-1,-3.090888E-2,-1.1058667E0,-1.0574918E-1,1.3655046E-1,-7.4098194E-1,3.2839885E-1,-6.320953E-1,5.065185E-1,1.1107253E-1,5.2276768E-2,8.2020074E-2,-4.511208E-2,7.600036E-2,-7.476184E-2,-2.7295215E-2,5.339214E-2,-7.308992E-2,1.2840338E-1,5.8202613E-2,1.0263779E-1,-1.606087E-1,9.311949E-2,-6.2990844E-2,-1.11218624E-1,-4.6845403E-2,-1.04884945E-1,2.6002604E-1,-3.552353E-2,2.4266623E-2,-1.3487472E-1,8.9774676E-2,-2.851013E-2],"categories":[],"categories_nodes":[],"categories_segments":[],"categories_sizes":[],"default_left":[0,0,0,0,0,0,0,0,0,0,0,0,0,0,0,0,0,0,0,0,0,0,0,0,0,0,0,0,0,0,0,0,0,0,0,0,0,0,0,0,0,0,0,0,0,0,0,0,0,0,0,0,0,0,0],"id":15,"left_children":[1,3,5,7,9,11,13,15,17,19,21,23,25,27,29,31,-1,33,35,37,39,41,43,-1,45,-1,-1,47,49,51,53,-1,-1,-1,-1,-1,-1,-1,-1,-1,-1,-1,-1,-1,-1,-1,-1,-1,-1,-1,-1,-1,-1,-1,-1],"loss_changes":[1.3080753E3,4.3863312E2,7.550702E1,4.2702637E1,1.209614E2,5.9229126E0,2.6593334E1,7.2684326E0,2.4554382E1,5.9463516E1,9.725349E0,1.934021E0,1.6553654E1,2.1530441E1,1.398884E1,8.8342285E-1,0E0,1.4176819E1,2.7776377E1,6.981164E1,1.8886086E1,7.0807877E0,1.3661969E1,0E0,1.4544678E0,0E0,0E0,1.268383E1,3.4807137E1,9.701427E0,1.2375589E1,0E0,0E0,0E0,0E0,0E0,0E0,0E0,0E0,0E0,0E0,0E0,0E0,0E0,0E0,0E0,0E0,0E0,0E0,0E0,0E0,0E0,0E0,0E0,0E0],"parents":[2147483647,0,0,1,1,2,2,3,3,4,4,5,5,6,6,7,7,8,8,9,9,10,10,11,11,12,12,13,13,14,14,15,15,17,17,18,18,19,19,20,20,21,21,22,22,24,24,27,27,28,28,29,29,30,30],"right_children":[2,4,6,8,10,12,14,16,18,20,22,24,26,28,30,32,-1,34,36,38,40,42,44,-1,46,-1,-1,48,50,52,54,-1,-1,-1,-1,-1,-1,-1,-1,-1,-1,-1,-1,-1,-1,-1,-1,-1,-1,-1,-1,-1,-1,-1,-1],"split_conditions":[2.5E0,1.9E0,1E0,1.88E0,3E0,2E0,5E0,1.96E0,5E0,3.46E0,4.475E-1,3.02E0,3.34E0,3.36E0,3.46E0,4E0,-1.9718809E-2,3.76E0,2.74E0,3E0,-2.08E0,6E0,3.58E0,-3.090888E-2,2.01E0,-1.0574918E-1,1.3655046E-1,2.68E0,2.42E0,2.1075E0,1.42E0,1.1107253E-1,5.2276768E-2,8.2020074E-2,-4.511208E-2,7.600036E-2,-7.476184E-2,-2.7295215E-2,5.339214E-2,-7.308992E-2,1.2840338E-1,5.8202613E-2,1.0263779E-1,-1.606087E-1,9.311949E-2,-6.2990844E-2,-1.11218624E-1,-4.6845403E-2,-1.04884945E-1,2.6002604E-1,-3.552353E-2,2.4266623E-2,-1.3487472E-1,8.9774676E-2,-2.851013E-2],"split_indices":[19,11,3,9,3,4,3,17,2,45,27,23,5,11,23,7,0,0,0,2,26,3,23,0,0,0,0,5,17,21,26,0,0,0,0,0,0,0,0,0,0,0,0,0,0,0,0,0,0,0,0,0,0,0,0],"split_type":[0,0,0,0,0,0,0,0,0,0,0,0,0,0,0,0,0,0,0,0,0,0,0,0,0,0,0,0,0,0,0,0,0,0,0,0,0,0,0,0,0,0,0,0,0,0,0,0,0,0,0,0,0,0,0],"sum_hessian":[2.7596028E3,1.7998662E3,9.597366E2,9.5824426E2,8.41622E2,7.308045E2,2.2893205E2,7.0835333E2,2.4989095E2,6.8034937E2,1.6127266E2,7.195056E2,1.1298899E1,1.768459E2,5.2086143E1,7.043362E2,4.0171328E0,2.028559E2,4.703505E1,4.9511246E2,1.852369E2,1.5470341E2,6.569243E0,3.9905596E0,7.15515E2,8.195492E0,3.1034067E0,1.5602957E2,2.0816334E1,1.3953167E1,3.8132977E1,6.991861E2,5.15007E0,1.9427675E2,8.579147E0,2.2158836E1,2.4876215E1,3.3961316E2,1.554993E2,1.8134328E2,3.8936083E0,7.669904E1,7.800437E1,3.288476E0,3.280767E0,1.0694842E1,7.048202E2,8.4102585E1,7.192699E1,4.1665196E0,1.6649815E1,6.581287E0,7.3718796E0,2.543073E1,1.2702245E1],"tree_param":{"num_deleted":"0","num_feature":"64","num_nodes":"55","size_leaf_vector":"1"}},{"base_weights":[2.3529446E-3,5.611072E-1,-8.356356E-1,9.479822E-1,6.633812E-2,-1.0304401E0,-3.5902315E-1,1.0798104E0,5.659215E-1,-9.70725E-2,7.485391E-1,5.2903075E-2,-1.0438414E0,-4.6715868E-1,4.7580156E-1,1.0874962E0,-2.7387617E-2,1.3473745E-1,9.816822E-1,4.4429835E-2,-8.787509E-1,9.163985E-1,4.20474E-1,-5.5979896E-1,-1.0795509E0,-6.9580543E-1,2.1489915E-2,1.1920762E0,-3.1662464E-1,1.09452724E-1,8.912547E-3,1.1675056E-1,-1.8767042E-2,1.052402E-1,4.91445E-2,-2.4899743E-2,1.1990515E-1,-1.0702383E-1,1.4407103E-1,1.0788333E-1,4.9449414E-2,1.3844119E-2,1.0240858E-1,4.3936055E-2,-1.0341203E-1,-1.0915195E-1,-3.76676E-2,-7.5299725E-2,9.1198444E-2,5.3552892E-2,-3.5253152E-2,1.7687361E-1,-9.606874E-2,-9.398777E-2,8.332238E-2],"categories":[],"categories_nodes":[],"categories_segments":[],"categories_sizes":[],"default_left":[0,0,0,0,0,0,0,0,0,0,0,0,0,0,0,0,0,0,0,0,0,0,0,0,0,0,0,0,0,0,0,0,0,0,0,0,0,0,0,0,0,0,0,0,0,0,0,0,0,0,0,0,0,0,0],"id":16,"left_children":[1,3,5,7,9,11,13,15,17,19,21,-1,23,25,27,29,-1,31,33,35,37,39,41,43,45,47,49,51,53,-1,-1,-1,-1,-1,-1,-1,-1,-1,-1,-1,-1,-1,-1,-1,-1,-1,-1,-1,-1,-1,-1,-1,-1,-1,-1],"loss_changes":[1.21442E3,2.9779153E2,9.596393E1,4.3367798E1,7.631289E1,1.5933533E1,2.7536808E1,7.0404663E0,4.0400208E1,6.1164333E1,6.8989105E0,0E0,1.2014709E1,3.0000439E1,2.0353075E1,4.427429E0,0E0,3.7561806E1,3.4680176E0,1.5915082E2,3.918451E1,5.405159E0,7.7947407E0,2.5209948E1,5.2994385E0,1.7501144E1,1.6823135E1,2.4907145E1,1.3323496E1,0E0,0E0,0E0,0E0,0E0,0E0,0E0,0E0,0E0,0E0,0E0,0E0,0E0,0E0,0E0,0E0,0E0,0E0,0E0,0E0,0E0,0E0,0E0,0E0,0E0,0E0],"parents":[2147483647,0,0,1,1,2,2,3,3,4,4,5,5,6,6,7,7,8,8,9,9,10,10,12,12,13,13,14,14,15,15,17,17,18,18,19,19,20,20,21,21,22,22,23,23,24,24,25,25,26,26,27,27,28,28],"right_children":[2,4,6,8,10,12,14,16,18,20,22,-1,24,26,28,30,-1,32,34,36,38,40,42,44,46,48,50,52,54,-1,-1,-1,-1,-1,-1,-1,-1,-1,-1,-1,-1,-1,-1,-1,-1,-1,-1,-1,-1,-1,-1,-1,-1,-1,-1],"split_conditions":[1.88E0,1.9E0,1E0,1.94E0,3E0,2.43E0,3.29E0,1.03E0,4E0,5E0,1.47E0,5.2903075E-2,-2.86E0,4E0,1.31E0,4E0,-2.7387617E-2,2E0,1E0,3E0,2.78E0,1.16E0,2.64E0,3.13125E0,2E0,3.6E0,2.09E0,3.27E0,3.26E0,1.09452724E-1,8.912547E-3,1.1675056E-1,-1.8767042E-2,1.052402E-1,4.91445E-2,-2.4899743E-2,1.1990515E-1,-1.0702383E-1,1.4407103E-1,1.0788333E-1,4.9449414E-2,1.3844119E-2,1.0240858E-1,4.3936055E-2,-1.0341203E-1,-1.0915195E-1,-3.76676E-2,-7.5299725E-2,9.1198444E-2,5.3552892E-2,-3.5253152E-2,1.7687361E-1,-9.606874E-2,-9.398777E-2,8.332238E-2],"split_indices":[17,11,3,9,3,21,9,17,62,2,22,0,26,3,24,7,0,2,57,2,15,19,21,21,4,11,19,7,15,0,0,0,0,0,0,0,0,0,0,0,0,0,0,0,0,0,0,0,0,0,0,0,0,0,0],"split_type":[0,0,0,0,0,0,0,0,0,0,0,0,0,0,0,0,0,0,0,0,0,0,0,0,0,0,0,0,0,0,0,0,0,0,0,0,0,0,0,0,0,0,0,0,0,0,0,0,0,0,0,0,0,0,0],"sum_hessian":[2.5916404E3,1.5550764E3,1.036564E3,8.72178E2,6.8289844E2,7.34991E2,3.0157297E2,6.4707983E2,2.2509814E2,5.5162335E2,1.3127507E2,5.934452E0,7.290566E2,2.6737952E2,3.4193474E1,6.4362225E2,3.4576218E0,1.1114947E2,1.1394867E2,4.678708E2,8.375255E1,8.565504E1,4.5620033E1,5.1235508E1,6.7782104E2,1.8186018E2,8.551932E1,1.7694796E1,1.6498678E1,6.390256E2,4.596671E0,2.5819792E1,8.532967E1,9.8581024E1,1.5367651E1,3.736886E2,9.418219E1,7.7863014E1,5.889536E0,6.0720413E1,2.4934626E1,3.1930237E1,1.36897955E1,1.651671E1,3.4718796E1,6.659285E2,1.1892491E1,1.7612672E2,5.7334676E0,3.5836018E1,4.96833E1,1.4097022E1,3.5977738E0,1.08177395E1,5.6809382E0],"tree_param":{"num_deleted":"0","num_feature":"64","num_nodes":"55","size_leaf_vector":"1"}},{"base_weights":[1.2610169E-2,4.7311336E-1,-8.919958E-1,9.440175E-1,5.1768333E-2,-1.0263168E0,-1.9763361E-1,1.0727427E0,5.1296484E-1,4.0892714E-1,-3.5170874E-1,8.925931E-2,-1.0384091E0,2.1823101E-1,-4.6166956E-1,1.0786914E-1,4.7757125E-1,1.0375845E0,2.4696839E-1,2.6712862E-1,8.122917E-1,2.8234726E-1,-4.9921525E-1,-6.014379E-1,-1.065416E0,-6.3467467E-1,7.6184744E-1,-8.4242254E-1,3.6362454E-2,-1.6208831E-2,1.0932014E-1,1.09573804E-1,-4.470367E-3,6.0332404E-4,7.499584E-2,8.941622E-3,5.721276E-2,9.07582E-2,2.3992833E-2,5.5343498E-2,-6.201754E-2,-5.8443654E-2,1.0342827E-1,3.9115425E-2,-8.400861E-2,-1.0717248E-1,-1.7131612E-2,-9.101415E-3,-1.3175061E-1,-6.36248E-2,1.01300634E-1,6.062987E-2,-1.0085233E-1,7.021665E-2,-7.964846E-2],"categories":[],"categories_nodes":[],"categories_segments":[],"categories_sizes":[],"default_left":[0,0,0,0,0,0,0,0,0,0,0,0,0,0,0,0,0,0,0,0,0,0,0,0,0,0,0,0,0,0,0,0,0,0,0,0,0,0,0,0,0,0,0,0,0,0,0,0,0,0,0,0,0,0,0],"id":17,"left_children":[1,3,5,7,9,11,13,15,17,19,21,-1,23,25,27,-1,29,31,33,35,37,39,41,43,45,47,49,51,53,-1,-1,-1,-1,-1,-1,-1,-1,-1,-1,-1,-1,-1,-1,-1,-1,-1,-1,-1,-1,-1,-1,-1,-1,-1,-1],"loss_changes":[1.0256222E3,3.2365884E2,7.725989E1,4.219574E1,1.24378426E2,1.706958E1,1.5018753E1,1.5818481E0,2.4732399E1,2.5965614E1,3.8051674E1,0E0,7.5231934E0,2.5261194E1,1.5849556E1,0E0,3.1920152E0,3.8211746E0,1.4554455E1,1.8387829E1,6.249466E0,1.921661E1,4.3626938E1,1.04110365E1,3.4841309E0,7.8050156E0,1.2264658E1,1.1997894E1,2.1133186E1,0E0,0E0,0E0,0E0,0E0,0E0,0E0,0E0,0E0,0E0,0E0,0E0,0E0,0E0,0E0,0E0,0E0,0E0,0E0,0E0,0E0,0E0,0E0,0E0,0E0,0E0],"parents":[2147483647,0,0,1,1,2,2,3,3,4,4,5,5,6,6,7,7,8,8,9,9,10,10,12,12,13,13,14,14,16,16,17,17,18,18,19,19,20,20,21,21,22,22,23,23,24,24,25,25,26,26,27,27,28,28],"right_children":[2,4,6,8,10,12,14,16,18,20,22,-1,24,26,28,-1,30,32,34,36,38,40,42,44,46,48,50,52,54,-1,-1,-1,-1,-1,-1,-1,-1,-1,-1,-1,-1,-1,-1,-1,-1,-1,-1,-1,-1,-1,-1,-1,-1,-1,-1],"split_conditions":[2.5E0,1.64E0,2E0,2.08E0,2.97E0,-7.9E-1,2.1E0,1.96E0,2.64E0,4E0,2.6E0,8.925931E-2,2.41E0,3.41E0,2.67E0,1.0786914E-1,2.69E0,1.86E0,1E0,2.83E0,1.54E0,3.44E0,4E0,2.21E0,3E0,1E0,2.29E0,1.15E0,2.91E0,-1.6208831E-2,1.0932014E-1,1.09573804E-1,-4.470367E-3,6.0332404E-4,7.499584E-2,8.941622E-3,5.721276E-2,9.07582E-2,2.3992833E-2,5.5343498E-2,-6.201754E-2,-5.8443654E-2,1.0342827E-1,3.9115425E-2,-8.400861E-2,-1.0717248E-1,-1.7131612E-2,-9.101415E-3,-1.3175061E-1,-6.36248E-2,1.01300634E-1,6.062987E-2,-1.0085233E-1,7.021665E-2,-7.964846E-2],"split_indices":[19,11,3,9,45,26,15,17,5,3,5,0,9,19,13,0,13,13,3,11,19,45,4,5,4,1,0,13,17,0,0,0,0,0,0,0,0,0,0,0,0,0,0,0,0,0,0,0,0,0,0,0,0,0,0],"split_type":[0,0,0,0,0,0,0,0,0,0,0,0,0,0,0,0,0,0,0,0,0,0,0,0,0,0,0,0,0,0,0,0,0,0,0,0,0,0,0,0,0,0,0,0,0,0,0,0,0,0,0,0,0,0,0],"sum_hessian":[2.460028E3,1.6304833E3,8.2954486E2,7.6937396E2,8.611093E2,6.9468365E2,1.3486124E2,5.913042E2,1.7806976E2,4.5676575E2,4.0434357E2,3.894254E0,6.9078937E2,5.2440052E1,8.242119E1,5.846484E2,6.6558375E0,5.893421E1,1.1913555E2,3.391895E2,1.1757623E2,7.614037E1,3.282032E2,4.1563404E1,6.4922595E2,2.0347845E1,3.209221E1,4.6318497E1,3.610269E1,3.6255188E0,3.030319E0,5.591724E1,3.016974E0,8.123534E1,3.7900215E1,2.1513243E2,1.24057076E2,1.0029319E2,1.7283049E1,5.885045E1,1.728992E1,3.1151047E2,1.6692722E1,7.9322653E0,3.3631138E1,6.444798E2,4.7461762E0,1.1959307E1,8.388538E0,4.6537123E0,2.7438496E1,4.491729E0,4.182677E1,2.0150589E1,1.5952104E1],"tree_param":{"num_deleted":"0","num_feature":"64","num_nodes":"55","size_leaf_vector":"1"}},{"base_weights":[8.69746E-3,4.387377E-1,-8.537396E-1,1.058659E0,1.2576607E-1,-1.0622244E0,-3.115333E-1,1.0673678E0,-1.5596454E-2,4.2331403E-1,-2.4342872E-1,-1.0694029E0,-9.141583E-3,-5.312984E-1,1.5368979E-1,1.0747563E0,-7.932736E-3,8.182077E-1,2.5835553E-1,4.329681E-1,-4.3177685E-1,-6.8298405E-1,-1.0832275E0,-7.5275004E-1,8.286336E-2,4.4767976E-1,-1.1288249E-1,1.078062E-1,5.341738E-2,8.95692E-2,-6.153373E-3,7.124315E-2,9.655386E-3,1.17230915E-1,-3.255835E-2,-2.0799763E-3,-6.675775E-2,-1.05896294E-1,9.9839196E-2,-1.09197035E-1,-6.945516E-2,-8.8191174E-2,4.2332117E-2,-5.9182294E-2,4.026252E-2,-1.2352108E-1,6.628408E-2],"categories":[],"categories_nodes":[],"categories_segments":[],"categories_sizes":[],"default_left":[0,0,0,0,0,0,0,0,0,0,0,0,0,0,0,0,0,0,0,0,0,0,0,0,0,0,0,0,0,0,0,0,0,0,0,0,0,0,0,0,0,0,0,0,0,0,0],"id":18,"left_children":[1,3,5,7,9,11,13,15,-1,17,19,21,-1,23,25,27,-1,29,31,33,35,37,39,41,43,45,-1,-1,-1,-1,-1,-1,-1,-1,-1,-1,-1,-1,-1,-1,-1,-1,-1,-1,-1,-1,-1],"loss_changes":[8.7714136E2,3.0604584E2,8.862195E1,5.765259E0,1.15427376E2,3.8603516E0,2.2569984E1,4.5388184E0,0E0,3.7679367E1,5.9953484E1,2.2714233E0,0E0,2.0410706E1,2.7405521E1,3.5754395E-1,0E0,1.1706512E1,3.0182291E1,5.796749E1,3.559542E1,1.5076294E1,1.0849609E0,1.7092056E1,8.986627E0,2.209386E1,0E0,0E0,0E0,0E0,0E0,0E0,0E0,0E0,0E0,0E0,0E0,0E0,0E0,0E0,0E0,0E0,0E0,0E0,0E0,0E0,0E0],"parents":[2147483647,0,0,1,1,2,2,3,3,4,4,5,5,6,6,7,7,9,9,10,10,11,11,13,13,14,14,15,15,17,17,18,18,19,19,20,20,21,21,22,22,23,23,24,24,25,25],"right_children":[2,4,6,8,10,12,14,16,-1,18,20,22,-1,24,26,28,-1,30,32,34,36,38,40,42,44,46,-1,-1,-1,-1,-1,-1,-1,-1,-1,-1,-1,-1,-1,-1,-1,-1,-1,-1,-1,-1,-1],"split_conditions":[2.44E0,1.43E0,1E0,4E0,2.95E0,3E0,3E0,1.5E0,-1.5596454E-2,2E0,2E0,2.41E0,-9.141583E-3,5E0,3.32E0,2.25E0,-7.932736E-3,1.39E0,2E0,1.5E0,2.57E0,1E0,1.13625E0,3.46E0,3.48E0,1.88E0,-1.1288249E-1,1.078062E-1,5.341738E-2,8.95692E-2,-6.153373E-3,7.124315E-2,9.655386E-3,1.17230915E-1,-3.255835E-2,-2.0799763E-3,-6.675775E-2,-1.05896294E-1,9.9839196E-2,-1.09197035E-1,-6.945516E-2,-8.8191174E-2,4.2332117E-2,-5.9182294E-2,4.026252E-2,-1.2352108E-1,6.628408E-2],"split_indices":[19,9,3,7,45,4,2,17,0,45,2,9,0,3,17,13,0,19,2,13,22,41,27,11,23,5,0,0,0,0,0,0,0,0,0,0,0,0,0,0,0,0,0,0,0,0,0],"split_type":[0,0,0,0,0,0,0,0,0,0,0,0,0,0,0,0,0,0,0,0,0,0,0,0,0,0,0,0,0,0,0,0,0,0,0,0,0,0,0,0,0,0,0,0,0,0,0],"sum_hessian":[2.3630007E3,1.5770978E3,7.859029E2,5.282934E2,1.0488044E3,5.669462E2,2.189567E2,5.246529E2,3.640514E0,5.8067224E2,4.6813217E2,5.6268396E2,4.2622766E0,1.4861224E2,7.034445E1,5.213564E2,3.29648E0,1.6992625E2,4.1074597E2,1.01679924E2,3.6645227E2,2.1176336E1,5.415076E2,1.09061646E2,3.95506E1,5.7756016E1,1.2588437E1,5.1719946E2,4.1569552E0,1.561546E2,1.3771652E1,1.0701598E2,3.0372998E2,5.121576E1,5.046416E1,1.3399701E2,2.3245525E2,1.760892E1,3.5674164E0,5.278255E2,1.3682134E1,9.849462E1,1.0567018E1,1.2443798E1,2.7106802E1,6.0097394E0,5.1746277E1],"tree_param":{"num_deleted":"0","num_feature":"64","num_nodes":"47","size_leaf_vector":"1"}},{"base_weights":[-5.46066E-3,4.8754427E-1,-7.303929E-1,1.0027307E0,1.11545466E-1,-9.9855727E-1,-2.2822347E-1,1.0330116E0,-8.3482966E-2,2.5763425E-1,-7.335104E-1,-2.0504789E-1,-1.0253918E0,-3.2723984E-1,4.6697676E-1,1.0383866E0,1.0865814E-2,-7.113228E-1,8.416944E-2,-1.0849038E-2,1.200682E0,4.0937772E-1,-1.1647576E0,4.3814728E-1,-1.2505595E-1,-8.528684E-1,-1.0598718E0,-1.534728E-1,-9.1021514E-1,-7.704324E-1,8.784978E-1,1.05856195E-1,7.7822134E-2,5.6891352E-2,-1.7803942E-1,6.487348E-2,-3.7423622E-2,1.3754074E-1,-1.3776022E-1,6.930828E-2,-7.860685E-2,-1.2215575E-1,1.8399876E-2,-6.805907E-2,9.729555E-2,-3.9114367E-2,-1.0533384E-1,-1.0687428E-1,-2.8970942E-4,6.3571E-2,-2.6063425E-2,1.014547E-2,-1.09449975E-1,-1.0082387E-2,-1.1801308E-1,1.3232629E-1,4.31693E-3],"categories":[],"categories_nodes":[],"categories_segments":[],"categories_sizes":[],"default_left":[0,0,0,0,0,0,0,0,0,0,0,0,0,0,0,0,0,0,0,0,0,0,0,0,0,0,0,0,0,0,0,0,0,0,0,0,0,0,0,0,0,0,0,0,0,0,0,0,0,0,0,0,0,0,0,0,0],"id":19,"left_children":[1,3,5,7,9,11,13,15,17,19,21,23,25,27,29,31,-1,33,-1,35,37,39,41,43,-1,45,47,49,51,53,55,-1,-1,-1,-1,-1,-1,-1,-1,-1,-1,-1,-1,-1,-1,-1,-1,-1,-1,-1,-1,-1,-1,-1,-1,-1,-1],"loss_changes":[7.885705E2,2.5428836E2,1.20045074E2,1.8307068E1,9.4055E1,1.2180969E1,2.1644117E1,2.5653687E0,9.863289E0,1.64337E2,5.5840137E1,1.4189253E1,2.4430542E0,2.7604223E1,2.0707346E1,1.9884644E0,0E0,1.47592745E1,0E0,1.2156487E2,6.6690475E1,1.1232708E1,6.4925995E0,8.619514E0,0E0,8.73658E0,4.3549805E0,1.8110432E1,1.1797813E1,2.7203302E0,1.1083424E1,0E0,0E0,0E0,0E0,0E0,0E0,0E0,0E0,0E0,0E0,0E0,0E0,0E0,0E0,0E0,0E0,0E0,0E0,0E0,0E0,0E0,0E0,0E0,0E0,0E0,0E0],"parents":[2147483647,0,0,1,1,2,2,3,3,4,4,5,5,6,6,7,7,8,8,9,9,10,10,11,11,12,12,13,13,14,14,15,15,17,17,19,19,20,20,21,21,22,22,23,23,25,25,26,26,27,27,28,28,29,29,30,30],"right_children":[2,4,6,8,10,12,14,16,18,20,22,24,26,28,30,32,-1,34,-1,36,38,40,42,44,-1,46,48,50,52,54,56,-1,-1,-1,-1,-1,-1,-1,-1,-1,-1,-1,-1,-1,-1,-1,-1,-1,-1,-1,-1,-1,-1,-1,-1,-1,-1],"split_conditions":[1.5E0,1.94E0,1E0,2.19E0,5E0,2.61E0,3.29E0,2.41E0,2.71E0,3E0,2.78E0,2.78E0,3.39E0,2.9E0,-3.75E-2,1.64E0,1.0865814E-2,2.27E0,8.416944E-2,2E0,3.7E0,2.42E0,1.0042857E0,2.36E0,-1.2505595E-1,3.02E0,3E0,1E0,1.86E0,-5.15E-1,3.4E-1,1.05856195E-1,7.7822134E-2,5.6891352E-2,-1.7803942E-1,6.487348E-2,-3.7423622E-2,1.3754074E-1,-1.3776022E-1,6.930828E-2,-7.860685E-2,-1.2215575E-1,1.8399876E-2,-6.805907E-2,9.729555E-2,-3.9114367E-2,-1.0533384E-1,-1.0687428E-1,-2.8970942E-4,6.3571E-2,-2.6063425E-2,1.014547E-2,-1.09449975E-1,-1.0082387E-2,-1.1801308E-1,1.3232629E-1,4.31693E-3],"split_indices":[17,9,3,13,2,45,9,19,11,2,45,17,19,15,27,9,0,45,0,2,15,11,27,45,0,13,4,22,7,27,27,0,0,0,0,0,0,0,0,0,0,0,0,0,0,0,0,0,0,0,0,0,0,0,0,0,0],"split_type":[0,0,0,0,0,0,0,0,0,0,0,0,0,0,0,0,0,0,0,0,0,0,0,0,0,0,0,0,0,0,0,0,0,0,0,0,0,0,0,0,0,0,0,0,0,0,0,0,0,0,0,0,0,0,0,0,0],"sum_hessian":[2.2044421E3,1.312308E3,8.9213434E2,5.529709E2,7.5933704E2,5.80925E2,3.1120935E2,5.3802124E2,1.4949665E1,6.48008E2,1.11329056E2,1.928546E1,5.616395E2,2.7287363E2,3.8335705E1,5.347881E2,3.2331257E0,9.043652E0,5.9060135E0,5.051746E2,1.428334E2,3.0513393E1,8.081567E1,1.2299671E1,6.9857893E0,9.783751E1,4.63802E2,2.1118819E2,6.168545E1,9.34972E0,2.8985985E1,4.93453E2,4.1335106E1,4.328282E0,4.715369E0,1.7917282E2,3.2600174E2,1.3420512E2,8.628276E0,2.5000475E1,5.512919E0,7.764032E1,3.1753423E0,3.8899324E0,8.409739E0,3.0512321E1,6.732519E1,4.5993082E2,3.8712096E0,2.4658699E1,1.8652948E2,9.574368E0,5.2111084E1,4.0221057E0,5.327615E0,1.8533709E1,1.0452274E1],"tree_param":{"num_deleted":"0","num_feature":"64","num_nodes":"57","size_leaf_vector":"1"}},{"base_weights":[-2.5300654E-3,8.603454E-1,-3.6441383E-1,1.0344262E0,4.1814435E-1,-1.0229282E0,-8.510934E-2,1.0440216E0,-4.5874766E-3,6.11976E-1,-3.2020834E-1,-1.032083E0,4.383769E-3,-2.959589E-1,2.6019472E-1,1.0521567E0,2.4341628E-2,7.107226E-1,-5.605211E-1,7.7393234E-1,-8.665443E-1,-6.2749064E-1,-1.0591002E-1,-1.840092E-1,-7.629071E-1,-4.0307133E-3,5.628363E-1,1.0571132E-1,5.199765E-2,8.6664625E-2,-8.255473E-3,1.7565183E-2,-1.3953225E-1,1.1542445E-1,-2.0763015E-2,9.9697016E-2,-1.1697773E-1,6.827163E-2,-8.694459E-2,-3.4303363E-2,1.2745052E-2,4.7266524E-2,-8.704803E-2,-4.1205663E-2,3.612062E-2,7.301823E-2,-3.291474E-3],"categories":[],"categories_nodes":[],"categories_segments":[],"categories_sizes":[],"default_left":[0,0,0,0,0,0,0,0,0,0,0,0,0,0,0,0,0,0,0,0,0,0,0,0,0,0,0,0,0,0,0,0,0,0,0,0,0,0,0,0,0,0,0,0,0,0,0],"id":20,"left_children":[1,3,5,7,9,11,13,15,-1,17,19,21,-1,23,25,27,-1,29,31,33,35,37,-1,39,41,43,45,-1,-1,-1,-1,-1,-1,-1,-1,-1,-1,-1,-1,-1,-1,-1,-1,-1,-1,-1,-1],"loss_changes":[6.541831E2,4.7218445E1,2.7138263E2,4.6449585E0,2.5460445E1,4.3372498E0,7.56133E1,2.6071167E0,0E0,1.6627052E1,2.3005156E1,4.098999E0,0E0,3.355692E1,3.1497849E1,5.9750366E-1,0E0,1.611686E1,7.279901E0,5.0819025E0,1.5514542E1,1.0019153E1,0E0,2.586247E1,1.6938217E1,3.1633713E1,1.832764E1,0E0,0E0,0E0,0E0,0E0,0E0,0E0,0E0,0E0,0E0,0E0,0E0,0E0,0E0,0E0,0E0,0E0,0E0,0E0,0E0],"parents":[2147483647,0,0,1,1,2,2,3,3,4,4,5,5,6,6,7,7,9,9,10,10,11,11,13,13,14,14,15,15,17,17,18,18,19,19,20,20,21,21,23,23,24,24,25,25,26,26],"right_children":[2,4,6,8,10,12,14,16,-1,18,20,22,-1,24,26,28,-1,30,32,34,36,38,-1,40,42,44,46,-1,-1,-1,-1,-1,-1,-1,-1,-1,-1,-1,-1,-1,-1,-1,-1,-1,-1,-1,-1],"split_conditions":[1.55E0,1.92E0,2E0,2.85E0,5E0,3E0,4E0,3.8E0,-4.5874766E-3,1.1E0,2.63E0,3.39E0,4.383769E-3,1E0,3E0,1.42E0,2.4341628E-2,3.6E0,2.145E0,2.82E0,-6.75E-1,2.41E0,-1.0591002E-1,3E0,2.3E-1,2.68E0,1.16E0,1.0571132E-1,5.199765E-2,8.6664625E-2,-8.255473E-3,1.7565183E-2,-1.3953225E-1,1.1542445E-1,-2.0763015E-2,9.9697016E-2,-1.1697773E-1,6.827163E-2,-8.694459E-2,-3.4303363E-2,1.2745052E-2,4.7266524E-2,-8.704803E-2,-4.1205663E-2,3.612062E-2,7.301823E-2,-3.291474E-3],"split_indices":[11,9,62,19,2,4,62,45,0,19,0,19,0,37,3,11,0,0,21,21,27,9,0,2,24,7,19,0,0,0,0,0,0,0,0,0,0,0,0,0,0,0,0,0,0,0,0],"split_type":[0,0,0,0,0,0,0,0,0,0,0,0,0,0,0,0,0,0,0,0,0,0,0,0,0,0,0,0,0,0,0,0,0,0,0,0,0,0,0,0,0,0,0,0,0,0,0],"sum_hessian":[2.0929868E3,6.180149E2,1.4749719E3,4.4248358E2,1.7553131E2,4.3848828E2,1.0364836E3,4.386213E2,3.8622963E0,1.3916817E2,3.6363144E1,4.3478952E2,3.6987624E0,6.436195E2,3.9286407E2,4.338982E2,4.7231097E0,1.2872124E2,1.04469385E1,1.1971458E1,2.4391687E1,2.8732586E1,4.0605695E2,5.2027814E2,1.23341385E2,2.1027086E2,1.825932E2,4.2891702E2,4.98117E0,1.0749912E2,2.1222113E1,5.9709873E0,4.4759507E0,8.501555E0,3.4699023E0,3.0934045E0,2.1298283E1,4.1949463E0,2.453764E1,3.4435614E2,1.7592198E2,9.60666E0,1.13734726E2,9.925714E1,1.11013725E2,1.4237463E2,4.0218575E1],"tree_param":{"num_deleted":"0","num_feature":"64","num_nodes":"47","size_leaf_vector":"1"}},{"base_weights":[1.3870334E-2,4.0352935E-1,-8.2642347E-1,1.0075828E0,1.4156625E-1,-1.0260646E0,-3.8184747E-1,1.0270878E0,6.6038504E-2,6.3639885E-1,-2.6983079E-2,-1.0452199E0,-7.526753E-2,6.4557916E-1,-4.7901934E-1,1.0407614E0,2.7033149E-3,-4.465218E-2,8.195332E-2,1.0680254E0,1.7963032E-1,-3.1236902E-1,3.2449904E-1,-3.2119682E-1,-1.0560241E0,-9.768076E-2,1.4225762E-1,8.6538994E-1,-1.7193502E-2,-6.1942667E-1,3.6849102E-1,1.0449081E-1,3.8835935E-2,1.1363697E-1,-3.7993405E-2,4.2980026E-2,-1.10834956E-1,2.9505346E-2,-6.0011744E-2,9.1848835E-2,-4.7704514E-2,-8.4969476E-2,3.7372988E-2,-6.999705E-2,-1.0663692E-1,1.1448095E-1,-7.925832E-3,3.433306E-2,-6.868034E-2,1.3586436E-1,-7.430459E-2],"categories":[],"categories_nodes":[],"categories_segments":[],"categories_sizes":[],"default_left":[0,0,0,0,0,0,0,0,0,0,0,0,0,0,0,0,0,0,0,0,0,0,0,0,0,0,0,0,0,0,0,0,0,0,0,0,0,0,0,0,0,0,0,0,0,0,0,0,0,0,0],"id":21,"left_children":[1,3,5,7,9,11,13,15,17,19,21,23,25,27,29,31,-1,-1,-1,33,35,37,39,41,43,-1,-1,45,-1,47,49,-1,-1,-1,-1,-1,-1,-1,-1,-1,-1,-1,-1,-1,-1,-1,-1,-1,-1,-1,-1],"loss_changes":[6.511982E2,2.1486198E2,5.5531555E1,7.4772034E0,7.915783E1,7.829834E0,1.99625E1,5.4748535E0,3.9990172E0,4.7347717E1,7.119539E1,2.9898376E0,1.4424713E1,3.2818751E0,2.1697422E1,6.6815186E-1,0E0,0E0,0E0,1.2680481E1,3.8612015E1,6.863443E1,1.5188374E2,3.1434445E0,7.965088E-1,0E0,0E0,3.761383E0,0E0,1.029995E1,2.9920813E1,0E0,0E0,0E0,0E0,0E0,0E0,0E0,0E0,0E0,0E0,0E0,0E0,0E0,0E0,0E0,0E0,0E0,0E0,0E0,0E0],"parents":[2147483647,0,0,1,1,2,2,3,3,4,4,5,5,6,6,7,7,8,8,9,9,10,10,11,11,12,12,13,13,14,14,15,15,19,19,20,20,21,21,22,22,23,23,24,24,27,27,29,29,30,30],"right_children":[2,4,6,8,10,12,14,16,18,20,22,24,26,28,30,32,-1,-1,-1,34,36,38,40,42,44,-1,-1,46,-1,48,50,-1,-1,-1,-1,-1,-1,-1,-1,-1,-1,-1,-1,-1,-1,-1,-1,-1,-1,-1,-1],"split_conditions":[2.5E0,1.55E0,1E0,2E0,2E0,2E0,8.9E-1,3.8E0,2.54E0,1.59E0,3E0,2.01E0,3.26E0,2.64E0,3.31E0,1.91E0,2.7033149E-3,-4.465218E-2,8.195332E-2,3.64E0,3.44E0,2.72E0,5E0,2.9E0,2.41E0,-9.768076E-2,1.4225762E-1,2.57E0,-1.7193502E-2,1E0,2.96E0,1.0449081E-1,3.8835935E-2,1.1363697E-1,-3.7993405E-2,4.2980026E-2,-1.10834956E-1,2.9505346E-2,-6.0011744E-2,9.1848835E-2,-4.7704514E-2,-8.4969476E-2,3.7372988E-2,-6.999705E-2,-1.0663692E-1,1.1448095E-1,-7.925832E-3,3.433306E-2,-6.868034E-2,1.3586436E-1,-7.430459E-2],"split_indices":[19,9,3,15,2,4,22,45,13,13,2,0,5,0,11,13,0,0,0,9,5,0,2,7,9,0,0,5,0,2,17,0,0,0,0,0,0,0,0,0,0,0,0,0,0,0,0,0,0,0,0],"split_type":[0,0,0,0,0,0,0,0,0,0,0,0,0,0,0,0,0,0,0,0,0,0,0,0,0,0,0,0,0,0,0,0,0,0,0,0,0,0,0,0,0,0,0,0,0,0,0,0,0,0,0],"sum_hessian":[1.9868097E3,1.3577274E3,6.290823E2,4.0984073E2,9.4788666E2,4.332288E2,1.9585352E2,4.0143378E2,8.406965E0,2.4012987E2,7.077568E2,4.2457574E2,8.653035E0,1.6435236E1,1.7941827E2,3.9597894E2,5.454815E0,5.2458835E0,3.1610823E0,1.2277479E2,1.1735507E2,3.906664E2,3.1709036E2,6.6943636E0,4.1788138E2,5.6189137E0,3.0341215E0,1.290643E1,3.5288053E0,1.5414941E2,2.5268862E1,3.9288016E2,3.098807E0,1.1744646E2,5.328336E0,9.882597E1,1.85291E1,1.25569695E2,2.650967E2,1.8204149E2,1.3504889E2,3.6760123E0,3.018351E0,1.3737359E1,4.04144E2,9.7967415E0,3.1096895E0,9.814383E0,1.4433504E2,1.3246564E1,1.2022297E1],"tree_param":{"num_deleted":"0","num_feature":"64","num_nodes":"51","size_leaf_vector":"1"}},{"base_weights":[2.0901369E-2,3.7437358E-1,-7.5992376E-1,8.5484296E-1,3.9719295E-2,-1.002577E0,-2.8671804E-1,1.0097889E0,4.5160732E-1,1.3914828E-1,-6.2188345E-1,-1.0230355E0,-9.950522E-2,7.462496E-1,-3.7024966E-1,1.0197719E0,3.1191378E-3,9.998667E-1,2.321236E-1,-6.876795E-2,8.352342E-1,2.0918308E-1,-9.60191E-1,-2.8081572E-1,-1.034687E0,-9.758675E-2,1.4130229E-1,-3.843991E-2,1.3630133E0,-8.318805E-1,-1.3373402E-1,2.4103854E-2,1.0259097E-1,4.938018E-2,1.0578877E-1,1.0144861E-1,-5.3142905E-3,4.7080807E-2,-3.635424E-2,1.4347188E-1,2.2437533E-2,-3.2817278E-2,7.645789E-2,3.8526915E-2,-1.10720925E-1,3.762327E-2,-8.268928E-2,-6.640344E-2,-1.0455654E-1,2.2625886E-1,6.10152E-2,-9.47197E-2,9.551031E-2,1.013413E-1,-2.8545547E-2],"categories":[],"categories_nodes":[],"categories_segments":[],"categories_sizes":[],"default_left":[0,0,0,0,0,0,0,0,0,0,0,0,0,0,0,0,0,0,0,0,0,0,0,0,0,0,0,0,0,0,0,0,0,0,0,0,0,0,0,0,0,0,0,0,0,0,0,0,0,0,0,0,0,0,0],"id":22,"left_children":[1,3,5,7,9,11,13,15,17,19,21,23,25,27,29,31,-1,33,35,37,39,41,43,45,47,-1,-1,-1,49,51,53,-1,-1,-1,-1,-1,-1,-1,-1,-1,-1,-1,-1,-1,-1,-1,-1,-1,-1,-1,-1,-1,-1,-1,-1],"loss_changes":[5.2611993E2,2.1095107E2,6.792227E1,3.319989E1,5.103492E1,7.145752E0,1.7771414E1,3.7619934E0,1.797912E1,9.7622116E1,2.8701977E1,3.0257263E0,1.4365929E1,1.1333548E1,2.0443241E1,1.5898438E0,0E0,7.390976E-1,2.4464685E1,8.2879555E1,5.6483826E1,9.248574E0,1.4712738E1,2.9301128E0,8.2650757E-1,0E0,0E0,0E0,5.5612507E0,1.4007683E1,2.2162054E1,0E0,0E0,0E0,0E0,0E0,0E0,0E0,0E0,0E0,0E0,0E0,0E0,0E0,0E0,0E0,0E0,0E0,0E0,0E0,0E0,0E0,0E0,0E0,0E0],"parents":[2147483647,0,0,1,1,2,2,3,3,4,4,5,5,6,6,7,7,8,8,9,9,10,10,11,11,12,12,13,13,14,14,15,15,17,17,18,18,19,19,20,20,21,21,22,22,23,23,24,24,28,28,29,29,30,30],"right_children":[2,4,6,8,10,12,14,16,18,20,22,24,26,28,30,32,-1,34,36,38,40,42,44,46,48,-1,-1,-1,50,52,54,-1,-1,-1,-1,-1,-1,-1,-1,-1,-1,-1,-1,-1,-1,-1,-1,-1,-1,-1,-1,-1,-1,-1,-1],"split_conditions":[2.5E0,1.64E0,1E0,2.08E0,5E0,2E0,1E0,4E0,2.62E0,3E0,3.15E0,2.01E0,3.45E0,3.06E0,2E0,1E0,3.1191378E-3,3.9E-1,2E0,2E0,1.5E0,2.29E0,2.17E0,1.41E0,2.41E0,-9.758675E-2,1.4130229E-1,-3.843991E-2,7.5E-3,3.65E0,1.77E0,2.4103854E-2,1.0259097E-1,4.938018E-2,1.0578877E-1,1.0144861E-1,-5.3142905E-3,4.7080807E-2,-3.635424E-2,1.4347188E-1,2.2437533E-2,-3.2817278E-2,7.645789E-2,3.8526915E-2,-1.10720925E-1,3.762327E-2,-8.268928E-2,-6.640344E-2,-1.0455654E-1,2.2625886E-1,6.10152E-2,-9.47197E-2,9.551031E-2,1.013413E-1,-2.8545547E-2],"split_indices":[19,11,3,9,2,4,2,45,5,2,23,0,15,5,2,20,0,24,2,2,15,13,0,24,9,0,0,0,27,11,15,0,0,0,0,0,0,0,0,0,0,0,0,0,0,0,0,0,0,0,0,0,0,0,0],"split_type":[0,0,0,0,0,0,0,0,0,0,0,0,0,0,0,0,0,0,0,0,0,0,0,0,0,0,0,0,0,0,0,0,0,0,0,0,0,0,0,0,0,0,0,0,0,0,0,0,0,0,0,0,0,0,0],"sum_hessian":[1.9042009E3,1.311168E3,5.930329E2,5.376703E2,7.734976E2,3.9127435E2,2.0175856E2,3.8733148E2,1.5033884E2,6.7312646E2,1.00371155E2,3.8247668E2,8.797649E0,1.450113E1,1.8725743E2,3.833784E2,3.9530916E0,4.1962658E1,1.08376175E2,5.190045E2,1.5412198E2,2.9148449E1,7.12227E1,6.299374E0,3.761773E2,5.7948885E0,3.0027611E0,5.251271E0,9.24986E0,6.2585636E1,1.2467179E2,3.3129091E0,3.800655E2,5.2944727E0,3.6668186E1,2.8274683E1,8.010149E1,1.8315234E2,3.3585217E2,7.71045E1,7.701748E1,1.5022763E1,1.4125686E1,6.856237E0,6.436647E1,3.000342E0,3.2990322E0,1.2494592E1,3.6368274E2,3.3006623E0,5.9491973E0,5.9233185E1,3.3524518E0,1.3899554E1,1.1077224E2],"tree_param":{"num_deleted":"0","num_feature":"64","num_nodes":"55","size_leaf_vector":"1"}},{"base_weights":[3.1108325E-2,4.277156E-1,-6.100389E-1,9.689447E-1,1.5524893E-1,-8.9449435E-1,-1.6397342E-1,9.970465E-1,3.7840284E-2,-9.375548E-3,6.10895E-1,-3.7438205E-1,-1.0000851E0,-4.5521453E-1,6.1837197E-3,1.0091753E0,2.168716E-2,-3.7001228E-1,9.016721E-2,5.9017664E-1,-1.7238498E-1,4.0016785E-1,8.8765603E-1,2.8465793E-1,-9.089055E-1,-1.0119063E0,-5.6368846E-1,-1.6608693E-1,-9.435667E-1,-3.1315643E-1,2.5650284E-1,1.01821974E-1,1.2269034E-2,-1.3566056E-1,4.4558715E-2,1.0255134E-1,-4.7432096E-3,-3.708602E-2,5.1095735E-2,-9.466834E-2,5.0594043E-2,1.0309543E-1,3.520803E-2,9.04341E-2,-2.7802933E-2,-1.1229401E-1,-1.0440536E-2,-6.757951E-2,-1.02356784E-1,3.7791442E-2,-9.403834E-2,1.5227526E-3,-9.4223954E-2,3.9530918E-2,-1.0994243E-1,4.6960082E-2,-4.838523E-2,-3.0595114E-2,6.2130343E-2],"categories":[],"categories_nodes":[],"categories_segments":[],"categories_sizes":[],"default_left":[0,0,0,0,0,0,0,0,0,0,0,0,0,0,0,0,0,0,0,0,0,0,0,0,0,0,0,0,0,0,0,0,0,0,0,0,0,0,0,0,0,0,0,0,0,0,0,0,0,0,0,0,0,0,0,0,0,0,0],"id":23,"left_children":[1,3,5,7,9,11,13,15,17,19,21,23,25,27,29,31,-1,33,-1,35,37,39,41,43,45,47,49,51,53,55,57,-1,-1,-1,-1,-1,-1,-1,-1,-1,-1,-1,-1,-1,-1,-1,-1,-1,-1,-1,-1,-1,-1,-1,-1,-1,-1,-1,-1],"loss_changes":[4.652505E2,1.665391E2,8.8581116E1,9.861023E0,5.6491913E1,2.3062866E1,1.3557203E1,3.2556458E0,4.604659E0,5.426177E1,1.130191E1,2.6191772E1,1.2565308E0,1.4087276E1,1.3959898E1,2.7718506E0,0E0,7.80123E0,0E0,3.299326E1,5.938744E1,1.6904264E1,6.2051086E0,1.2012598E1,6.923069E0,6.548462E-1,4.4690547E0,9.102424E0,8.218521E0,1.0481683E1,2.0274326E1,0E0,0E0,0E0,0E0,0E0,0E0,0E0,0E0,0E0,0E0,0E0,0E0,0E0,0E0,0E0,0E0,0E0,0E0,0E0,0E0,0E0,0E0,0E0,0E0,0E0,0E0,0E0,0E0],"parents":[2147483647,0,0,1,1,2,2,3,3,4,4,5,5,6,6,7,7,8,8,9,9,10,10,11,11,12,12,13,13,14,14,15,15,17,17,19,19,20,20,21,21,22,22,23,23,24,24,25,25,26,26,27,27,28,28,29,29,30,30],"right_children":[2,4,6,8,10,12,14,16,18,20,22,24,26,28,30,32,-1,34,-1,36,38,40,42,44,46,48,50,52,54,56,58,-1,-1,-1,-1,-1,-1,-1,-1,-1,-1,-1,-1,-1,-1,-1,-1,-1,-1,-1,-1,-1,-1,-1,-1,-1,-1,-1,-1],"split_conditions":[1.81E0,1.82E0,1E0,2.25E0,2E0,2.76E0,2.43E0,3.7275E0,8.2040846E-1,2E0,5E0,3.08E0,1.13625E0,1.69E0,2E0,1.4E-1,2.168716E-2,3E0,9.016721E-2,1.81E0,1.15E0,2.5768197E-1,8E0,-2.89E0,3.83E0,2.41E0,3.18E0,1.42E0,-2.71E0,2.47E0,2E0,1.01821974E-1,1.2269034E-2,-1.3566056E-1,4.4558715E-2,1.0255134E-1,-4.7432096E-3,-3.708602E-2,5.1095735E-2,-9.466834E-2,5.0594043E-2,1.0309543E-1,3.520803E-2,9.04341E-2,-2.7802933E-2,-1.1229401E-1,-1.0440536E-2,-6.757951E-2,-1.02356784E-1,3.7791442E-2,-9.403834E-2,1.5227526E-3,-9.4223954E-2,3.9530918E-2,-1.0994243E-1,4.6960082E-2,-4.838523E-2,-3.0595114E-2,6.2130343E-2],"split_indices":[17,9,3,13,3,19,11,21,25,2,3,13,27,22,3,19,0,2,0,13,13,25,44,26,15,9,11,26,26,17,2,0,0,0,0,0,0,0,0,0,0,0,0,0,0,0,0,0,0,0,0,0,0,0,0,0,0,0,0],"split_type":[0,0,0,0,0,0,0,0,0,0,0,0,0,0,0,0,0,0,0,0,0,0,0,0,0,0,0,0,0,0,0,0,0,0,0,0,0,0,0,0,0,0,0,0,0,0,0,0,0,0,0,0,0,0,0,0,0,0,0],"sum_hessian":[1.8276254E3,1.1293523E3,6.9827313E2,3.7730856E2,7.520437E2,4.257607E2,2.7251245E2,3.6618582E2,1.1122722E1,5.531651E2,1.9887859E2,7.261648E1,3.5314423E2,9.988093E1,1.7263153E2,3.6029114E2,5.894693E0,7.9437795E0,3.1789422E0,1.1768749E2,4.354776E2,1.1429771E2,8.458089E1,3.2729786E1,3.9886692E1,3.4254654E2,1.0597702E1,6.3579155E1,3.6301773E1,7.574727E1,9.688426E1,3.5650525E2,3.7858918E0,3.2948396E0,4.6489396E0,6.9575455E1,4.8112038E1,3.3781677E2,9.766083E1,7.7436757E0,1.0655402E2,6.599766E1,1.858323E1,1.5287072E1,1.7442715E1,3.119227E1,8.69442E0,1.3463036E1,3.290835E2,3.0272985E0,7.570403E0,5.233397E1,1.1245186E1,3.6250308E0,3.2676743E1,1.3247467E1,6.2499798E1,3.8179684E1,5.870458E1],"tree_param":{"num_deleted":"0","num_feature":"64","num_nodes":"59","size_leaf_vector":"1"}},{"base_weights":[3.4573765E-3,3.20519E-1,-7.4593157E-1,9.895849E-1,9.5028564E-2,-9.83267E-1,-3.2447124E-1,1.0101516E0,-4.5956567E-2,-1.4142103E-2,6.960517E-1,-1.007665E0,1.6718486E-2,6.2181044E-1,-4.118313E-1,1.02186166E-1,2.4227729E-2,4.7177818E-1,-1.5076971E-1,9.5438164E-1,4.2186803E-1,-4.7517902E-1,-1.0313667E0,-9.284332E-2,1.3698837E-1,-8.852821E-2,1.042229E0,-5.7776386E-1,6.762405E-2,9.8455675E-2,-3.080719E-3,-4.0099733E-2,1.840509E-2,1.0003298E-1,3.4057308E-2,5.4587133E-2,-6.266638E-2,-9.9154495E-2,1.1335923E-1,-3.8118951E-3,-1.04640596E-1,1.3789849E-1,6.266892E-4,-6.504823E-2,9.89367E-2,-6.321457E-2,4.7494665E-2],"categories":[],"categories_nodes":[],"categories_segments":[],"categories_sizes":[],"default_left":[0,0,0,0,0,0,0,0,0,0,0,0,0,0,0,0,0,0,0,0,0,0,0,0,0,0,0,0,0,0,0,0,0,0,0,0,0,0,0,0,0,0,0,0,0,0,0],"id":24,"left_children":[1,3,5,7,9,11,13,15,-1,17,19,21,23,25,27,-1,-1,29,31,33,35,37,39,-1,-1,-1,41,43,45,-1,-1,-1,-1,-1,-1,-1,-1,-1,-1,-1,-1,-1,-1,-1,-1,-1,-1],"loss_changes":[4.127738E2,1.840773E2,5.1344574E1,9.632233E0,5.9990227E1,8.066406E0,1.5761377E1,2.4824524E0,0E0,5.1496777E1,9.551872E0,3.5749207E0,1.2579951E1,1.1219222E1,1.3747753E1,0E0,0E0,4.3903587E1,5.0791557E1,1.6778336E0,9.439757E0,1.4066576E1,4.553589E0,0E0,0E0,0E0,4.5843296E0,1.5243423E1,1.3182993E1,0E0,0E0,0E0,0E0,0E0,0E0,0E0,0E0,0E0,0E0,0E0,0E0,0E0,0E0,0E0,0E0,0E0,0E0],"parents":[2147483647,0,0,1,1,2,2,3,3,4,4,5,5,6,6,7,7,9,9,10,10,11,11,12,12,13,13,14,14,17,17,18,18,19,19,20,20,21,21,22,22,26,26,27,27,28,28],"right_children":[2,4,6,8,10,12,14,16,-1,18,20,22,24,26,28,-1,-1,30,32,34,36,38,40,-1,-1,-1,42,44,46,-1,-1,-1,-1,-1,-1,-1,-1,-1,-1,-1,-1,-1,-1,-1,-1,-1,-1],"split_conditions":[2.5E0,1.43E0,1E0,2E0,4E0,2E0,1E0,3.81E0,-4.5956567E-2,2E0,7.7E-1,2.41E0,3.38E0,2.92E0,5E0,1.02186166E-1,2.4227729E-2,1.5E0,3E0,1E0,3.02E0,1E0,2.01E0,-9.284332E-2,1.3698837E-1,-8.852821E-2,3.4E0,3.71E0,3.66E0,9.8455675E-2,-3.080719E-3,-4.0099733E-2,1.840509E-2,1.0003298E-1,3.4057308E-2,5.4587133E-2,-6.266638E-2,-9.9154495E-2,1.1335923E-1,-3.8118951E-3,-1.04640596E-1,1.3789849E-1,6.266892E-4,-6.504823E-2,9.89367E-2,-6.321457E-2,4.7494665E-2],"split_indices":[19,9,3,15,3,4,2,45,0,2,15,9,7,5,3,0,0,13,2,60,9,41,0,0,0,0,9,11,23,0,0,0,0,0,0,0,0,0,0,0,0,0,0,0,0,0,0],"split_type":[0,0,0,0,0,0,0,0,0,0,0,0,0,0,0,0,0,0,0,0,0,0,0,0,0,0,0,0,0,0,0,0,0,0,0,0,0,0,0,0,0,0,0,0,0,0,0],"sum_hessian":[1.7352391E3,1.2197451E3,5.15494E2,3.0660648E2,9.131387E2,3.2893118E2,1.8656282E2,3.0261462E2,3.9918454E0,7.735978E2,1.395409E2,3.2108945E2,7.841737E0,1.5250628E1,1.7131218E2,2.9774332E2,4.871324E0,1.6923944E2,6.0435834E2,7.057028E1,6.897061E1,1.458004E1,3.065094E2,4.80173E0,3.0400066E0,3.085214E0,1.2165415E1,1.2711462E2,4.419757E1,8.3295555E1,8.594389E1,3.457586E2,2.5859973E2,6.506963E1,5.500652E0,6.210521E1,6.8654017E0,1.1327822E1,3.252218E0,4.624495E0,3.0188492E2,8.931103E0,3.2343118E0,1.2203675E2,5.077865E0,1.6058142E1,2.813943E1],"tree_param":{"num_deleted":"0","num_feature":"64","num_nodes":"47","size_leaf_vector":"1"}},{"base_weights":[-7.2557363E-3,3.2767004E-1,-6.351822E-1,1.01989426E-1,1.5148614E-1,-1.023126E-1,-3.14082E-1,7.738836E-1,4.8946127E-2,6.657391E-1,-3.8030335E-1,8.836646E-1,-8.190336E-2,1.3397977E-1,-5.50282E-1,9.969168E-2,-6.4531945E-2,-4.6323383E-1,3.2774225E-1,-3.5230335E-2,9.622211E-2,-9.670725E-2,6.5738656E-2,-5.9939595E-3,8.2812876E-2,4.0295646E-2,-7.7090584E-2,3.7956897E-2,-5.1758792E-2,8.204489E-2,-7.0166695E-3],"categories":[],"categories_nodes":[],"categories_segments":[],"categories_sizes":[],"default_left":[0,0,0,0,0,0,0,0,0,0,0,0,0,0,0,0,0,0,0,0,0,0,0,0,0,0,0,0,0,0,0],"id":25,"left_children":[1,3,5,-1,7,-1,9,11,13,15,17,19,21,23,25,-1,-1,27,29,-1,-1,-1,-1,-1,-1,-1,-1,-1,-1,-1,-1],"loss_changes":[3.4607614E2,1.3072818E2,7.098193E1,0E0,5.463214E1,0E0,2.0667606E1,1.14494705E1,3.7602833E1,9.449357E0,1.7493938E1,1.0768265E1,1.0244616E1,8.697972E1,1.9600796E1,0E0,0E0,1.2326519E1,6.2432375E0,0E0,0E0,0E0,0E0,0E0,0E0,0E0,0E0,0E0,0E0,0E0,0E0],"parents":[2147483647,0,0,1,1,2,2,4,4,6,6,7,7,8,8,9,9,10,10,11,11,12,12,13,13,14,14,17,17,18,18],"right_children":[2,4,6,-1,8,-1,10,12,14,16,18,20,22,24,26,-1,-1,28,30,-1,-1,-1,-1,-1,-1,-1,-1,-1,-1,-1,-1],"split_conditions":[3.46E0,3E0,2E0,1.01989426E-1,1.75E0,-1.023126E-1,3E0,8.4E-1,5E0,4E0,5E0,2E0,2.32E0,3E0,2.94E0,9.969168E-2,-6.4531945E-2,1E0,-4E-1,-3.5230335E-2,9.622211E-2,-9.670725E-2,6.5738656E-2,-5.9939595E-3,8.2812876E-2,4.0295646E-2,-7.7090584E-2,3.7956897E-2,-5.1758792E-2,8.204489E-2,-7.0166695E-3],"split_indices":[45,44,62,0,45,0,44,19,2,2,3,3,15,2,23,0,0,2,27,0,0,0,0,0,0,0,0,0,0,0,0],"split_type":[0,0,0,0,0,0,0,0,0,0,0,0,0,0,0,0,0,0,0,0,0,0,0,0,0,0,0,0,0,0,0],"sum_hessian":[1.6435726E3,1.0721718E3,5.714008E2,2.1655219E2,8.556196E2,2.577765E2,3.1362436E2,1.200985E2,7.355211E2,1.928135E1,2.9434302E2,1.0641494E2,1.3683564E1,6.4479736E2,9.072375E1,1.558431E1,3.6970387E0,2.637919E2,3.0551107E1,6.1511526E0,1.0026379E2,6.0871577E0,7.5964065E0,5.04713E2,1.4008437E2,1.6895922E1,7.382783E1,1.5619283E1,2.481726E2,1.31751795E1,1.7375929E1],"tree_param":{"num_deleted":"0","num_feature":"64","num_nodes":"31","size_leaf_vector":"1"}},{"base_weights":[6.78014E-3,3.667592E-1,-5.8067316E-1,9.040598E-1,1.1479465E-1,-9.0774906E-1,-1.8260325E-1,9.805492E-1,4.257548E-1,5.4573536E-1,-4.5065038E-2,-3.5084707E-1,-9.9867433E-1,7.3210573E-1,-2.4669667E-1,9.9714184E-1,-2.1656038E-2,6.2133956E-1,-3.0338266E-1,6.0205907E-1,-8.479446E-1,5.5724543E-1,-2.0248808E-1,-6.83907E-1,1.1439763E0,2.1814035E-1,-1.0296861E-1,9.5237166E-2,-6.227948E-3,-3.4831914E-1,4.2735404E-1,1.0063016E-1,5.4573406E-2,-6.487896E-2,7.6179996E-2,7.250815E-2,-1.0104336E-1,6.9106184E-2,-4.716276E-3,-1.3160367E-1,-1.1550034E-2,7.8584515E-2,-5.8855426E-2,4.308505E-2,-3.7133556E-2,5.8692563E-3,-1.0591056E-1,2.3895708E-1,-4.7862362E-2,1.4788489E-1,-8.554729E-2,-2.385665E-2,-9.1843426E-2,1.1171696E-1,-2.3212403E-2],"categories":[],"categories_nodes":[],"categories_segments":[],"categories_sizes":[],"default_left":[0,0,0,0,0,0,0,0,0,0,0,0,0,0,0,0,0,0,0,0,0,0,0,0,0,0,0,0,0,0,0,0,0,0,0,0,0,0,0,0,0,0,0,0,0,0,0,0,0,0,0,0,0,0,0],"id":26,"left_children":[1,3,5,7,9,11,13,15,17,19,21,23,25,27,29,31,-1,33,35,37,39,41,43,45,47,49,-1,-1,-1,51,53,-1,-1,-1,-1,-1,-1,-1,-1,-1,-1,-1,-1,-1,-1,-1,-1,-1,-1,-1,-1,-1,-1,-1,-1],"loss_changes":[3.3748853E2,1.3385934E2,7.8783585E1,1.1134369E1,4.6510063E1,1.6492218E1,1.6288668E1,5.6078186E0,6.6486473E0,1.4848705E1,4.6869167E1,2.479242E1,1.0994049E1,3.2514791E0,1.7788124E1,5.5859375E-1,0E0,6.9250984E0,8.188501E0,1.0210873E1,2.4229393E0,2.7295841E1,4.2044693E1,1.1225025E1,1.9659893E1,1.1982133E1,0E0,0E0,0E0,1.381735E1,1.5811277E1,0E0,0E0,0E0,0E0,0E0,0E0,0E0,0E0,0E0,0E0,0E0,0E0,0E0,0E0,0E0,0E0,0E0,0E0,0E0,0E0,0E0,0E0,0E0,0E0],"parents":[2147483647,0,0,1,1,2,2,3,3,4,4,5,5,6,6,7,7,8,8,9,9,10,10,11,11,12,12,13,13,14,14,15,15,17,17,18,18,19,19,20,20,21,21,22,22,23,23,24,24,25,25,29,29,30,30],"right_children":[2,4,6,8,10,12,14,16,18,20,22,24,26,28,30,32,-1,34,36,38,40,42,44,46,48,50,-1,-1,-1,52,54,-1,-1,-1,-1,-1,-1,-1,-1,-1,-1,-1,-1,-1,-1,-1,-1,-1,-1,-1,-1,-1,-1,-1,-1],"split_conditions":[1.5E0,1.94E0,1E0,1.9E0,2.02E0,3.17E0,8.3E-1,4E0,3E0,3.61E0,2E0,1.6E0,2.01E0,2.72E0,3.28E0,1E0,-2.1656038E-2,1.79E0,1.47E0,1E0,2.7025E0,2.76E0,1E0,-2.89E0,2.41E0,2.78E0,-1.0296861E-1,9.5237166E-2,-6.227948E-3,3.09E0,1.31E0,1.0063016E-1,5.4573406E-2,-6.487896E-2,7.6179996E-2,7.250815E-2,-1.0104336E-1,6.9106184E-2,-4.716276E-3,-1.3160367E-1,-1.1550034E-2,7.8584515E-2,-5.8855426E-2,4.308505E-2,-3.7133556E-2,5.8692563E-3,-1.0591056E-1,2.3895708E-1,-4.7862362E-2,1.4788489E-1,-8.554729E-2,-2.385665E-2,-9.1843426E-2,1.1171696E-1,-2.3212403E-2],"split_indices":[17,9,3,11,22,45,22,7,0,0,2,24,0,5,9,57,0,5,22,42,21,15,14,26,9,15,0,0,0,15,24,0,0,0,0,0,0,0,0,0,0,0,0,0,0,0,0,0,0,0,0,0,0,0,0],"split_type":[0,0,0,0,0,0,0,0,0,0,0,0,0,0,0,0,0,0,0,0,0,0,0,0,0,0,0,0,0,0,0,0,0,0,0,0,0,0,0,0,0,0,0,0,0,0,0,0,0,0,0,0,0,0,0],"sum_hessian":[1.5939028E3,9.885288E2,6.053741E2,3.1475116E2,6.7377765E2,3.3161816E2,2.737559E2,2.704512E2,4.4299957E1,1.8165865E2,4.92119E2,4.722594E1,2.8439224E2,1.7243454E1,2.5651245E2,2.669186E2,3.5325956E0,3.5046803E1,9.253157E0,1.7514827E2,6.5103745E0,1.0144485E2,3.9067413E2,3.9064503E1,8.161435E0,6.9179254E0,2.774743E2,1.3344447E1,3.8990068E0,2.2332617E2,3.3186268E1,2.604054E2,6.513231E0,3.1294415E0,3.191736E1,3.7593582E0,5.4937987E0,1.5397516E2,2.1173111E1,3.4858534E0,3.024521E0,8.4833725E1,1.6611116E1,8.190412E1,3.0877002E2,1.339549E1,2.5669014E1,4.349696E0,3.8117392E0,3.0081291E0,3.9097962E0,1.8846358E2,3.48626E1,1.5880846E1,1.7305422E1],"tree_param":{"num_deleted":"0","num_feature":"64","num_nodes":"55","size_leaf_vector":"1"}},{"base_weights":[9.929828E-3,7.3907304E-1,-2.2810912E-1,9.744254E-1,3.3553153E-1,-9.6114314E-1,-4.042818E-2,1.0013707E0,2.0084975E-3,1.0185232E0,1.2743792E-1,-3.7766638E-1,-1.01099305E-1,1.4486799E-1,-2.6302996E-1,1.02545336E-1,6.843897E-1,5.2268274E-2,-5.4567695E-2,1.0811446E-1,3.5220295E-2,1.9119711E-1,-1.1682476E-1,4.2328167E-1,-9.5744275E-2,1.745613E-1,-1.1148008E0,1.1621315E0,-2.9553068E-1,-2.6117773E-3,9.622552E-2,1.750369E-3,9.619505E-2,-8.912696E-2,1.2949699E-1,1.0155076E-2,6.611951E-2,-4.9693238E-2,-1.2725078E-1,1.8079029E-1,7.885172E-3,-3.649098E-2,2.8514305E-2],"categories":[],"categories_nodes":[],"categories_segments":[],"categories_sizes":[],"default_left":[0,0,0,0,0,0,0,0,0,0,0,0,0,0,0,0,0,0,0,0,0,0,0,0,0,0,0,0,0,0,0,0,0,0,0,0,0,0,0,0,0,0,0],"id":27,"left_children":[1,3,5,7,9,11,13,15,17,19,21,23,-1,25,27,-1,29,-1,-1,-1,-1,31,-1,33,-1,35,37,39,41,-1,-1,-1,-1,-1,-1,-1,-1,-1,-1,-1,-1,-1,-1],"loss_changes":[2.6730447E2,3.5671844E1,1.596984E2,6.257263E0,1.9931707E1,6.500946E0,3.82102E1,1.0725708E0,2.4076822E0,9.8867035E-1,9.255535E0,9.795773E0,0E0,1.9109203E1,1.9832447E1,0E0,3.859023E0,0E0,0E0,0E0,0E0,1.4048603E1,0E0,1.167884E1,0E0,1.7516579E1,5.1562405E-1,6.5620556E0,1.6709156E1,0E0,0E0,0E0,0E0,0E0,0E0,0E0,0E0,0E0,0E0,0E0,0E0,0E0,0E0],"parents":[2147483647,0,0,1,1,2,2,3,3,4,4,5,5,6,6,7,7,8,8,9,9,10,10,11,11,13,13,14,14,16,16,21,21,23,23,25,25,26,26,27,27,28,28],"right_children":[2,4,6,8,10,12,14,16,18,20,22,24,-1,26,28,-1,30,-1,-1,-1,-1,32,-1,34,-1,36,38,40,42,-1,-1,-1,-1,-1,-1,-1,-1,-1,-1,-1,-1,-1,-1],"split_conditions":[1.42E0,1.92E0,2E0,3.81E0,2.5E0,3.39E0,3.1E0,3.36E0,-7.5E-3,1.63E0,7.7E-1,2.8E0,-1.01099305E-1,5.3E-1,1.85E0,1.02545336E-1,1E0,5.2268274E-2,-5.4567695E-2,1.0811446E-1,3.5220295E-2,2E0,-1.1682476E-1,1E0,-9.5744275E-2,6E0,1.86E0,2.42E0,4E0,-2.6117773E-3,9.622552E-2,1.750369E-3,9.619505E-2,-8.912696E-2,1.2949699E-1,1.0155076E-2,6.611951E-2,-4.9693238E-2,-1.2725078E-1,1.8079029E-1,7.885172E-3,-3.649098E-2,2.8514305E-2],"split_indices":[11,9,62,45,5,19,45,45,27,15,15,15,0,26,0,0,1,0,0,0,0,3,0,41,0,3,7,7,3,0,0,0,0,0,0,0,0,0,0,0,0,0,0],"split_type":[0,0,0,0,0,0,0,0,0,0,0,0,0,0,0,0,0,0,0,0,0,0,0,0,0,0,0,0,0,0,0,0,0,0,0,0,0,0,0,0,0,0,0],"sum_hessian":[1.538116E3,3.7803683E2,1.1600792E3,2.378841E2,1.4015276E2,2.356335E2,9.244457E2,2.3144116E2,6.4429226E0,3.1820148E1,1.083326E2,1.9222002E1,2.164115E2,5.046875E2,4.1975818E2,2.1302174E2,1.841943E1,3.3263118E0,3.1166105E0,2.8517485E1,3.3026628E0,1.0406416E2,4.2684417E0,8.184803E0,1.10372E1,4.939064E2,1.0781095E1,8.584163E0,4.1117404E2,5.4330425E0,1.2986387E1,8.576032E1,