{"learner":{"attributes":{"scikit_learn":"{\"_estimator_type\": \"classifier\"}"},"feature_names":["OLD_GPA_M6","GENDER_ENCODED","FAC_ENCODED","COUNT_F","COUNT_WIU","TERM1","TERM1_missing","TERM2","TERM2_missing","avg_gpa_up_to_now","min_gpa_up_to_now","max_gpa_up_to_now","gpa_range","gpa_std","gpa_change_from_start","improvement_from_hs","has_F","multiple_F","excessive_F","has_WIU","low_gpa","very_low_gpa","critical_gpa","early_warning","term1_low","term1_excellent","term2_low","declining_trend","improving_trend","decline_last_term","performance_category","risk_score","current_term"],"feature_types":["float","int","int","int","int","float","int","float","int","float","float","float","float","float","float","float","int","int","int","int","int","int","int","int","int","int","int","int","int","int","int","int","int"],"gradient_booster":{"model":{"cats":{"enc":[],"feature_segments":[],"sorted_idx":[]},"gbtree_model_param":{"num_parallel_tree":"1","num_trees":"100"},"iteration_indptr":[0,1,2,3,4,5,6,7,8,9,10,11,12,13,14,15,16,17,18,19,20,21,22,23,24,25,26,27,28,29,30,31,32,33,34,35,36,37,38,39,40,41,42,43,44,45,46,47,48,49,50,51,52,53,54,55,56,57,58,59,60,61,62,63,64,65,66,67,68,69,70,71,72,73,74,75,76,77,78,79,80,81,82,83,84,85,86,87,88,89,90,91,92,93,94,95,96,97,98,99,100],"tree_info":[0,0,0,0,0,0,0,0,0,0,0,0,0,0,0,0,0,0,0,0,0,0,0,0,0,0,0,0,0,0,0,0,0,0,0,0,0,0,0,0,0,0,0,0,0,0,0,0,0,0,0,0,0,0,0,0,0,0,0,0,0,0,0,0,0,0,0,0,0,0,0,0,0,0,0,0,0,0,0,0,0,0,0,0,0,0,0,0,0,0,0,0,0,0,0,0,0,0,0,0],"trees":[{"base_weights":[1.0848613E-3,-8.49783E-1,1.5611751E0,-1.0259322E0,1.5550116E-1,1.1145077E0,1.8582996E0,-6.999997E-1,-1.3121334E0,6.12715E-1,-5.8103263E-2,1.6034367E0,7.2960925E-1,9.89368E-2,1.7087845E0,-3.6845725E-2,5.9202563E-2,-6.678735E-2,5.2361127E-2,3.4219187E-2,-2.1187125E-2,3.552633E-2,-9.624466E-3,9.1727875E-2,6.3760325E-2,2.286408E-2,4.5055434E-2,7.061689E-2,8.8274114E-2],"categories":[],"categories_nodes":[],"categories_segments":[],"categories_sizes":[],"default_left":[0,0,0,0,0,0,0,0,0,0,0,0,0,0,0,0,0,0,0,0,0,0,0,0,0,0,0,0,0],"id":0,"left_children":[1,3,5,7,9,11,13,15,17,19,21,23,25,-1,27,-1,-1,-1,-1,-1,-1,-1,-1,-1,-1,-1,-1,-1,-1],"loss_changes":[6.4627812E3,5.580349E2,2.2596484E2,2.4915503E2,4.5994637E1,1.2846942E2,1.5172119E1,8.819556E1,8.0860596E1,1.1427292E1,3.336157E1,2.0616089E1,1.7675598E1,0E0,5.355835E0,0E0,0E0,0E0,0E0,0E0,0E0,0E0,0E0,0E0,0E0,0E0,0E0,0E0,0E0],"parents":[2147483647,0,0,1,1,2,2,3,3,4,4,5,5,6,6,7,7,8,8,9,9,10,10,11,11,12,12,14,14],"right_children":[2,4,6,8,10,12,14,16,18,20,22,24,26,-1,28,-1,-1,-1,-1,-1,-1,-1,-1,-1,-1,-1,-1,-1,-1],"split_conditions":[2E0,1E0,5E0,3.15E0,2.34E0,2.05E0,1.45E0,5E0,3E0,5E0,-5.6E-1,1.61E0,3.4E-1,9.89368E-2,6E0,-3.6845725E-2,5.9202563E-2,-6.678735E-2,5.2361127E-2,3.4219187E-2,-2.1187125E-2,3.552633E-2,-9.624466E-3,9.1727875E-2,6.3760325E-2,2.286408E-2,4.5055434E-2,7.061689E-2,8.8274114E-2],"split_indices":[3,3,3,9,7,7,7,4,4,2,14,7,12,0,3,0,0,0,0,0,0,0,0,0,0,0,0,0,0],"split_type":[0,0,0,0,0,0,0,0,0,0,0,0,0,0,0,0,0,0,0,0,0,0,0,0,0,0,0,0,0],"sum_hessian":[4.86664E3,3.1494153E3,1.7172251E3,2.6798267E3,4.6958853E2,6.8788226E2,1.0293428E3,1.2545557E3,1.4252711E3,1.4893314E2,3.206554E2,3.0159988E2,3.862824E2,5.6333466E2,4.660081E2,1.2310443E3,2.3511345E1,1.4115771E3,1.3693882E1,1.3961852E2,9.314627E0,4.7081646E1,2.7357373E2,1.7428748E2,1.2731239E2,1.5068031E2,2.3560211E2,7.897791E1,3.8703018E2],"tree_param":{"num_deleted":"0","num_feature":"33","num_nodes":"29","size_leaf_vector":"1"}},{"base_weights":[-1.6263261E-2,-1.0229038E0,1.2039332E0,-3.4104016E-1,-1.1667768E0,3.8857782E-1,1.6279205E0,-4.274879E-1,7.756894E-2,-1.5949513E0,-1.0287125E0,9.96499E-1,1.7099245E-1,9.370714E-2,1.3902056E0,1.9088497E-2,-2.7880976E-2,-8.117877E-2,-9.941983E-3,-5.2560367E-2,3.703304E-2,7.367396E-2,3.7308287E-2,1.2107783E-2,-3.0681511E-2,5.1781505E-2,8.4403254E-2],"categories":[],"categories_nodes":[],"categories_segments":[],"categories_sizes":[],"default_left":[0,0,0,0,0,0,0,0,0,0,0,0,0,0,0,0,0,0,0,0,0,0,0,0,0,0,0],"id":1,"left_children":[1,3,5,7,9,11,13,15,-1,17,19,21,23,-1,25,-1,-1,-1,-1,-1,-1,-1,-1,-1,-1,-1,-1],"loss_changes":[5.898434E3,2.5773853E2,7.498137E2,7.589783E1,1.2678418E2,9.82365E1,8.096704E1,4.6609993E1,0E0,2.077246E1,6.627429E1,2.2289886E1,3.0806856E1,0E0,7.538611E1,0E0,0E0,0E0,0E0,0E0,0E0,0E0,0E0,0E0,0E0,0E0,0E0],"parents":[2147483647,0,0,1,1,2,2,3,3,4,4,5,5,6,6,7,7,9,9,10,10,11,11,12,12,14,14],"right_children":[2,4,6,8,10,12,14,16,-1,18,20,22,24,-1,26,-1,-1,-1,-1,-1,-1,-1,-1,-1,-1,-1,-1],"split_conditions":[1E0,2.55E0,3E0,5E0,1E0,2E0,1.45E0,2.14E0,7.756894E-2,1E0,3E0,1.58E0,5E0,9.370714E-2,6E0,1.9088497E-2,-2.7880976E-2,-8.117877E-2,-9.941983E-3,-5.2560367E-2,3.703304E-2,7.367396E-2,3.7308287E-2,1.2107783E-2,-3.0681511E-2,5.1781505E-2,8.4403254E-2],"split_indices":[3,10,3,4,2,10,7,7,0,4,4,10,2,0,3,0,0,0,0,0,0,0,0,0,0,0,0],"split_type":[0,0,0,0,0,0,0,0,0,0,0,0,0,0,0,0,0,0,0,0,0,0,0,0,0,0,0],"sum_hessian":[4.800113E3,2.6303127E3,2.1697998E3,4.588825E2,2.1714304E3,7.429584E2,1.4268414E3,4.395763E2,1.9306213E1,5.268807E2,1.6445496E3,1.9488393E2,5.480744E2,6.974975E2,7.2934393E2,6.0625694E1,3.789506E2,5.1613556E2,1.0745109E1,1.6243049E3,2.0244633E1,6.539517E1,1.2948875E2,5.0313297E2,4.494146E1,3.3501495E2,3.9432898E2],"tree_param":{"num_deleted":"0","num_feature":"33","num_nodes":"27","size_leaf_vector":"1"}},{"base_weights":[3.1418935E-3,-8.002285E-1,1.4315275E0,-9.762539E-1,1.5956591E-1,8.668965E-1,1.6626533E0,-4.1602108E-1,-1.0906811E0,7.914831E-1,2.5918385E-2,1.4903779E0,6.0925996E-1,8.960724E-2,1.5007898E0,-2.38813E-2,6.1870493E-2,-7.356017E-2,-4.8350286E-2,4.6267297E-2,-1.7274424E-2,1.0801945E-2,-1.1221106E-2,8.3804004E-2,6.1247237E-2,3.3576462E-2,-6.9426782E-3,5.0276916E-2,8.02189E-2],"categories":[],"categories_nodes":[],"categories_segments":[],"categories_sizes":[],"default_left":[0,0,0,0,0,0,0,0,0,0,0,0,0,0,0,0,0,0,0,0,0,0,0,0,0,0,0,0,0],"id":2,"left_children":[1,3,5,7,9,11,13,15,17,19,21,23,25,-1,27,-1,-1,-1,-1,-1,-1,-1,-1,-1,-1,-1,-1,-1,-1],"loss_changes":[5.5457046E3,5.2273047E2,2.255857E2,1.6711182E2,4.0535908E1,8.059158E1,2.3160156E1,4.5913437E1,1.00697266E2,1.307386E1,1.8963562E1,5.225403E0,1.6896637E1,0E0,2.682251E1,0E0,0E0,0E0,0E0,0E0,0E0,0E0,0E0,0E0,0E0,0E0,0E0,0E0,0E0],"parents":[2147483647,0,0,1,1,2,2,3,3,4,4,5,5,6,6,7,7,8,8,9,9,10,10,11,11,12,12,14,14],"right_children":[2,4,6,8,10,12,14,16,18,20,22,24,26,-1,28,-1,-1,-1,-1,-1,-1,-1,-1,-1,-1,-1,-1,-1,-1],"split_conditions":[2E0,1E0,4E0,2.54E0,2.1E0,1.86E0,1.61E0,3E0,1E0,1.5E-2,2.81E0,1.56E0,5E0,8.960724E-2,5E0,-2.38813E-2,6.1870493E-2,-7.356017E-2,-4.8350286E-2,4.6267297E-2,-1.7274424E-2,1.0801945E-2,-1.1221106E-2,8.3804004E-2,6.1247237E-2,3.3576462E-2,-6.9426782E-3,5.0276916E-2,8.02189E-2],"split_indices":[3,3,3,10,7,7,7,4,2,15,7,7,2,0,3,0,0,0,0,0,0,0,0,0,0,0,0,0,0],"split_type":[0,0,0,0,0,0,0,0,0,0,0,0,0,0,0,0,0,0,0,0,0,0,0,0,0,0,0,0,0],"sum_hessian":[4.8307646E3,3.0921045E3,1.73866E3,2.6128862E3,4.792181E2,5.0636978E2,1.2322903E3,4.4395062E2,2.1689358E3,8.279964E1,3.964185E2,1.4666212E2,3.5970767E2,6.790087E2,5.532815E2,4.286893E2,1.5261329E1,5.2934906E2,1.6395867E3,7.424449E1,8.5551405E0,2.2538635E2,1.7103214E2,8.316426E1,6.3497856E1,3.3216248E2,2.7545198E1,9.755965E1,4.5572186E2],"tree_param":{"num_deleted":"0","num_feature":"33","num_nodes":"29","size_leaf_vector":"1"}},{"base_weights":[-8.276455E-3,-9.229273E-1,1.1037908E0,-9.572863E-1,1.024202E0,5.104516E-1,1.5820929E0,-6.774412E-1,-1.151741E0,1.2613283E0,-2.2840383E-2,1.3719128E0,3.261599E-1,1.7241541E0,1.408304E0,7.971442E-3,-3.7034076E-2,-7.257773E-2,-5.0981846E-2,2.0071013E-2,7.274796E-2,7.939325E-2,5.5384137E-2,7.2975503E-3,2.8336221E-2,8.649445E-2,5.1368207E-2,4.600522E-2,7.528642E-2],"categories":[],"categories_nodes":[],"categories_segments":[],"categories_sizes":[],"default_left":[0,0,0,0,0,0,0,0,0,0,0,0,0,0,0,0,0,0,0,0,0,0,0,0,0,0,0,0,0],"id":3,"left_children":[1,3,5,7,9,11,13,15,17,19,-1,21,23,25,27,-1,-1,-1,-1,-1,-1,-1,-1,-1,-1,-1,-1,-1,-1],"loss_changes":[4.8869795E3,1.7735107E2,6.145425E2,1.40219E2,1.6799644E1,1.5342932E2,2.7199219E1,5.646762E1,5.9013306E1,6.0905037E0,0E0,7.969818E0,3.4587708E1,8.4375E-1,2.4546143E1,0E0,0E0,0E0,0E0,0E0,0E0,0E0,0E0,0E0,0E0,0E0,0E0,0E0,0E0],"parents":[2147483647,0,0,1,1,2,2,3,3,4,4,5,5,6,6,7,7,8,8,9,9,11,11,12,12,13,13,14,14],"right_children":[2,4,6,8,10,12,14,16,18,20,-1,22,24,26,28,-1,-1,-1,-1,-1,-1,-1,-1,-1,-1,-1,-1,-1,-1],"split_conditions":[1E0,3E0,4E0,3.095E0,1E1,1.83E0,1.56E0,2.05E0,1E0,5E0,-2.2840383E-2,1.5E0,2E0,6E0,5E0,7.971442E-3,-3.7034076E-2,-7.257773E-2,-5.0981846E-2,2.0071013E-2,7.274796E-2,7.939325E-2,5.5384137E-2,7.2975503E-3,2.8336221E-2,8.649445E-2,5.1368207E-2,4.600522E-2,7.528642E-2],"split_indices":[3,4,3,9,4,7,7,10,2,4,0,10,3,4,3,0,0,0,0,0,0,0,0,0,0,0,0,0,0],"split_type":[0,0,0,0,0,0,0,0,0,0,0,0,0,0,0,0,0,0,0,0,0,0,0,0,0,0,0,0,0],"sum_hessian":[4.802564E3,2.6352769E3,2.167287E3,2.5900806E3,4.519613E1,9.6824066E2,1.1990464E3,1.0637267E3,1.526354E3,3.90863E1,6.109827E0,1.6949614E2,7.987445E2,6.5483795E2,5.442085E2,7.462888E1,9.890978E2,4.6378818E2,1.0625658E3,7.7485175E0,3.1337784E1,9.051221E1,7.898394E1,4.575767E2,3.411678E2,6.4802167E2,6.8162694E0,9.227203E1,4.5193646E2],"tree_param":{"num_deleted":"0","num_feature":"33","num_nodes":"29","size_leaf_vector":"1"}},{"base_weights":[-1.9848626E-2,-7.1983165E-1,1.2995093E0,-8.7488395E-1,1.2830159E-1,7.817083E-1,1.521299E0,-6.518009E-1,-1.143981E0,7.715555E-1,-8.358474E-2,1.2392648E0,3.945902E-1,1.1877787E0,1.5715134E0,5.909843E-3,-3.472724E-2,4.296374E-2,-5.8273416E-2,3.3249564E-2,7.422688E-2,1.757875E-2,-1.3864616E-2,7.392198E-2,5.0391596E-2,2.4443937E-2,-3.4227964E-2,7.5558364E-2,3.827689E-2,8.3883174E-2,7.480827E-2],"categories":[],"categories_nodes":[],"categories_segments":[],"categories_sizes":[],"default_left":[0,0,0,0,0,0,0,0,0,0,0,0,0,0,0,0,0,0,0,0,0,0,0,0,0,0,0,0,0,0,0],"id":4,"left_children":[1,3,5,7,9,11,13,15,17,19,21,23,25,27,29,-1,-1,-1,-1,-1,-1,-1,-1,-1,-1,-1,-1,-1,-1,-1,-1],"loss_changes":[4.3827793E3,4.0786047E2,1.8773315E2,1.566272E2,6.5501236E1,8.725632E1,1.7404297E1,4.733264E1,5.209082E1,8.058632E0,3.0615793E1,1.1051056E1,2.778828E1,1.9962845E1,5.4641113E0,0E0,0E0,0E0,0E0,0E0,0E0,0E0,0E0,0E0,0E0,0E0,0E0,0E0,0E0,0E0,0E0],"parents":[2147483647,0,0,1,1,2,2,3,3,4,4,5,5,6,6,7,7,8,8,9,9,10,10,11,11,12,12,13,13,14,14],"right_children":[2,4,6,8,10,12,14,16,18,20,22,24,26,28,30,-1,-1,-1,-1,-1,-1,-1,-1,-1,-1,-1,-1,-1,-1,-1,-1],"split_conditions":[2E0,1E0,4E0,3.245E0,2.05E0,1.92E0,5E0,2.05E0,2.01E0,7E0,-3.9E-1,1.5E0,5E0,1.9E0,1.72E0,5.909843E-3,-3.472724E-2,4.296374E-2,-5.8273416E-2,3.3249564E-2,7.422688E-2,1.757875E-2,-1.3864616E-2,7.392198E-2,5.0391596E-2,2.4443937E-2,-3.4227964E-2,7.5558364E-2,3.827689E-2,8.3883174E-2,7.480827E-2],"split_indices":[3,3,3,9,10,10,3,10,0,31,14,10,2,10,9,0,0,0,0,0,0,0,0,0,0,0,0,0,0,0,0],"split_type":[0,0,0,0,0,0,0,0,0,0,0,0,0,0,0,0,0,0,0,0,0,0,0,0,0,0,0,0,0,0,0],"sum_hessian":[4.7436777E3,3.0996292E3,1.6440485E3,2.6205242E3,4.791051E2,4.9437683E2,1.1496716E3,1.4346298E3,1.1858944E3,1.18058014E2,3.610471E2,2.2556622E2,2.688106E2,1.5366885E2,9.9600275E2,7.535761E1,1.3592721E3,1.21713705E1,1.173723E3,1.0438852E2,1.3669497E1,1.1096091E2,2.5008618E2,1.0827797E2,1.1728826E2,2.4771407E2,2.1096544E1,8.5560394E1,6.810847E1,4.046574E2,5.9134534E2],"tree_param":{"num_deleted":"0","num_feature":"33","num_nodes":"31","size_leaf_vector":"1"}},{"base_weights":[-2.4850888E-4,-6.6483396E-1,1.2585846E0,-1.0768314E-1,-8.979058E-1,7.976499E-1,1.4607823E0,4.3529963E-1,-3.0354148E-1,-9.664024E-1,-8.169609E-2,1.2654902E0,5.642764E-1,1.609713E0,1.2866429E0,6.791868E-2,1.753216E-2,-1.799557E-2,5.170247E-2,-6.765341E-2,-4.174328E-2,-2.0113919E-2,2.4773162E-2,7.579246E-2,5.130532E-2,4.95722E-2,2.4985151E-2,8.0785535E-2,4.6209436E-2,4.914646E-2,7.166689E-2],"categories":[],"categories_nodes":[],"categories_segments":[],"categories_sizes":[],"default_left":[0,0,0,0,0,0,0,0,0,0,0,0,0,0,0,0,0,0,0,0,0,0,0,0,0,0,0,0,0,0,0],"id":5,"left_children":[1,3,5,7,9,11,13,15,17,19,21,23,25,27,29,-1,-1,-1,-1,-1,-1,-1,-1,-1,-1,-1,-1,-1,-1,-1,-1],"loss_changes":[3.9946313E3,4.0570557E2,1.5259741E2,9.8274284E1,1.23095215E2,5.4450165E1,2.7638672E1,1.8672592E1,5.155335E1,1.0224512E2,3.1962639E1,8.474182E0,8.852737E0,1.0291748E0,2.2341125E1,0E0,0E0,0E0,0E0,0E0,0E0,0E0,0E0,0E0,0E0,0E0,0E0,0E0,0E0,0E0,0E0],"parents":[2147483647,0,0,1,1,2,2,3,3,4,4,5,5,6,6,7,7,8,8,9,9,10,10,11,11,12,12,13,13,14,14],"right_children":[2,4,6,8,10,12,14,16,18,20,22,24,26,28,30,-1,-1,-1,-1,-1,-1,-1,-1,-1,-1,-1,-1,-1,-1,-1,-1],"split_conditions":[2E0,2.835E0,4E0,2.11E0,1E0,1.92E0,1.56E0,1.56E0,3E0,1E0,4.5E-1,1.45E0,2.115E0,6E0,6E0,6.791868E-2,1.753216E-2,-1.799557E-2,5.170247E-2,-6.765341E-2,-4.174328E-2,-2.0113919E-2,2.4773162E-2,7.579246E-2,5.130532E-2,4.95722E-2,2.4985151E-2,8.0785535E-2,4.6209436E-2,4.914646E-2,7.166689E-2],"split_indices":[3,9,3,10,3,7,7,7,4,2,15,7,9,4,3,0,0,0,0,0,0,0,0,0,0,0,0,0,0,0,0],"split_type":[0,0,0,0,0,0,0,0,0,0,0,0,0,0,0,0,0,0,0,0,0,0,0,0,0,0,0,0,0,0,0],"sum_hessian":[4.7728276E3,3.1240144E3,1.6488131E3,9.218423E2,2.2021724E3,5.042522E2,1.1445609E3,2.4404578E2,6.777965E2,2.0315037E3,1.7066855E2,1.6635008E2,3.379021E2,6.1249115E2,5.3206976E2,1.9237617E1,2.2480817E2,6.510887E2,2.6707819E1,5.1330524E2,1.5181985E3,1.0991785E2,6.0750698E1,7.8704666E1,8.764542E1,4.2487038E1,2.9541507E2,6.0583374E2,6.6574464E0,1.7579929E2,3.5627045E2],"tree_param":{"num_deleted":"0","num_feature":"33","num_nodes":"31","size_leaf_vector":"1"}},{"base_weights":[1.25971865E-2,-6.454032E-1,1.2388062E0,-3.130848E-2,-8.423787E-1,7.910743E-1,1.4305744E0,4.599389E-1,-2.0672747E-1,-9.1984004E-1,-2.9479366E-2,1.2033759E0,5.1757205E-1,7.795793E-2,1.2783604E0,5.0131794E-2,1.5234249E-2,-1.6389595E-2,1.3213879E-2,-4.7154546E-2,4.536797E-2,2.6829574E-2,-1.03866365E-2,7.1809E-2,4.439291E-2,2.9167036E-2,-9.160317E-3,5.134816E-2,6.97998E-2],"categories":[],"categories_nodes":[],"categories_segments":[],"categories_sizes":[],"default_left":[0,0,0,0,0,0,0,0,0,0,0,0,0,0,0,0,0,0,0,0,0,0,0,0,0,0,0,0,0],"id":6,"left_children":[1,3,5,7,9,11,13,15,17,19,21,23,25,-1,27,-1,-1,-1,-1,-1,-1,-1,-1,-1,-1,-1,-1,-1,-1],"loss_changes":[3.7786458E3,3.686372E2,1.3929077E2,6.396882E1,1.4527576E2,5.4933044E1,2.039331E1,1.6153515E1,3.1270308E1,9.035974E1,2.0472939E1,1.31015625E1,1.3838882E1,0E0,1.4220215E1,0E0,0E0,0E0,0E0,0E0,0E0,0E0,0E0,0E0,0E0,0E0,0E0,0E0,0E0],"parents":[2147483647,0,0,1,1,2,2,3,3,4,4,5,5,6,6,7,7,8,8,9,9,10,10,11,11,12,12,14,14],"right_children":[2,4,6,8,10,12,14,16,18,20,22,24,26,-1,28,-1,-1,-1,-1,-1,-1,-1,-1,-1,-1,-1,-1,-1,-1],"split_conditions":[2E0,2.55E0,4E0,2.05E0,1E0,2.205E0,1.56E0,1.79E0,4E0,3E0,-4E-1,1.74E0,5E0,7.795793E-2,6E0,5.0131794E-2,1.5234249E-2,-1.6389595E-2,1.3213879E-2,-4.7154546E-2,4.536797E-2,2.6829574E-2,-1.03866365E-2,7.1809E-2,4.439291E-2,2.9167036E-2,-9.160317E-3,5.134816E-2,6.97998E-2],"split_indices":[3,10,3,10,3,9,7,7,2,4,14,7,2,0,3,0,0,0,0,0,0,0,0,0,0,0,0,0,0],"split_type":[0,0,0,0,0,0,0,0,0,0,0,0,0,0,0,0,0,0,0,0,0,0,0,0,0,0,0,0,0],"sum_hessian":[4.6812397E3,3.0467734E3,1.6344662E3,7.402171E2,2.3065564E3,4.9166772E2,1.1427985E3,1.943455E2,5.458716E2,2.1057659E3,2.0079045E2,1.9472382E2,2.9694394E2,6.144736E2,5.2832495E2,4.2016605E1,1.523289E2,4.3449545E2,1.11376144E2,2.0797847E3,2.598112E1,4.7604572E1,1.5318588E2,1.10005005E2,8.47188E1,2.7161978E2,2.5324163E1,1.7151437E2,3.5681058E2],"tree_param":{"num_deleted":"0","num_feature":"33","num_nodes":"29","size_leaf_vector":"1"}},{"base_weights":[-1.1181644E-2,-6.455273E-1,1.1692241E0,-7.898256E-1,1.3897832E-1,7.7991676E-1,1.4274219E0,-5.3908014E-1,-1.093599E0,6.407382E-1,-8.8981144E-2,1.4030507E0,5.567807E-1,7.594616E-2,1.2952513E0,-2.910511E-2,4.556378E-2,-5.6031343E-2,6.287007E-2,5.465376E-2,2.5265614E-2,1.8360613E-2,-1.482439E-2,7.17237E-2,5.1924508E-2,4.174296E-2,2.2347372E-2,5.322815E-2,6.7212425E-2],"categories":[],"categories_nodes":[],"categories_segments":[],"categories_sizes":[],"default_left":[0,0,0,0,0,0,0,0,0,0,0,0,0,0,0,0,0,0,0,0,0,0,0,0,0,0,0,0,0],"id":7,"left_children":[1,3,5,7,9,11,13,15,17,19,21,23,25,-1,27,-1,-1,-1,-1,-1,-1,-1,-1,-1,-1,-1,-1,-1,-1],"loss_changes":[3.5075635E3,3.4502942E2,1.6347656E2,1.9544885E2,5.4298416E1,9.031122E1,9.924072E0,8.862805E1,7.5297485E1,8.530052E0,3.1059286E1,4.8165894E-1,1.4410965E1,0E0,3.1923218E0,0E0,0E0,0E0,0E0,0E0,0E0,0E0,0E0,0E0,0E0,0E0,0E0,0E0,0E0],"parents":[2147483647,0,0,1,1,2,2,3,3,4,4,5,5,6,6,7,7,8,8,9,9,10,10,11,11,12,12,14,14],"right_children":[2,4,6,8,10,12,14,16,18,20,22,24,26,-1,28,-1,-1,-1,-1,-1,-1,-1,-1,-1,-1,-1,-1,-1,-1],"split_conditions":[2E0,1E0,5E0,3.245E0,2.11E0,1.68E0,1.61E0,3E0,3E0,1.79E0,-3.9E-1,-2.1E-1,1.93E0,7.594616E-2,6E0,-2.910511E-2,4.556378E-2,-5.6031343E-2,6.287007E-2,5.465376E-2,2.5265614E-2,1.8360613E-2,-1.482439E-2,7.17237E-2,5.1924508E-2,4.174296E-2,2.2347372E-2,5.322815E-2,6.7212425E-2],"split_indices":[3,3,3,9,10,7,7,4,4,7,14,15,10,0,3,0,0,0,0,0,0,0,0,0,0,0,0,0,0],"split_type":[0,0,0,0,0,0,0,0,0,0,0,0,0,0,0,0,0,0,0,0,0,0,0,0,0,0,0,0,0],"sum_hessian":[4.68233E3,3.045918E3,1.6364119E3,2.572701E3,4.732173E2,6.541353E2,9.8227655E2,1.4108824E3,1.1618184E3,1.4726427E2,3.25953E2,1.7108167E2,4.8305368E2,5.742402E2,4.0803638E2,1.3708185E3,4.0064068E1,1.1491309E3,1.268743E1,3.230171E1,1.14962555E2,1.01669E2,2.2428401E2,1.5480356E2,1.6278101E1,1.3490265E2,3.4815103E2,7.5464134E1,3.3257224E2],"tree_param":{"num_deleted":"0","num_feature":"33","num_nodes":"29","size_leaf_vector":"1"}},{"base_weights":[4.7567277E-3,-5.874012E-1,1.1436596E0,-7.329092E-1,1.6380072E-1,7.9130214E-1,1.3830439E0,-3.4130746E-1,-8.7140024E-1,8.5115737E-1,3.849814E-2,1.3825498E0,5.867818E-1,7.379144E-2,1.2642862E0,-1.8440308E-2,4.8462026E-2,-4.487277E-2,3.9310046E-2,5.579455E-2,9.351008E-3,8.853108E-3,-1.3955188E-2,7.067986E-2,4.667998E-2,4.3417398E-2,2.2897579E-2,6.3688986E-2,3.0320514E-2],"categories":[],"categories_nodes":[],"categories_segments":[],"categories_sizes":[],"default_left":[0,0,0,0,0,0,0,0,0,0,0,0,0,0,0,0,0,0,0,0,0,0,0,0,0,0,0,0,0],"id":8,"left_children":[1,3,5,7,9,11,13,15,17,19,21,23,25,-1,27,-1,-1,-1,-1,-1,-1,-1,-1,-1,-1,-1,-1,-1,-1],"loss_changes":[3.1147275E3,3.3225488E2,1.3216553E2,1.3776416E2,4.250427E1,7.675543E1,8.485474E0,2.4385239E1,8.1899414E1,1.3171837E1,1.8479185E1,9.67926E-1,1.6953598E1,0E0,1.8444824E0,0E0,0E0,0E0,0E0,0E0,0E0,0E0,0E0,0E0,0E0,0E0,0E0,0E0,0E0],"parents":[2147483647,0,0,1,1,2,2,3,3,4,4,5,5,6,6,7,7,8,8,9,9,10,10,11,11,12,12,14,14],"right_children":[2,4,6,8,10,12,14,16,18,20,22,24,26,-1,28,-1,-1,-1,-1,-1,-1,-1,-1,-1,-1,-1,-1,-1,-1],"split_conditions":[2E0,1E0,5E0,2.77E0,2.205E0,1.61E0,1.56E0,3E0,3E0,1E-1,2.95E0,-1.85E-1,1.97E0,7.379144E-2,7.95E-1,-1.8440308E-2,4.8462026E-2,-4.487277E-2,3.9310046E-2,5.579455E-2,9.351008E-3,8.853108E-3,-1.3955188E-2,7.067986E-2,4.667998E-2,4.3417398E-2,2.2897579E-2,6.3688986E-2,3.0320514E-2],"split_indices":[3,3,3,0,9,7,7,4,4,14,7,15,10,0,15,0,0,0,0,0,0,0,0,0,0,0,0,0,0],"split_type":[0,0,0,0,0,0,0,0,0,0,0,0,0,0,0,0,0,0,0,0,0,0,0,0,0,0,0,0,0],"sum_hessian":[4.616449E3,3.0375818E3,1.5788674E3,2.5446978E3,4.9288416E2,6.404596E2,9.3840784E2,6.657279E2,1.8789697E3,7.5103806E1,4.1778033E2,1.6312416E2,4.7733542E2,5.203968E2,4.1801105E2,6.527501E2,1.2977801E1,1.8503436E3,2.862615E1,5.3212433E1,2.1891373E1,2.9118433E2,1.26596E2,1.5056322E2,1.2560946E1,1.4804153E2,3.2929388E2,4.1114188E2,6.8691754E0],"tree_param":{"num_deleted":"0","num_feature":"33","num_nodes":"29","size_leaf_vector":"1"}},{"base_weights":[-8.05807E-3,-5.655966E-1,1.092434E0,-6.9310117E-1,1.0758638E-1,6.418036E-1,1.2923868E0,-7.2691983E-1,9.931364E-1,8.31592E-1,3.9021146E-2,1.2646866E0,4.8118427E-1,7.219144E-2,1.127687E0,-5.885678E-2,-3.0625248E-2,6.0965516E-2,-2.6602447E-3,1.202122E-2,4.966957E-2,6.4651854E-3,-2.0177945E-2,6.964671E-2,5.393026E-2,2.5403207E-2,-5.8198202E-2,4.453612E-2,6.2220067E-2],"categories":[],"categories_nodes":[],"categories_segments":[],"categories_sizes":[],"default_left":[0,0,0,0,0,0,0,0,0,0,0,0,0,0,0,0,0,0,0,0,0,0,0,0,0,0,0,0,0],"id":9,"left_children":[1,3,5,7,9,11,13,15,17,19,21,23,25,-1,27,-1,-1,-1,-1,-1,-1,-1,-1,-1,-1,-1,-1,-1,-1],"loss_changes":[2.7897925E3,2.591117E2,1.3693616E2,1.4542285E2,2.3867298E1,4.6603607E1,2.4762207E1,1.2744592E2,1.1971508E1,3.740284E0,1.7667149E1,7.9156494E-1,1.72528E1,0E0,1.3035645E1,0E0,0E0,0E0,0E0,0E0,0E0,0E0,0E0,0E0,0E0,0E0,0E0,0E0,0E0],"parents":[2147483647,0,0,1,1,2,2,3,3,4,4,5,5,6,6,7,7,8,8,9,9,10,10,11,11,12,12,14,14],"right_children":[2,4,6,8,10,12,14,16,18,20,22,24,26,-1,28,-1,-1,-1,-1,-1,-1,-1,-1,-1,-1,-1,-1,-1,-1],"split_conditions":[2E0,1E0,4E0,3E0,2.065E0,1.61E0,1.45E0,1E0,9E0,1.79E0,3.14E0,1.36E0,3.63E0,7.219144E-2,6E0,-5.885678E-2,-3.0625248E-2,6.0965516E-2,-2.6602447E-3,1.202122E-2,4.966957E-2,6.4651854E-3,-2.0177945E-2,6.964671E-2,5.393026E-2,2.5403207E-2,-5.8198202E-2,4.453612E-2,6.2220067E-2],"split_indices":[3,3,3,4,9,7,7,2,4,5,7,7,0,0,3,0,0,0,0,0,0,0,0,0,0,0,0,0,0],"split_type":[0,0,0,0,0,0,0,0,0,0,0,0,0,0,0,0,0,0,0,0,0,0,0,0,0,0,0,0,0],"sum_hessian":[4.5448374E3,3.016888E3,1.5279493E3,2.5364421E3,4.8044577E2,4.7089957E2,1.0570498E3,2.48713E3,4.9312214E1,4.0600594E1,4.3984518E2,9.512609E1,3.7577347E2,5.466433E2,5.1040646E2,5.0210153E2,1.9850283E3,4.041165E1,8.900565E0,9.258539E0,3.1342054E1,3.659104E2,7.393477E1,5.2474804E1,4.2651287E1,3.7041254E2,5.360949E0,1.7128307E2,3.3912338E2],"tree_param":{"num_deleted":"0","num_feature":"33","num_nodes":"29","size_leaf_vector":"1"}},{"base_weights":[1.6500449E-2,-5.242427E-1,1.0588571E0,-6.4939487E-1,1.3197626E-1,7.218206E-1,1.2956305E0,-3.9172113E-1,-8.416749E-1,5.896463E-1,5.0307494E-2,1.2044125E0,4.696867E-1,1.4106743E0,1.1588403E0,3.278901E-2,-2.2024905E-2,-4.304513E-2,4.5965645E-2,4.4139992E-2,1.6680287E-2,-1.8941708E-2,8.049556E-3,6.817981E-2,4.8288714E-2,1.9752635E-2,5.0838944E-2,7.082101E-2,4.3381494E-2,4.4741407E-2,6.0424447E-2],"categories":[],"categories_nodes":[],"categories_segments":[],"categories_sizes":[],"default_left":[0,0,0,0,0,0,0,0,0,0,0,0,0,0,0,0,0,0,0,0,0,0,0,0,0,0,0,0,0,0,0],"id":10,"left_children":[1,3,5,7,9,11,13,15,17,19,21,23,25,27,29,-1,-1,-1,-1,-1,-1,-1,-1,-1,-1,-1,-1,-1,-1,-1,-1],"loss_changes":[2.5603083E3,2.4571667E2,1.2288049E2,1.24127686E2,1.7906853E1,7.760989E1,1.268689E1,5.523137E1,4.946997E1,5.152649E0,1.945506E1,7.0341797E0,1.6896317E1,2.991333E-1,4.4415283E0,0E0,0E0,0E0,0E0,0E0,0E0,0E0,0E0,0E0,0E0,0E0,0E0,0E0,0E0,0E0,0E0],"parents":[2147483647,0,0,1,1,2,2,3,3,4,4,5,5,6,6,7,7,8,8,9,9,10,10,11,11,12,12,13,13,14,14],"right_children":[2,4,6,8,10,12,14,16,18,20,22,24,26,28,30,-1,-1,-1,-1,-1,-1,-1,-1,-1,-1,-1,-1,-1,-1,-1,-1],"split_conditions":[2E0,1E0,5E0,3.095E0,2.05E0,1.86E0,1.45E0,2.05E0,3E0,2.4E0,-4.25E-1,1.45E0,3.43E0,3E0,6E0,3.278901E-2,-2.2024905E-2,-4.304513E-2,4.5965645E-2,4.4139992E-2,1.6680287E-2,-1.8941708E-2,8.049556E-3,6.817981E-2,4.8288714E-2,1.9752635E-2,5.0838944E-2,7.082101E-2,4.3381494E-2,4.4741407E-2,6.0424447E-2],"split_indices":[3,3,3,9,7,7,7,7,4,5,15,7,11,4,3,0,0,0,0,0,0,0,0,0,0,0,0,0,0,0,0],"split_type":[0,0,0,0,0,0,0,0,0,0,0,0,0,0,0,0,0,0,0,0,0,0,0,0,0,0,0,0,0,0,0],"sum_hessian":[4.54041E3,2.989859E3,1.5505515E3,2.5109822E3,4.7887668E2,6.414805E2,9.090709E2,1.0743232E3,1.4366589E3,7.15715E1,4.0730518E2,2.188391E2,4.2264145E2,4.8872693E2,4.20344E2,4.7246426E1,1.0270769E3,1.4216476E3,1.501136E1,3.222622E1,3.9345287E1,8.3015495E1,3.2428967E2,1.2844542E2,9.0393684E1,3.7342157E2,4.9219875E1,4.820185E2,6.7084284E0,6.954638E1,3.507976E2],"tree_param":{"num_deleted":"0","num_feature":"33","num_nodes":"31","size_leaf_vector":"1"}},{"base_weights":[8.353106E-3,-6.429609E-1,8.172135E-1,-4.2514902E-1,-9.192222E-1,3.8529328E-1,1.2277659E0,2.8256997E-1,-4.669231E-1,-1.1933892E0,-7.845587E-1,1.1825572E0,2.7126834E-1,1.3401814E0,1.0057832E0,-3.4850825E-2,3.143322E-2,-2.7656484E-2,-4.390854E-3,-6.1260905E-2,-3.3131414E-3,3.4960397E-2,-4.0272217E-2,6.488093E-2,4.8213437E-2,1.6413338E-2,-2.1366179E-2,6.874784E-2,5.994913E-2,3.197452E-2,5.9745442E-2],"categories":[],"categories_nodes":[],"categories_segments":[],"categories_sizes":[],"default_left":[0,0,0,0,0,0,0,0,0,0,0,0,0,0,0,0,0,0,0,0,0,0,0,0,0,0,0,0,0,0,0],"id":11,"left_children":[1,3,5,7,9,11,13,15,17,19,21,23,25,27,29,-1,-1,-1,-1,-1,-1,-1,-1,-1,-1,-1,-1,-1,-1,-1,-1],"loss_changes":[2.36413E3,1.4919116E2,3.544745E2,4.1280502E1,3.9492554E1,8.848782E1,2.4249268E1,2.6949879E1,4.2915558E1,1.2789825E1,2.3410522E1,1.8114014E0,3.4223804E1,1.6801758E0,2.3401917E1,0E0,0E0,0E0,0E0,0E0,0E0,0E0,0E0,0E0,0E0,0E0,0E0,0E0,0E0,0E0,0E0],"parents":[2147483647,0,0,1,1,2,2,3,3,4,4,5,5,6,6,7,7,8,8,9,9,10,10,11,11,12,12,13,13,14,14],"right_children":[2,4,6,8,10,12,14,16,18,20,22,24,26,28,30,-1,-1,-1,-1,-1,-1,-1,-1,-1,-1,-1,-1,-1,-1,-1,-1],"split_conditions":[1E0,3.245E0,4E0,2.05E0,1E0,1.61E0,2E0,1E0,4E0,3.92E0,2.01E0,1.4E0,5E0,1.56E0,6E0,-3.4850825E-2,3.143322E-2,-2.7656484E-2,-4.390854E-3,-6.1260905E-2,-3.3131414E-3,3.4960397E-2,-4.0272217E-2,6.488093E-2,4.8213437E-2,1.6413338E-2,-2.1366179E-2,6.874784E-2,5.994913E-2,3.197452E-2,5.9745442E-2],"split_indices":[3,9,3,10,2,7,7,1,2,10,0,10,2,7,3,0,0,0,0,0,0,0,0,0,0,0,0,0,0,0,0],"split_type":[0,0,0,0,0,0,0,0,0,0,0,0,0,0,0,0,0,0,0,0,0,0,0,0,0,0,0,0,0,0,0],"sum_hessian":[4.4855327E3,2.4848645E3,2.0006681E3,1.3908329E3,1.0940315E3,9.75907E2,1.0247611E3,7.719877E1,1.3136342E3,3.577703E2,7.362612E2,1.209377E2,8.549693E2,6.769209E2,3.4784018E2,1.9889513E1,5.7309258E1,1.0698885E3,2.4374562E2,3.4786005E2,9.910248E0,9.769024E0,7.264922E2,7.59562E1,4.4981503E1,7.909643E2,6.400503E1,5.361388E2,1.407821E2,1.1993505E2,2.2790512E2],"tree_param":{"num_deleted":"0","num_feature":"33","num_nodes":"31","size_leaf_vector":"1"}},{"base_weights":[1.0465588E-2,-4.9505565E-1,1.0045555E0,-9.885136E-3,-6.479516E-1,1.2859865E0,7.0379823E-1,1.5036319E-1,-2.5462916E-1,-3.1752303E-1,-7.6549107E-1,6.784038E-2,1.1126631E0,4.830531E-1,1.153203E0,4.8299797E-2,4.1398443E-3,-1.5806215E-2,4.4754226E-2,-1.9911135E-2,8.892146E-3,-3.9461553E-2,4.4112723E-2,4.619604E-2,6.1306216E-2,4.580678E-2,1.923388E-2,5.0960045E-2,6.3391745E-2],"categories":[],"categories_nodes":[],"categories_segments":[],"categories_sizes":[],"default_left":[0,0,0,0,0,0,0,0,0,0,0,0,0,0,0,0,0,0,0,0,0,0,0,0,0,0,0,0,0],"id":12,"left_children":[1,3,5,7,9,11,13,15,17,19,21,-1,23,25,27,-1,-1,-1,-1,-1,-1,-1,-1,-1,-1,-1,-1,-1,-1],"loss_changes":[2.226291E3,2.1784308E2,1.2550012E2,2.7677647E1,8.648364E1,7.9455566E0,7.127872E1,2.342463E1,2.0024326E1,2.3561245E1,6.509924E1,0E0,3.7711487E0,2.0409698E1,2.3607178E0,0E0,0E0,0E0,0E0,0E0,0E0,0E0,0E0,0E0,0E0,0E0,0E0,0E0,0E0],"parents":[2147483647,0,0,1,1,2,2,3,3,4,4,5,5,6,6,7,7,8,8,9,9,10,10,12,12,13,13,14,14],"right_children":[2,4,6,8,10,12,14,16,18,20,22,-1,24,26,28,-1,-1,-1,-1,-1,-1,-1,-1,-1,-1,-1,-1,-1,-1],"split_conditions":[2E0,2.55E0,1.86E0,1.3E-1,2.83E0,1.36E0,6E0,2.065E0,3.63E0,1E0,3E0,6.784038E-2,4E0,2.115E0,2.34E0,4.8299797E-2,4.1398443E-3,-1.5806215E-2,4.4754226E-2,-1.9911135E-2,8.892146E-3,-3.9461553E-2,4.4112723E-2,4.619604E-2,6.1306216E-2,4.580678E-2,1.923388E-2,5.0960045E-2,6.3391745E-2],"split_indices":[3,10,7,14,0,7,3,9,0,3,4,0,3,9,10,0,0,0,0,0,0,0,0,0,0,0,0,0,0],"split_type":[0,0,0,0,0,0,0,0,0,0,0,0,0,0,0,0,0,0,0,0,0,0,0,0,0,0,0,0,0],"sum_hessian":[4.428145E3,2.9357432E3,1.4924019E3,7.037293E2,2.232014E3,7.692793E2,7.231225E2,4.255091E2,2.782202E2,5.866152E2,1.6453988E3,5.412804E2,2.279989E2,4.863198E2,2.3680269E2,3.1534962E1,3.9397412E2,2.6478275E2,1.3437485E1,5.0460626E2,8.2008896E1,1.622543E3,2.2855843E1,8.9034E1,1.389649E2,8.848147E1,3.9783832E2,1.1373734E2,1.2306534E2],"tree_param":{"num_deleted":"0","num_feature":"33","num_nodes":"29","size_leaf_vector":"1"}},{"base_weights":[-2.7259723E-3,-4.8280922E-1,9.6019524E-1,-2.219746E-1,-7.60381E-1,5.925827E-1,1.2202562E0,1.06951825E-1,-3.995197E-1,-1.0623964E0,-6.392015E-1,1.2023326E0,4.0154698E-1,6.652819E-2,1.0872035E0,2.8958445E-2,-1.15569765E-2,-3.5998818E-2,-2.9909527E-3,-5.5765588E-2,3.6418345E-2,-5.146355E-3,-3.4748305E-2,6.176984E-2,4.153405E-2,-1.0034073E-2,2.2813702E-2,5.701688E-2,4.2119704E-2],"categories":[],"categories_nodes":[],"categories_segments":[],"categories_sizes":[],"default_left":[0,0,0,0,0,0,0,0,0,0,0,0,0,0,0,0,0,0,0,0,0,0,0,0,0,0,0,0,0],"id":13,"left_children":[1,3,5,7,9,11,13,15,17,19,21,23,25,-1,27,-1,-1,-1,-1,-1,-1,-1,-1,-1,-1,-1,-1,-1,-1],"loss_changes":[2.0399646E3,2.1302698E2,1.3963245E2,8.8781685E1,5.151544E1,7.059894E1,1.1159302E1,8.530235E1,1.0740759E2,3.936612E1,3.044049E1,7.565155E-1,1.5455109E1,0E0,4.1746216E0,0E0,0E0,0E0,0E0,0E0,0E0,0E0,0E0,0E0,0E0,0E0,0E0,0E0,0E0],"parents":[2147483647,0,0,1,1,2,2,3,3,4,4,5,5,6,6,7,7,8,8,9,9,10,10,11,11,12,12,14,14],"right_children":[2,4,6,8,10,12,14,16,18,20,22,24,26,-1,28,-1,-1,-1,-1,-1,-1,-1,-1,-1,-1,-1,-1,-1,-1],"split_conditions":[2E0,3.14E0,5E0,2E0,1E0,1.61E0,1.45E0,2.65E0,3E0,1E0,2.48E0,1E0,2.14E0,6.652819E-2,1E0,2.8958445E-2,-1.15569765E-2,-3.5998818E-2,-2.9909527E-3,-5.5765588E-2,3.6418345E-2,-5.146355E-3,-3.4748305E-2,6.176984E-2,4.153405E-2,-1.0034073E-2,2.2813702E-2,5.701688E-2,4.2119704E-2],"split_indices":[3,7,3,2,2,7,7,7,2,4,0,4,0,0,4,0,0,0,0,0,0,0,0,0,0,0,0,0,0],"split_type":[0,0,0,0,0,0,0,0,0,0,0,0,0,0,0,0,0,0,0,0,0,0,0,0,0,0,0,0,0],"sum_hessian":[4.4108086E3,2.9436785E3,1.46713E3,1.5185215E3,1.425157E3,6.092274E2,8.579026E2,5.324617E2,9.860598E2,4.058616E2,1.0192954E3,1.4407466E2,4.6515274E2,4.6412143E2,3.9378116E2,2.2186563E2,3.10596E2,5.0682602E2,4.7923376E2,3.9457935E2,1.1282251E1,9.627616E1,9.230193E2,1.3016995E2,1.3904704E1,3.852693E1,4.2662582E2,3.2055E2,7.323116E1],"tree_param":{"num_deleted":"0","num_feature":"33","num_nodes":"29","size_leaf_vector":"1"}},{"base_weights":[1.0819679E-2,-5.3810745E-1,7.2665775E-1,-3.7943548E-1,-8.1910783E-1,3.4277016E-1,1.1207044E0,-4.1452396E-1,8.9310575E-1,1.1238902E0,-8.539131E-1,8.0682427E-1,1.6823125E-1,1.2934492E0,9.37689E-1,-1.823972E-2,-5.440573E-2,5.583281E-2,-2.1621015E-2,-1.5036184E-3,8.9699216E-2,-4.3515474E-2,4.954727E-2,5.5775013E-2,2.8616846E-2,1.0696046E-2,-1.7189652E-2,6.5042846E-2,3.879398E-2,3.227819E-2,5.4644227E-2],"categories":[],"categories_nodes":[],"categories_segments":[],"categories_sizes":[],"default_left":[0,0,0,0,0,0,0,0,0,0,0,0,0,0,0,0,0,0,0,0,0,0,0,0,0,0,0,0,0,0,0],"id":14,"left_children":[1,3,5,7,9,11,13,15,17,19,21,23,25,27,29,-1,-1,-1,-1,-1,-1,-1,-1,-1,-1,-1,-1,-1,-1,-1,-1],"loss_changes":[1.702415E3,1.0902191E2,2.8405597E2,7.043065E1,6.0746765E1,7.7125435E1,2.8108643E1,5.077466E1,1.3052933E1,1.2418194E1,2.715155E1,1.8213333E1,1.6319466E1,8.0981445E-1,1.987619E1,0E0,0E0,0E0,0E0,0E0,0E0,0E0,0E0,0E0,0E0,0E0,0E0,0E0,0E0,0E0,0E0],"parents":[2147483647,0,0,1,1,2,2,3,3,4,4,5,5,6,6,7,7,8,8,9,9,10,10,11,11,12,12,13,13,14,14],"right_children":[2,4,6,8,10,12,14,16,18,20,22,24,26,28,30,-1,-1,-1,-1,-1,-1,-1,-1,-1,-1,-1,-1,-1,-1,-1,-1],"split_conditions":[1E0,3.18E0,4E0,3E0,2.03E0,2.05E0,1.56E0,1E0,9E0,1E0,5E0,1.58E0,5E0,4E0,6E0,-1.823972E-2,-5.440573E-2,5.583281E-2,-2.1621015E-2,-1.5036184E-3,8.9699216E-2,-4.3515474E-2,4.954727E-2,5.5775013E-2,2.8616846E-2,1.0696046E-2,-1.7189652E-2,6.5042846E-2,3.879398E-2,3.227819E-2,5.4644227E-2],"split_indices":[3,10,3,4,0,7,7,4,4,1,4,10,2,4,3,0,0,0,0,0,0,0,0,0,0,0,0,0,0,0,0],"split_type":[0,0,0,0,0,0,0,0,0,0,0,0,0,0,0,0,0,0,0,0,0,0,0,0,0,0,0,0,0,0,0],"sum_hessian":[4.330479E3,2.4511265E3,1.8793524E3,1.5680493E3,8.830771E2,9.528946E2,9.264578E2,1.526629E3,4.142032E1,1.4989693E1,8.680874E2,2.5945303E2,6.934416E2,4.734807E2,4.5297714E2,1.4231061E3,1.0352295E2,3.55777E1,5.842615E0,5.857563E0,9.13213E0,8.6096375E2,7.123658E0,1.10385666E2,1.4906737E2,6.371672E2,5.6274395E1,4.6530768E2,8.173016E0,1.5894817E2,2.94029E2],"tree_param":{"num_deleted":"0","num_feature":"33","num_nodes":"31","size_leaf_vector":"1"}},{"base_weights":[2.0176113E-2,-5.3759444E-1,7.4383515E-1,-9.579189E-1,-4.3830988E-1,3.6080858E-1,1.1272167E0,-1.0129126E0,6.748392E-1,-3.1923735E-1,-6.4078045E-1,9.529038E-1,2.1713065E-1,1.2535352E0,9.1816545E-1,1.2897856E-2,-5.364262E-2,6.631169E-2,-2.7417326E-2,-2.0484684E-2,6.634154E-4,3.828765E-2,-3.3195954E-2,5.974214E-2,3.6983613E-2,8.285176E-3,4.286249E-2,6.444857E-2,5.6351043E-2,3.2346677E-2,5.3412803E-2],"categories":[],"categories_nodes":[],"categories_segments":[],"categories_sizes":[],"default_left":[0,0,0,0,0,0,0,0,0,0,0,0,0,0,0,0,0,0,0,0,0,0,0,0,0,0,0,0,0,0,0],"id":15,"left_children":[1,3,5,7,9,11,13,15,17,19,21,23,25,27,29,-1,-1,-1,-1,-1,-1,-1,-1,-1,-1,-1,-1,-1,-1,-1,-1],"loss_changes":[1.7392261E3,1.0112909E2,2.7500635E2,4.2357178E1,4.7295868E1,7.973189E1,2.3588745E1,3.450946E1,1.3254864E1,3.7380463E1,2.4221771E1,8.567276E0,2.4793552E1,1.1531982E0,1.3826294E1,0E0,0E0,0E0,0E0,0E0,0E0,0E0,0E0,0E0,0E0,0E0,0E0,0E0,0E0,0E0,0E0],"parents":[2147483647,0,0,1,1,2,2,3,3,4,4,5,5,6,6,7,7,8,8,9,9,10,10,11,11,12,12,13,13,14,14],"right_children":[2,4,6,8,10,12,14,16,18,20,22,24,26,28,30,-1,-1,-1,-1,-1,-1,-1,-1,-1,-1,-1,-1,-1,-1,-1,-1],"split_conditions":[1E0,1E0,4E0,1E0,3.23E0,2.085E0,1.92E0,2.84E0,1.2E-1,4E0,2.01E0,1.61E0,1.22E0,1.36E0,6E0,1.2897856E-2,-5.364262E-2,6.631169E-2,-2.7417326E-2,-2.0484684E-2,6.634154E-4,3.828765E-2,-3.3195954E-2,5.974214E-2,3.6983613E-2,8.285176E-3,4.286249E-2,6.444857E-2,5.6351043E-2,3.2346677E-2,5.3412803E-2],"split_indices":[3,2,3,19,9,9,7,9,14,2,0,7,12,7,3,0,0,0,0,0,0,0,0,0,0,0,0,0,0,0,0],"split_type":[0,0,0,0,0,0,0,0,0,0,0,0,0,0,0,0,0,0,0,0,0,0,0,0,0,0,0,0,0,0,0],"sum_hessian":[4.3069097E3,2.4323772E3,1.8745323E3,4.631152E2,1.969262E3,9.3867126E2,9.35861E2,4.483923E2,1.4722887E1,1.2416354E3,7.2762665E2,1.82199E2,7.564723E2,5.8025055E2,3.556105E2,2.0046827E1,4.283455E2,9.551886E0,5.1710014E0,9.7591187E2,2.657235E2,1.12569065E1,7.1636975E2,8.319733E1,9.900167E1,7.0138214E2,5.5090134E1,4.4610846E2,1.3414209E2,1.2857327E2,2.2703725E2],"tree_param":{"num_deleted":"0","num_feature":"33","num_nodes":"31","size_leaf_vector":"1"}},{"base_weights":[1.1895878E-2,-3.9162314E-1,8.7536865E-1,-1.607958E-1,-6.6294986E-1,4.5095402E-1,1.089947E0,-2.909023E-1,2.1173024E-1,-6.902023E-1,8.086117E-1,8.27766E-1,2.229064E-1,6.381388E-2,9.4769496E-1,-1.6333308E-2,4.386886E-2,2.7698874E-2,3.875408E-4,4.4066295E-2,-3.5773225E-2,-2.270799E-2,6.9227345E-2,5.75112E-2,2.8511077E-2,-5.811889E-2,1.3390108E-2,3.7756413E-2,5.2894384E-2],"categories":[],"categories_nodes":[],"categories_segments":[],"categories_sizes":[],"default_left":[0,0,0,0,0,0,0,0,0,0,0,0,0,0,0,0,0,0,0,0,0,0,0,0,0,0,0,0,0],"id":16,"left_children":[1,3,5,7,9,11,13,15,17,19,21,23,25,-1,27,-1,-1,-1,-1,-1,-1,-1,-1,-1,-1,-1,-1,-1,-1],"loss_changes":[1.4603789E3,1.7879352E2,1.2107617E2,7.493255E1,5.320343E1,3.8481667E1,2.2272217E1,4.814022E1,2.7950779E1,5.1820007E1,1.8322987E1,1.340242E1,1.7830326E1,0E0,9.943726E0,0E0,0E0,0E0,0E0,0E0,0E0,0E0,0E0,0E0,0E0,0E0,0E0,0E0,0E0],"parents":[2147483647,0,0,1,1,2,2,3,3,4,4,5,5,6,6,7,7,8,8,9,9,10,10,11,11,12,12,14,14],"right_children":[2,4,6,8,10,12,14,16,18,20,22,24,26,-1,28,-1,-1,-1,-1,-1,-1,-1,-1,-1,-1,-1,-1,-1,-1],"split_conditions":[2E0,3.15E0,4E0,1E0,2E0,2.05E0,1.14E0,3E0,2E0,2.03E0,3.56E0,1.5E0,2.1E0,6.381388E-2,6E0,-1.6333308E-2,4.386886E-2,2.7698874E-2,3.875408E-4,4.4066295E-2,-3.5773225E-2,-2.270799E-2,6.9227345E-2,5.75112E-2,2.8511077E-2,-5.811889E-2,1.3390108E-2,3.7756413E-2,5.2894384E-2],"split_indices":[3,7,3,3,4,7,7,4,2,0,11,10,7,0,3,0,0,0,0,0,0,0,0,0,0,0,0,0,0],"split_type":[0,0,0,0,0,0,0,0,0,0,0,0,0,0,0,0,0,0,0,0,0,0,0,0,0,0,0,0,0],"sum_hessian":[4.1893564E3,2.8554778E3,1.3338785E3,1.5437485E3,1.3117294E3,4.4896732E2,8.849112E2,1.1443114E3,3.9943713E2,1.2883999E3,2.3329437E1,1.6828073E2,2.8068658E2,3.7965E2,5.0526123E2,1.1110208E3,3.3290638E1,1.485225E2,2.5091463E2,1.9847134E1,1.2685527E3,7.3736725E0,1.5955765E1,7.318432E1,9.509641E1,8.029864E0,2.726567E2,1.8675372E2,3.185075E2],"tree_param":{"num_deleted":"0","num_feature":"33","num_nodes":"29","size_leaf_vector":"1"}},{"base_weights":[2.1106424E-3,-4.0268147E-1,8.8580006E-1,-1.4596587E-1,-6.892902E-1,5.8679545E-1,1.134171E0,-2.6326245E-1,1.7459926E-1,-1.0429198E0,-5.560934E-1,9.757195E-1,3.3842894E-1,6.303045E-2,1.021883E0,2.4870798E-2,-1.572383E-2,2.5498504E-2,-1.8177063E-3,-4.1484576E-2,-5.837373E-2,5.136106E-2,-2.9382998E-2,5.7690144E-2,3.7657727E-2,1.4723471E-2,5.2688587E-2,5.3404637E-2,4.011817E-2],"categories":[],"categories_nodes":[],"categories_segments":[],"categories_sizes":[],"default_left":[0,0,0,0,0,0,0,0,0,0,0,0,0,0,0,0,0,0,0,0,0,0,0,0,0,0,0,0,0],"id":17,"left_children":[1,3,5,7,9,11,13,15,17,19,21,23,25,-1,27,-1,-1,-1,-1,-1,-1,-1,-1,-1,-1,-1,-1,-1,-1],"loss_changes":[1.4876823E3,2.0976538E2,9.636548E1,5.6669678E1,6.2887268E1,5.713707E1,8.829529E0,4.3122353E1,2.8601265E1,8.792175E0,4.9629547E1,8.299606E0,1.11549835E1,0E0,3.025299E0,0E0,0E0,0E0,0E0,0E0,0E0,0E0,0E0,0E0,0E0,0E0,0E0,0E0,0E0],"parents":[2147483647,0,0,1,1,2,2,3,3,4,4,5,5,6,6,7,7,8,8,9,9,10,10,11,11,12,12,14,14],"right_children":[2,4,6,8,10,12,14,16,18,20,22,24,26,-1,28,-1,-1,-1,-1,-1,-1,-1,-1,-1,-1,-1,-1,-1,-1],"split_conditions":[2E0,3.14E0,5E0,1E0,1E0,2E0,1.14E0,2.05E0,2E0,3.48E0,2.01E0,1.56E0,3.45E0,6.303045E-2,1E0,2.4870798E-2,-1.572383E-2,2.5498504E-2,-1.8177063E-3,-4.1484576E-2,-5.837373E-2,5.136106E-2,-2.9382998E-2,5.7690144E-2,3.7657727E-2,1.4723471E-2,5.2688587E-2,5.3404637E-2,4.011817E-2],"split_indices":[3,7,3,3,2,7,7,10,2,7,0,7,7,0,4,0,0,0,0,0,0,0,0,0,0,0,0,0,0],"split_type":[0,0,0,0,0,0,0,0,0,0,0,0,0,0,0,0,0,0,0,0,0,0,0,0,0,0,0,0,0],"sum_hessian":[4.156903E3,2.8513347E3,1.3055682E3,1.5049022E3,1.3464325E3,5.939258E2,7.1164246E2,1.1018923E3,4.030098E2,3.665184E2,9.7991406E2,2.3032494E2,3.6360083E2,3.2992056E2,3.817219E2,6.895775E1,1.0329347E3,1.5506775E2,2.4794205E2,1.3797578E2,2.2854262E2,1.8538132E1,9.613759E2,1.25623924E2,1.04701004E2,3.4388022E2,1.9720621E1,3.1214798E2,6.957392E1],"tree_param":{"num_deleted":"0","num_feature":"33","num_nodes":"29","size_leaf_vector":"1"}},{"base_weights":[3.0452518E-3,-3.778093E-1,8.3347815E-1,-2.799274E-2,-5.325192E-1,1.1753306E0,6.7688644E-1,3.706894E-1,-1.543671E-1,-6.1295885E-1,3.1739835E-2,6.1529245E-2,1.0203726E0,3.1467998E-1,8.117053E-1,3.8331263E-2,4.5828684E-3,9.958855E-3,-1.5123755E-2,-4.901582E-2,-2.5079219E-2,7.549733E-3,-3.6234956E-2,5.4402858E-2,1.5948044E-2,3.0596161E-2,1.4323231E-3,6.1191082E-2,3.6698073E-2],"categories":[],"categories_nodes":[],"categories_segments":[],"categories_sizes":[],"default_left":[0,0,0,0,0,0,0,0,0,0,0,0,0,0,0,0,0,0,0,0,0,0,0,0,0,0,0,0,0],"id":18,"left_children":[1,3,5,7,9,11,13,15,17,19,21,-1,23,25,27,-1,-1,-1,-1,-1,-1,-1,-1,-1,-1,-1,-1,-1,-1],"loss_changes":[1.3066825E3,1.5327835E2,6.874298E1,4.3871143E1,8.915631E1,2.2269287E0,4.336551E1,2.3085957E1,3.4672775E1,6.9834595E1,2.2299236E1,0E0,5.0065155E0,2.0722359E1,1.9938446E1,0E0,0E0,0E0,0E0,0E0,0E0,0E0,0E0,0E0,0E0,0E0,0E0,0E0,0E0],"parents":[2147483647,0,0,1,1,2,2,3,3,4,4,5,5,6,6,7,7,8,8,9,9,10,10,12,12,13,13,14,14],"right_children":[2,4,6,8,10,12,14,16,18,20,22,-1,24,26,28,-1,-1,-1,-1,-1,-1,-1,-1,-1,-1,-1,-1,-1,-1],"split_conditions":[1E0,2.77E0,1.4E0,-3.9E-1,1E0,1.08E0,1E0,2E0,2.28E0,1E0,1E0,6.1529245E-2,1E0,2.19E0,-1.34E0,3.8331263E-2,4.5828684E-3,9.958855E-3,-1.5123755E-2,-4.901582E-2,-2.5079219E-2,7.549733E-3,-3.6234956E-2,5.4402858E-2,1.5948044E-2,3.0596161E-2,1.4323231E-3,6.1191082E-2,3.6698073E-2],"split_indices":[17,0,10,14,16,10,18,2,0,2,4,0,4,10,14,0,0,0,0,0,0,0,0,0,0,0,0,0,0],"split_type":[0,0,0,0,0,0,0,0,0,0,0,0,0,0,0,0,0,0,0,0,0,0,0,0,0,0,0,0,0],"sum_hessian":[4.1294917E3,2.831465E3,1.2980264E3,8.686136E2,1.9628516E3,4.057452E2,8.922811E2,2.0859885E2,6.600148E2,1.7178694E3,2.4498224E2,2.939785E2,1.1176673E2,2.4293692E2,6.493442E2,8.551247E1,1.2308638E2,1.9476122E2,4.6525354E2,3.978382E2,1.3200311E3,2.1231116E2,3.267109E1,1.0142793E2,1.03388E1,1.18575294E2,1.24361626E2,1.00715294E2,5.486289E2],"tree_param":{"num_deleted":"0","num_feature":"33","num_nodes":"29","size_leaf_vector":"1"}},{"base_weights":[-6.5766834E-3,-3.900412E-1,8.2527125E-1,1.9523505E-2,-5.2853036E-1,1.1913693E0,5.954952E-1,3.6387372E-1,-1.205778E-1,-9.1380954E-1,-4.2733935E-1,6.1526805E-2,1.0477036E0,3.8285425E-1,9.051316E-1,8.271026E-3,2.9633814E-2,4.8885394E-2,-9.064666E-3,-4.7741916E-2,1.2513508E-2,-1.8418094E-2,-4.9141046E-2,5.530271E-2,2.9320313E-2,3.524592E-2,1.2100766E-2,4.630704E-2,3.7967972E-3],"categories":[],"categories_nodes":[],"categories_segments":[],"categories_sizes":[],"default_left":[0,0,0,0,0,0,0,0,0,0,0,0,0,0,0,0,0,0,0,0,0,0,0,0,0,0,0,0,0],"id":19,"left_children":[1,3,5,7,9,11,13,15,17,19,21,-1,23,25,27,-1,-1,-1,-1,-1,-1,-1,-1,-1,-1,-1,-1,-1,-1],"loss_changes":[1.2968198E3,1.5784515E2,1.07197876E2,3.401383E1,8.0684875E1,1.4885254E0,5.1675934E1,9.159456E0,3.3602055E1,2.0856873E1,5.3656372E1,0E0,2.3790817E0,2.115551E1,5.5209656E0,0E0,0E0,0E0,0E0,0E0,0E0,0E0,0E0,0E0,0E0,0E0,0E0,0E0,0E0],"parents":[2147483647,0,0,1,1,2,2,3,3,4,4,5,5,6,6,7,7,8,8,9,9,10,10,12,12,13,13,14,14],"right_children":[2,4,6,8,10,12,14,16,18,20,22,-1,24,26,28,-1,-1,-1,-1,-1,-1,-1,-1,-1,-1,-1,-1,-1,-1],"split_conditions":[2E0,2.54E0,1.56E0,2E0,1E0,1.14E0,5E0,1E0,1.79E0,1E0,5E0,6.1526805E-2,1E0,1.92E0,7.75E-1,8.271026E-3,2.9633814E-2,4.8885394E-2,-9.064666E-3,-4.7741916E-2,1.2513508E-2,-1.8418094E-2,-4.9141046E-2,5.530271E-2,2.9320313E-2,3.524592E-2,1.2100766E-2,4.630704E-2,3.7967972E-3],"split_indices":[3,10,7,2,2,7,3,3,7,3,2,0,19,10,15,0,0,0,0,0,0,0,0,0,0,0,0,0,0],"split_type":[0,0,0,0,0,0,0,0,0,0,0,0,0,0,0,0,0,0,0,0,0,0,0,0,0,0,0,0,0],"sum_hessian":[4.0634585E3,2.781689E3,1.2817695E3,7.0312933E2,2.0785598E3,4.9265158E2,7.891179E2,2.0288008E2,5.0024924E2,4.306923E2,1.6478674E3,3.8116968E2,1.11481895E2,4.6916086E2,3.1995706E2,1.0956835E2,9.331173E1,2.5414904E1,4.7483432E2,4.162027E2,1.4489577E1,1.4912041E3,1.5666333E2,9.7722984E1,1.3758908E1,1.4152429E2,3.2763657E2,3.1193665E2,8.020403E0],"tree_param":{"num_deleted":"0","num_feature":"33","num_nodes":"29","size_leaf_vector":"1"}},{"base_weights":[-1.0997112E-2,-3.5002396E-1,7.690371E-1,-1.7544562E-1,-6.4696157E-1,1.1666301E0,5.175972E-1,-2.1335974E-1,9.288346E-1,-6.698582E-1,8.9910823E-1,6.0164876E-2,1.0517024E0,3.216858E-1,9.089228E-1,1.46170575E-2,-1.3528697E-2,5.4314267E-2,-1.1576056E-2,-3.526582E-2,1.1740586E-3,-2.5637175E-3,7.099659E-2,5.4279424E-2,3.1576186E-2,1.3976936E-2,5.293662E-2,4.8493903E-2,3.2754675E-2],"categories":[],"categories_nodes":[],"categories_segments":[],"categories_sizes":[],"default_left":[0,0,0,0,0,0,0,0,0,0,0,0,0,0,0,0,0,0,0,0,0,0,0,0,0,0,0,0,0],"id":20,"left_children":[1,3,5,7,9,11,13,15,17,19,21,-1,23,25,27,-1,-1,-1,-1,-1,-1,-1,-1,-1,-1,-1,-1,-1,-1],"loss_changes":[1.0562675E3,1.4421036E2,1.20367065E2,7.366165E1,3.7079346E1,7.06604E-1,5.667546E1,4.9185257E1,1.0926758E1,2.4993683E1,7.7274523E0,0E0,1.039154E0,1.5134338E1,3.191742E0,0E0,0E0,0E0,0E0,0E0,0E0,0E0,0E0,0E0,0E0,0E0,0E0,0E0,0E0],"parents":[2147483647,0,0,1,1,2,2,3,3,4,4,5,5,6,6,7,7,8,8,9,9,10,10,12,12,13,13,14,14],"right_children":[2,4,6,8,10,12,14,16,18,20,22,-1,24,26,28,-1,-1,-1,-1,-1,-1,-1,-1,-1,-1,-1,-1,-1,-1],"split_conditions":[2E0,3.245E0,1.56E0,3E0,2E0,1.14E0,6E0,2.05E0,9E0,1E0,3.53E0,6.0164876E-2,-2.4E-1,3.45E0,1E0,1.46170575E-2,-1.3528697E-2,5.4314267E-2,-1.1576056E-2,-3.526582E-2,1.1740586E-3,-2.5637175E-3,7.099659E-2,5.4279424E-2,3.1576186E-2,1.3976936E-2,5.293662E-2,4.8493903E-2,3.2754675E-2],"split_indices":[3,9,7,4,4,7,3,10,4,3,9,0,15,7,4,0,0,0,0,0,0,0,0,0,0,0,0,0,0],"split_type":[0,0,0,0,0,0,0,0,0,0,0,0,0,0,0,0,0,0,0,0,0,0,0,0,0,0,0,0,0],"sum_hessian":[3.9921482E3,2.7830852E3,1.2090631E3,1.7536522E3,1.0294329E3,4.669895E2,7.420736E2,1.6962213E3,5.7430927E1,1.0149684E3,1.4464508E1,3.46856E2,1.2013351E2,4.957205E2,2.463531E2,1.7198474E2,1.5242366E3,5.0625324E1,6.8056054E0,9.6557074E2,4.9397655E1,5.4397583E0,9.02475E0,1.0970269E2,1.0430813E1,4.7021133E2,2.5509155E1,1.9637431E2,4.997879E1],"tree_param":{"num_deleted":"0","num_feature":"33","num_nodes":"29","size_leaf_vector":"1"}},{"base_weights":[1.122715E-2,-3.3855653E-1,7.8756976E-1,-1.7802452E-1,-6.4918584E-1,4.8467806E-1,1.0476865E0,1.9528483E-1,-2.8507853E-1,-6.7071694E-1,1.0227118E0,8.388868E-1,2.6274538E-1,5.910815E-2,8.94642E-1,3.0189956E-2,4.0851152E-4,-1.6337574E-2,5.0314244E-2,4.056857E-2,-3.4608062E-2,2.7409477E-2,6.365222E-2,5.5654563E-2,3.26246E-2,-7.614416E-2,1.4769563E-2,4.713948E-2,2.4042899E-2],"categories":[],"categories_nodes":[],"categories_segments":[],"categories_sizes":[],"default_left":[0,0,0,0,0,0,0,0,0,0,0,0,0,0,0,0,0,0,0,0,0,0,0,0,0,0,0,0,0],"id":21,"left_children":[1,3,5,7,9,11,13,15,17,19,21,23,25,-1,27,-1,-1,-1,-1,-1,-1,-1,-1,-1,-1,-1,-1,-1,-1],"loss_changes":[1.0884165E3,1.3767389E2,9.757855E1,7.291497E1,3.456311E1,4.5141327E1,1.27092285E1,3.109755E1,7.6596306E1,3.0110474E1,7.7053833E-1,1.0611252E1,2.1215118E1,0E0,5.861511E0,0E0,0E0,0E0,0E0,0E0,0E0,0E0,0E0,0E0,0E0,0E0,0E0,0E0,0E0],"parents":[2147483647,0,0,1,1,2,2,3,3,4,4,5,5,6,6,7,7,8,8,9,9,10,10,11,11,12,12,14,14],"right_children":[2,4,6,8,10,12,14,16,18,20,22,24,26,-1,28,-1,-1,-1,-1,-1,-1,-1,-1,-1,-1,-1,-1,-1,-1],"split_conditions":[2E0,3.28E0,5E0,2.51E0,3E0,2.05E0,1.56E0,2E0,3E0,2.03E0,3.565E0,1.4E0,1.85E0,5.910815E-2,5E0,3.0189956E-2,4.0851152E-4,-1.6337574E-2,5.0314244E-2,4.056857E-2,-3.4608062E-2,2.7409477E-2,6.365222E-2,5.5654563E-2,3.26246E-2,-7.614416E-2,1.4769563E-2,4.713948E-2,2.4042899E-2],"split_indices":[3,9,3,0,4,7,7,2,4,0,9,10,0,0,2,0,0,0,0,0,0,0,0,0,0,0,0,0,0],"split_type":[0,0,0,0,0,0,0,0,0,0,0,0,0,0,0,0,0,0,0,0,0,0,0,0,0,0,0,0,0],"sum_hessian":[4.0061516E3,2.7621982E3,1.2439534E3,1.8221113E3,9.400869E2,5.7604443E2,6.67909E2,4.058929E2,1.4162184E3,9.2872534E2,1.1361552E1,2.2082445E2,3.5521997E2,3.5194186E2,3.159671E2,1.2681017E2,2.7908273E2,1.3726687E3,4.3549747E1,1.272068E1,9.1600464E2,5.0254054E0,6.3361473E0,8.7351074E1,1.3347337E2,5.5581427E0,3.4966183E2,2.818883E2,3.4078804E1],"tree_param":{"num_deleted":"0","num_feature":"33","num_nodes":"29","size_leaf_vector":"1"}},{"base_weights":[1.9353183E-2,-3.9661634E-1,5.760261E-1,-2.309649E-1,-6.3177824E-1,3.1780937E-1,1.0157561E0,-3.244237E-1,1.5899612E-1,-6.5561384E-1,7.183226E-1,8.87541E-1,2.098564E-1,5.8240145E-2,8.597567E-1,2.3568405E-2,-1.9003714E-2,3.6718715E-2,-3.0834472E-2,-4.5395106E-2,-2.725762E-2,7.349037E-2,-1.006231E-2,5.6616962E-2,3.658282E-2,1.2981871E-2,-1.5664026E-2,4.568402E-2,2.0225659E-2],"categories":[],"categories_nodes":[],"categories_segments":[],"categories_sizes":[],"default_left":[0,0,0,0,0,0,0,0,0,0,0,0,0,0,0,0,0,0,0,0,0,0,0,0,0,0,0,0,0],"id":22,"left_children":[1,3,5,7,9,11,13,15,17,19,21,23,25,-1,27,-1,-1,-1,-1,-1,-1,-1,-1,-1,-1,-1,-1,-1,-1],"loss_changes":[9.116055E2,8.762683E1,1.908476E2,4.828869E1,3.0419403E1,6.514399E1,1.3470886E1,4.747679E1,1.1495464E2,2.5004852E1,1.1782499E1,5.6166534E0,2.3371231E1,0E0,7.1899414E0,0E0,0E0,0E0,0E0,0E0,0E0,0E0,0E0,0E0,0E0,0E0,0E0,0E0,0E0],"parents":[2147483647,0,0,1,1,2,2,3,3,4,4,5,5,6,6,7,7,8,8,9,9,10,10,11,11,12,12,14,14],"right_children":[2,4,6,8,10,12,14,16,18,20,22,24,26,-1,28,-1,-1,-1,-1,-1,-1,-1,-1,-1,-1,-1,-1,-1,-1],"split_conditions":[1E0,3.43E0,5E0,4E0,1.43E0,1.79E0,1.45E0,2.05E0,5E0,1E0,3.68E0,1.25E0,5E0,5.8240145E-2,5E0,2.3568405E-2,-1.9003714E-2,3.6718715E-2,-3.0834472E-2,-4.5395106E-2,-2.725762E-2,7.349037E-2,-1.006231E-2,5.6616962E-2,3.658282E-2,1.2981871E-2,-1.5664026E-2,4.568402E-2,2.0225659E-2],"split_indices":[3,11,3,2,15,7,7,10,2,2,11,7,2,0,2,0,0,0,0,0,0,0,0,0,0,0,0,0,0],"split_type":[0,0,0,0,0,0,0,0,0,0,0,0,0,0,0,0,0,0,0,0,0,0,0,0,0,0,0,0,0],"sum_hessian":[3.9348315E3,2.2521885E3,1.682643E3,1.3225485E3,9.296401E2,1.0612073E3,6.214356E2,1.0669978E3,2.5555064E2,9.1401776E2,1.5622301E1,1.6789653E2,8.933107E2,3.1449265E2,3.06943E2,6.92511E1,9.9774677E2,1.4674974E2,1.088009E2,2.7613065E2,6.3788715E2,8.267565E0,7.3547373E0,6.2882732E1,1.050138E2,8.1615063E2,7.716011E1,2.735356E2,3.340736E1],"tree_param":{"num_deleted":"0","num_feature":"33","num_nodes":"29","size_leaf_vector":"1"}},{"base_weights":[2.5374966E-2,-3.735155E-1,5.706068E-1,-2.4965605E-1,-6.292368E-1,3.091754E-1,1.0056362E0,-3.204727E-1,7.266896E-2,-6.6344285E-1,9.6751815E-1,9.024579E-1,2.1315524E-1,5.914336E-2,9.201502E-1,1.955337E-2,-1.8109925E-2,3.1680193E-2,-3.1049764E-2,-3.5261016E-2,2.2867285E-2,1.4654862E-2,6.476449E-2,5.0606664E-2,2.5729114E-2,3.1101987E-2,7.888419E-3,5.6614358E-2,4.189937E-2],"categories":[],"categories_nodes":[],"categories_segments":[],"categories_sizes":[],"default_left":[0,0,0,0,0,0,0,0,0,0,0,0,0,0,0,0,0,0,0,0,0,0,0,0,0,0,0,0,0],"id":23,"left_children":[1,3,5,7,9,11,13,15,17,19,21,23,25,-1,27,-1,-1,-1,-1,-1,-1,-1,-1,-1,-1,-1,-1,-1,-1],"loss_changes":[8.568557E2,7.190872E1,1.8899744E2,3.504963E1,4.1156677E1,5.9119568E1,8.371338E0,3.749916E1,1.0826138E2,3.4354553E1,3.149291E0,5.6358414E0,2.0225948E1,0E0,6.4711914E0,0E0,0E0,0E0,0E0,0E0,0E0,0E0,0E0,0E0,0E0,0E0,0E0,0E0,0E0],"parents":[2147483647,0,0,1,1,2,2,3,3,4,4,5,5,6,6,7,7,8,8,9,9,10,10,11,11,12,12,14,14],"right_children":[2,4,6,8,10,12,14,16,18,20,22,24,26,-1,28,-1,-1,-1,-1,-1,-1,-1,-1,-1,-1,-1,-1,-1,-1],"split_conditions":[1E0,3.39E0,5E0,4E0,2E0,1.58E0,1.605E0,2.05E0,5E0,9.4E-1,3.58E0,2.6E-1,-8.8E-1,5.914336E-2,-1.12E0,1.955337E-2,-1.8109925E-2,3.1680193E-2,-3.1049764E-2,-3.5261016E-2,2.2867285E-2,1.4654862E-2,6.476449E-2,5.0606664E-2,2.5729114E-2,3.1101987E-2,7.888419E-3,5.6614358E-2,4.189937E-2],"split_indices":[3,5,3,2,4,10,9,10,2,12,11,14,14,0,14,0,0,0,0,0,0,0,0,0,0,0,0,0,0],"split_type":[0,0,0,0,0,0,0,0,0,0,0,0,0,0,0,0,0,0,0,0,0,0,0,0,0,0,0,0,0],"sum_hessian":[3.9378076E3,2.2742708E3,1.6635367E3,1.5334944E3,7.407765E2,1.0401614E3,6.233754E2,1.2572705E3,2.7622382E2,7.258125E2,1.4963991E1,1.4372502E2,8.9643634E2,1.9866432E2,4.247111E2,6.918044E1,1.1880901E3,1.5277121E2,1.2345259E2,7.000875E2,2.5725025E1,5.5135517E0,9.450439E0,1.10788994E2,3.293602E1,1.0572295E2,7.907134E2,1.1500296E2,3.0970813E2],"tree_param":{"num_deleted":"0","num_feature":"33","num_nodes":"29","size_leaf_vector":"1"}},{"base_weights":[8.241509E-3,-2.3463178E-1,8.0985194E-1,1.2397307E-1,-3.8502833E-1,1.0576342E0,5.049723E-1,3.5219938E-1,-5.5443536E-2,-8.454756E-2,-4.596931E-1,5.802309E-2,8.5140777E-1,2.8996363E-1,6.671032E-1,4.615938E-2,1.3721161E-2,4.980595E-3,-1.5890317E-2,-4.516723E-2,-5.0046825E-4,-2.385529E-2,3.3421606E-2,4.744206E-2,2.1802558E-2,1.0286655E-2,4.7385167E-2,3.7694696E-2,-1.2935424E-2],"categories":[],"categories_nodes":[],"categories_segments":[],"categories_sizes":[],"default_left":[0,0,0,0,0,0,0,0,0,0,0,0,0,0,0,0,0,0,0,0,0,0,0,0,0,0,0,0,0],"id":24,"left_children":[1,3,5,7,9,11,13,15,17,19,21,-1,23,25,27,-1,-1,-1,-1,-1,-1,-1,-1,-1,-1,-1,-1,-1,-1],"loss_changes":[7.486525E2,1.5921614E2,6.701398E1,3.575723E1,4.6614532E1,9.452698E0,1.3848114E1,1.6811733E1,1.9944834E1,2.5325073E1,3.3032806E1,0E0,6.367737E0,9.4965925E0,1.858525E1,0E0,0E0,0E0,0E0,0E0,0E0,0E0,0E0,0E0,0E0,0E0,0E0,0E0,0E0],"parents":[2147483647,0,0,1,1,2,2,3,3,4,4,5,5,6,6,7,7,8,8,9,9,10,10,12,12,13,13,14,14],"right_children":[2,4,6,8,10,12,14,16,18,20,22,-1,24,26,28,-1,-1,-1,-1,-1,-1,-1,-1,-1,-1,-1,-1,-1,-1],"split_conditions":[1E0,2.52E0,1.92E0,2.15E0,2.69E0,1.25E0,2.29E0,1.5E0,1.3E-1,2.6E0,3E0,5.802309E-2,1E0,1E0,5E0,4.615938E-2,1.3721161E-2,4.980595E-3,-1.5890317E-2,-4.516723E-2,-5.0046825E-4,-2.385529E-2,3.3421606E-2,4.744206E-2,2.1802558E-2,1.0286655E-2,4.7385167E-2,3.7694696E-2,-1.2935424E-2],"split_indices":[18,10,7,10,0,7,10,10,14,10,4,0,4,22,2,0,0,0,0,0,0,0,0,0,0,0,0,0,0],"split_type":[0,0,0,0,0,0,0,0,0,0,0,0,0,0,0,0,0,0,0,0,0,0,0,0,0,0,0,0,0],"sum_hessian":[3.8433857E3,2.950228E3,8.931578E2,8.717669E2,2.0784612E3,4.913544E2,4.0180338E2,3.8326846E2,4.8849844E2,4.1409796E2,1.6643632E3,3.2478467E2,1.6656972E2,1.7393251E2,2.2787086E2,4.4644478E1,3.38624E2,3.0742923E2,1.810692E2,3.362378E1,3.8047418E2,1.6396323E3,2.4730751E1,1.3388005E2,3.2689674E1,1.5535097E2,1.8581545E1,2.0850969E2,1.9361168E1],"tree_param":{"num_deleted":"0","num_feature":"33","num_nodes":"29","size_leaf_vector":"1"}},{"base_weights":[1.2030966E-3,-2.4049464E-1,8.140298E-1,-3.7234056E-1,1.6677465E-1,4.8697323E-1,9.786573E-1,-4.0057847E-1,8.4230083E-1,5.9358454E-1,1.0697593E-1,9.717931E-1,2.2242826E-1,9.915401E-1,-8.815315E-3,-3.8152143E-2,-1.6133836E-2,4.99313E-2,-1.7939007E-2,3.3711124E-2,-2.1008862E-2,7.4464455E-3,-1.6920552E-2,-9.316173E-3,5.2821845E-2,1.3728696E-2,-3.8442954E-2,5.7300936E-2,4.522115E-2],"categories":[],"categories_nodes":[],"categories_segments":[],"categories_sizes":[],"default_left":[0,0,0,0,0,0,0,0,0,0,0,0,0,0,0,0,0,0,0,0,0,0,0,0,0,0,0,0,0],"id":25,"left_children":[1,3,5,7,9,11,13,15,17,19,21,23,25,27,-1,-1,-1,-1,-1,-1,-1,-1,-1,-1,-1,-1,-1,-1,-1],"loss_changes":[7.5095013E2,1.5827097E2,4.669513E1,7.668997E1,1.8344643E1,3.766205E1,8.831116E0,6.1202087E1,9.914955E0,7.510868E0,1.189377E1,1.0388016E1,1.01549E1,6.708557E0,0E0,0E0,0E0,0E0,0E0,0E0,0E0,0E0,0E0,0E0,0E0,0E0,0E0,0E0,0E0],"parents":[2147483647,0,0,1,1,2,2,3,3,4,4,5,5,6,6,7,7,8,8,9,9,10,10,11,11,12,12,13,13],"right_children":[2,4,6,8,10,12,14,16,18,20,22,24,26,28,-1,-1,-1,-1,-1,-1,-1,-1,-1,-1,-1,-1,-1,-1,-1],"split_conditions":[3E0,1E0,5E0,3E0,2.085E0,-6.8E-1,7.75E-1,1E0,1E1,-1.15E-1,5E0,3E0,8.3E-1,1.72E0,-8.815315E-3,-3.8152143E-2,-1.6133836E-2,4.99313E-2,-1.7939007E-2,3.3711124E-2,-2.1008862E-2,7.4464455E-3,-1.6920552E-2,-9.316173E-3,5.2821845E-2,1.3728696E-2,-3.8442954E-2,5.7300936E-2,4.522115E-2],"split_indices":[3,3,3,4,9,15,15,2,4,15,2,31,14,9,0,0,0,0,0,0,0,0,0,0,0,0,0,0,0],"split_type":[0,0,0,0,0,0,0,0,0,0,0,0,0,0,0,0,0,0,0,0,0,0,0,0,0,0,0,0,0],"sum_hessian":[3.8204424E3,2.9453372E3,8.7510535E2,2.2250908E3,7.2024634E2,2.9433124E2,5.807741E2,2.1751921E3,4.9898537E1,8.7413216E1,6.328331E2,1.02962654E2,1.9136858E2,5.745074E2,6.2667084E0,3.8324054E2,1.7919517E3,4.430114E1,5.597396E0,8.128265E1,6.1305594E0,5.7896356E2,5.3869553E1,6.930914E0,9.6031746E1,1.8249179E2,8.876784E0,2.0277876E2,3.7172864E2],"tree_param":{"num_deleted":"0","num_feature":"33","num_nodes":"29","size_leaf_vector":"1"}},{"base_weights":[5.5263694E-3,-2.2504273E-1,7.954928E-1,1.301697E-1,-3.5198128E-1,1.0473338E0,4.946587E-1,2.464418E-2,5.8028686E-1,-3.0947736E-1,-8.684185E-1,5.6788195E-2,8.873902E-1,2.6212215E-1,8.0434924E-1,1.715212E-2,-7.8042233E-3,3.874345E-2,-9.237047E-3,-3.3215556E-2,-1.1128825E-2,-6.6639535E-2,-3.0896509E-2,4.8146557E-2,2.728778E-2,1.7083958E-2,-2.6486948E-2,3.1486955E-2,4.8654106E-2],"categories":[],"categories_nodes":[],"categories_segments":[],"categories_sizes":[],"default_left":[0,0,0,0,0,0,0,0,0,0,0,0,0,0,0,0,0,0,0,0,0,0,0,0,0,0,0,0,0],"id":26,"left_children":[1,3,5,7,9,11,13,15,17,19,21,-1,23,25,27,-1,-1,-1,-1,-1,-1,-1,-1,-1,-1,-1,-1,-1,-1],"loss_changes":[6.836076E2,1.3104305E2,6.372455E1,3.63511E1,4.6719208E1,5.50766E0,2.7751259E1,3.5802517E1,2.1781036E1,6.0887558E1,1.8046646E1,0E0,3.825241E0,1.4245366E1,4.2789917E0,0E0,0E0,0E0,0E0,0E0,0E0,0E0,0E0,0E0,0E0,0E0,0E0,0E0,0E0],"parents":[2147483647,0,0,1,1,2,2,3,3,4,4,5,5,6,6,7,7,8,8,9,9,10,10,12,12,13,13,14,14],"right_children":[2,4,6,8,10,12,14,16,18,20,22,-1,24,26,28,-1,-1,-1,-1,-1,-1,-1,-1,-1,-1,-1,-1,-1,-1],"split_conditions":[3E0,2.65E0,1.92E0,4E0,5E0,1.25E0,6E0,2E0,1.8E-1,1E0,3.07E0,5.6788195E-2,1E0,5E0,2.34E0,1.715212E-2,-7.8042233E-3,3.874345E-2,-9.237047E-3,-3.3215556E-2,-1.1128825E-2,-6.6639535E-2,-3.0896509E-2,4.8146557E-2,2.728778E-2,1.7083958E-2,-2.6486948E-2,3.1486955E-2,4.8654106E-2],"split_indices":[3,7,7,2,2,7,3,2,15,2,7,0,4,2,10,0,0,0,0,0,0,0,0,0,0,0,0,0,0],"split_type":[0,0,0,0,0,0,0,0,0,0,0,0,0,0,0,0,0,0,0,0,0,0,0,0,0,0,0,0,0],"sum_hessian":[3.751178E3,2.9042297E3,8.4694824E2,7.646059E2,2.1396238E3,4.5966324E2,3.87285E2,6.202493E2,1.4435658E2,1.9783967E3,1.6122711E2,2.9207755E2,1.675857E2,2.2225064E2,1.6503436E2,2.2426064E2,3.9598868E2,1.1507484E2,2.9281742E1,3.8789578E2,1.590501E3,5.4980244E1,1.06246864E2,1.3575049E2,3.1835197E1,2.0247665E2,1.977399E1,8.343023E1,8.160413E1],"tree_param":{"num_deleted":"0","num_feature":"33","num_nodes":"29","size_leaf_vector":"1"}},{"base_weights":[1.2569583E-2,-3.2908174E-1,4.9820477E-1,-3.5715753E-1,8.846077E-1,2.0560852E-1,8.8627857E-1,-6.534844E-2,-4.699994E-1,1.0106301E0,-9.418173E-3,8.85073E-1,1.505016E-1,1.0458642E0,6.604562E-1,1.112839E-2,-1.0960586E-2,2.5428357E-3,-2.567237E-2,2.5835842E-2,5.799953E-2,5.2977066E-2,3.5274904E-2,9.871553E-3,-1.7014315E-2,5.325221E-2,1.829038E-2,1.8925926E-2,4.2154055E-2],"categories":[],"categories_nodes":[],"categories_segments":[],"categories_sizes":[],"default_left":[0,0,0,0,0,0,0,0,0,0,0,0,0,0,0,0,0,0,0,0,0,0,0,0,0,0,0,0,0],"id":27,"left_children":[1,3,5,7,9,11,13,15,17,19,-1,21,23,25,27,-1,-1,-1,-1,-1,-1,-1,-1,-1,-1,-1,-1,-1,-1],"loss_changes":[6.2211957E2,7.531897E1,1.7564572E2,7.08324E1,6.9585266E0,3.2971943E1,2.328656E1,2.6685564E1,3.514267E1,2.7165985E0,0E0,1.3241348E0,1.8931196E1,4.6729126E0,1.4005486E1,0E0,0E0,0E0,0E0,0E0,0E0,0E0,0E0,0E0,0E0,0E0,0E0,0E0,0E0],"parents":[2147483647,0,0,1,1,2,2,3,3,4,4,5,5,6,6,7,7,8,8,9,9,11,11,12,12,13,13,14,14],"right_children":[2,4,6,8,10,12,14,16,18,20,-1,22,24,26,28,-1,-1,-1,-1,-1,-1,-1,-1,-1,-1,-1,-1,-1,-1],"split_conditions":[1E0,3E0,4E0,2.77E0,1E1,1.56E0,1.92E0,2E0,-6.5E-1,5E0,-9.418173E-3,1.25E0,5E0,4E0,6E0,1.112839E-2,-1.0960586E-2,2.5428357E-3,-2.567237E-2,2.5835842E-2,5.799953E-2,5.2977066E-2,3.5274904E-2,9.871553E-3,-1.7014315E-2,5.325221E-2,1.829038E-2,1.8925926E-2,4.2154055E-2],"split_indices":[3,4,3,0,4,7,7,2,15,4,0,7,2,4,3,0,0,0,0,0,0,0,0,0,0,0,0,0,0],"split_type":[0,0,0,0,0,0,0,0,0,0,0,0,0,0,0,0,0,0,0,0,0,0,0,0,0,0,0,0,0],"sum_hessian":[3.7475742E3,2.200097E3,1.5474774E3,2.1510435E3,4.905351E1,8.831432E2,6.643342E2,6.0028516E2,1.5507583E3,4.3949642E1,5.1038656E0,6.512279E1,8.180204E2,3.8712607E2,2.7720816E2,2.0891223E2,3.913729E2,1.1938584E2,1.4313724E3,1.1240029E1,3.2709614E1,3.0545568E1,3.4577217E1,7.471729E2,7.084744E1,3.7595667E2,1.116938E1,1.10181625E2,1.6702652E2],"tree_param":{"num_deleted":"0","num_feature":"33","num_nodes":"29","size_leaf_vector":"1"}},{"base_weights":[-1.2718911E-2,-3.376455E-1,4.6032453E-1,-7.753398E-1,-2.4757871E-1,2.2616686E-1,9.068778E-1,5.0330824E-1,-8.4509593E-1,-2.7013993E-1,6.766083E-1,9.164465E-1,1.5855077E-1,5.511091E-2,7.349168E-1,5.8042128E-2,-1.321424E-2,-4.4446804E-2,2.7556632E-2,-1.1472825E-2,-4.274727E-2,-2.3434792E-2,4.232132E-2,4.7907766E-2,1.0853306E-2,4.721371E-3,2.3661705E-2,3.939694E-2,8.706491E-3],"categories":[],"categories_nodes":[],"categories_segments":[],"categories_sizes":[],"default_left":[0,0,0,0,0,0,0,0,0,0,0,0,0,0,0,0,0,0,0,0,0,0,0,0,0,0,0,0,0],"id":28,"left_children":[1,3,5,7,9,11,13,15,17,19,21,23,25,-1,27,-1,-1,-1,-1,-1,-1,-1,-1,-1,-1,-1,-1,-1,-1],"loss_changes":[5.612384E2,8.513898E1,1.5526422E2,3.333174E1,3.7644043E1,4.5441757E1,1.6359161E1,1.0256052E1,2.1927109E1,4.1547546E1,8.779295E0,2.3277512E0,1.7930025E1,0E0,8.034592E0,0E0,0E0,0E0,0E0,0E0,0E0,0E0,0E0,0E0,0E0,0E0,0E0,0E0,0E0],"parents":[2147483647,0,0,1,1,2,2,3,3,4,4,5,5,6,6,7,7,8,8,9,9,10,10,11,11,12,12,14,14],"right_children":[2,4,6,8,10,12,14,16,18,20,22,24,26,-1,28,-1,-1,-1,-1,-1,-1,-1,-1,-1,-1,-1,-1,-1,-1],"split_conditions":[1E0,1E0,5E0,-6E-1,3E0,1.4E0,1.36E0,3.04E0,1E0,1E0,1.1E-1,2.57E0,3.29E0,5.511091E-2,2E0,5.8042128E-2,-1.321424E-2,-4.4446804E-2,2.7556632E-2,-1.1472825E-2,-4.274727E-2,-2.3434792E-2,4.232132E-2,4.7907766E-2,1.0853306E-2,4.721371E-3,2.3661705E-2,3.939694E-2,8.706491E-3],"split_indices":[3,2,3,15,4,10,7,11,4,4,12,7,5,0,4,0,0,0,0,0,0,0,0,0,0,0,0,0,0],"split_type":[0,0,0,0,0,0,0,0,0,0,0,0,0,0,0,0,0,0,0,0,0,0,0,0,0,0,0,0,0],"sum_hessian":[3.649403E3,2.163567E3,1.485836E3,3.6793213E2,1.7956348E3,9.757118E2,5.101243E2,1.8712484E1,3.4921964E2,1.7535352E3,4.2099545E1,8.5928696E1,8.897831E2,2.3629431E2,2.7383E2,9.80286E0,8.909625E0,3.389406E2,1.0279046E1,1.6407825E3,1.1275275E2,5.208936E0,3.689061E1,8.0743416E1,5.185283E0,7.4024304E2,1.4954004E2,2.4980594E2,2.4024044E1],"tree_param":{"num_deleted":"0","num_feature":"33","num_nodes":"29","size_leaf_vector":"1"}},{"base_weights":[2.4245754E-3,-2.4302764E-1,6.2626725E-1,2.1709772E-2,-3.6228782E-1,1.027983E0,4.0941265E-1,3.2218993E-1,-1.466854E-1,-1.9745407E-1,-5.747169E-1,5.5547442E-2,8.211368E-1,1.9463962E-1,5.1434994E-1,5.5759132E-2,9.121382E-3,3.6320116E-2,-1.0430927E-2,-1.14379E-2,2.586787E-2,-2.98243E-2,2.367443E-2,2.973034E-2,4.6950474E-2,2.5948393E-3,3.960083E-2,2.9493554E-2,1.1697358E-2],"categories":[],"categories_nodes":[],"categories_segments":[],"categories_sizes":[],"default_left":[0,0,0,0,0,0,0,0,0,0,0,0,0,0,0,0,0,0,0,0,0,0,0,0,0,0,0,0,0],"id":29,"left_children":[1,3,5,7,9,11,13,15,17,19,21,-1,23,25,27,-1,-1,-1,-1,-1,-1,-1,-1,-1,-1,-1,-1,-1,-1],"loss_changes":[5.598875E2,8.285521E1,8.951764E1,4.1331352E1,6.3233856E1,5.2877502E0,1.5048492E1,3.2307693E1,2.8462017E1,2.2946869E1,1.830719E1,0E0,2.3056412E0,1.8908257E1,9.410835E0,0E0,0E0,0E0,0E0,0E0,0E0,0E0,0E0,0E0,0E0,0E0,0E0,0E0,0E0],"parents":[2147483647,0,0,1,1,2,2,3,3,4,4,5,5,6,6,7,7,8,8,9,9,10,10,12,12,13,13,14,14],"right_children":[2,4,6,8,10,12,14,16,18,20,22,-1,24,26,28,-1,-1,-1,-1,-1,-1,-1,-1,-1,-1,-1,-1,-1,-1],"split_conditions":[1E0,2.77E0,1.61E0,2E0,3.43E0,1.14E0,1E0,2.07E0,1.94E0,7.353911E-1,2E0,5.5547442E-2,-9.7E-1,6.434672E-1,1E0,5.5759132E-2,9.121382E-3,3.6320116E-2,-1.0430927E-2,-1.14379E-2,2.586787E-2,-2.98243E-2,2.367443E-2,2.973034E-2,4.6950474E-2,2.5948393E-3,3.960083E-2,2.9493554E-2,1.1697358E-2],"split_indices":[17,0,7,2,11,7,18,0,7,13,4,0,14,13,4,0,0,0,0,0,0,0,0,0,0,0,0,0,0],"split_type":[0,0,0,0,0,0,0,0,0,0,0,0,0,0,0,0,0,0,0,0,0,0,0,0,0,0,0,0,0],"sum_hessian":[3.6544482E3,2.6230242E3,1.031424E3,8.149007E2,1.8081237E3,3.6027902E2,6.7114496E2,2.9234116E2,5.225596E2,1.0192043E3,7.889193E2,2.540207E2,1.0625833E2,2.212244E2,4.4992056E2,4.2758118E1,2.4958302E2,3.390222E1,4.8865732E2,9.7709406E2,4.2110188E1,7.732906E2,1.5628711E1,3.8435925E1,6.78224E1,1.794353E2,4.178908E1,3.5358545E2,9.633512E1],"tree_param":{"num_deleted":"0","num_feature":"33","num_nodes":"29","size_leaf_vector":"1"}},{"base_weights":[-1.2842527E-2,-3.3338234E-1,4.3953204E-1,-1.8693694E-1,-5.1084185E-1,2.2363509E-1,8.92824E-1,-2.1196643E-1,8.4728986E-1,-5.4817545E-1,3.061132E-1,8.552427E-1,1.5173133E-1,1.0852085E0,7.1002716E-1,-4.6489257E-3,-1.8757332E-2,5.4887384E-2,1.2704585E-3,-2.8261155E-2,3.84924E-2,-1.8688357E-2,5.0816566E-2,4.7237415E-2,2.9798184E-2,-6.769677E-2,8.3554825E-3,5.501643E-2,2.3337068E-2,1.6319606E-2,4.0130716E-2],"categories":[],"categories_nodes":[],"categories_segments":[],"categories_sizes":[],"default_left":[0,0,0,0,0,0,0,0,0,0,0,0,0,0,0,0,0,0,0,0,0,0,0,0,0,0,0,0,0,0,0],"id":30,"left_children":[1,3,5,7,9,11,13,15,17,19,21,23,25,27,29,-1,-1,-1,-1,-1,-1,-1,-1,-1,-1,-1,-1,-1,-1,-1,-1],"loss_changes":[5.2517633E2,5.499315E1,1.4679572E2,3.028371E1,2.9381195E1,4.6137783E1,1.6259552E1,2.202734E1,5.669861E0,2.102414E1,2.0901434E1,1.8483963E0,2.1432722E1,1.6750793E0,8.660912E0,0E0,0E0,0E0,0E0,0E0,0E0,0E0,0E0,0E0,0E0,0E0,0E0,0E0,0E0,0E0,0E0],"parents":[2147483647,0,0,1,1,2,2,3,3,4,4,5,5,6,6,7,7,8,8,9,9,10,10,11,11,12,12,13,13,14,14],"right_children":[2,4,6,8,10,12,14,16,18,20,22,24,26,28,30,-1,-1,-1,-1,-1,-1,-1,-1,-1,-1,-1,-1,-1,-1,-1,-1],"split_conditions":[1E0,3.195E0,5E0,5E0,1.12E0,1.61E0,1.56E0,6E-2,9E0,3E0,1E0,-5.7E-1,1.77E0,3E0,6E0,-4.6489257E-3,-1.8757332E-2,5.4887384E-2,1.2704585E-3,-2.8261155E-2,3.84924E-2,-1.8688357E-2,5.0816566E-2,4.7237415E-2,2.9798184E-2,-6.769677E-2,8.3554825E-3,5.501643E-2,2.3337068E-2,1.6319606E-2,4.0130716E-2],"split_indices":[3,9,3,4,15,7,7,14,4,4,1,15,0,4,3,0,0,0,0,0,0,0,0,0,0,0,0,0,0,0,0],"split_type":[0,0,0,0,0,0,0,0,0,0,0,0,0,0,0,0,0,0,0,0,0,0,0,0,0,0,0,0,0,0,0],"sum_hessian":[3.619794E3,2.1187622E3,1.5010319E3,1.1619426E3,9.568196E2,1.01777325E3,4.8325854E2,1.1352631E3,2.6679626E1,9.153198E2,4.1499733E1,1.0291004E2,9.148632E2,2.3304922E2,2.5020932E2,6.5743994E2,4.7782303E2,2.0191015E1,6.4886107E0,9.0419586E2,1.1123938E1,2.144475E1,2.0054983E1,7.453582E1,2.8374222E1,8.369576E0,9.0649365E2,2.2672716E2,6.3220663E0,4.952553E1,2.0068379E2],"tree_param":{"num_deleted":"0","num_feature":"33","num_nodes":"31","size_leaf_vector":"1"}},{"base_weights":[2.23956E-2,-1.7438188E-1,7.6130575E-1,-2.5740618E-2,-3.957637E-1,9.782395E-1,5.069747E-1,4.5419028E-1,-7.954919E-2,1.0670875E0,-4.2723706E-1,5.4373663E-2,8.137448E-1,3.1364155E-1,7.7918434E-1,3.194138E-2,7.27557E-3,5.964862E-3,-9.200927E-3,1.7421205E-3,7.893213E-2,-2.2318734E-2,3.858071E-2,4.4850063E-2,2.3910066E-2,2.0077005E-2,-2.3613963E-2,2.7459014E-2,4.6212755E-2],"categories":[],"categories_nodes":[],"categories_segments":[],"categories_sizes":[],"default_left":[0,0,0,0,0,0,0,0,0,0,0,0,0,0,0,0,0,0,0,0,0,0,0,0,0,0,0,0,0],"id":31,"left_children":[1,3,5,7,9,11,13,15,17,19,21,-1,23,25,27,-1,-1,-1,-1,-1,-1,-1,-1,-1,-1,-1,-1,-1,-1],"loss_changes":[5.189024E2,9.273149E1,4.09122E1,4.3608624E1,5.257788E1,6.3736267E0,1.8046448E1,9.610153E0,3.1556149E1,1.2686707E1,2.5787292E1,0E0,4.1854706E0,1.4343988E1,4.2859344E0,0E0,0E0,0E0,0E0,0E0,0E0,0E0,0E0,0E0,0E0,0E0,0E0,0E0,0E0],"parents":[2147483647,0,0,1,1,2,2,3,3,4,4,5,5,6,6,7,7,8,8,9,9,10,10,12,12,13,13,14,14],"right_children":[2,4,6,8,10,12,14,16,18,20,22,-1,24,26,28,-1,-1,-1,-1,-1,-1,-1,-1,-1,-1,-1,-1,-1,-1],"split_conditions":[3E0,3.15E0,2E0,2.205E0,2.03E0,1.25E0,6E0,7E-2,2E0,1.94E0,3E0,5.4373663E-2,1E0,5E0,2.28E0,3.194138E-2,7.27557E-3,5.964862E-3,-9.200927E-3,1.7421205E-3,7.893213E-2,-2.2318734E-2,3.858071E-2,4.4850063E-2,2.3910066E-2,2.0077005E-2,-2.3613963E-2,2.7459014E-2,4.6212755E-2],"split_indices":[3,7,7,9,0,7,3,14,2,0,4,0,4,2,10,0,0,0,0,0,0,0,0,0,0,0,0,0,0],"split_type":[0,0,0,0,0,0,0,0,0,0,0,0,0,0,0,0,0,0,0,0,0,0,0,0,0,0,0,0,0],"sum_hessian":[3.5668574E3,2.8173416E3,7.495158E2,1.6862605E3,1.131081E3,4.0296082E2,3.46555E2,1.6924904E2,1.5170115E3,2.3129726E1,1.1079513E3,2.3878375E2,1.6417705E2,2.0389415E2,1.4266084E2,1.0523365E2,6.4015396E1,5.2244684E2,9.9456464E2,8.018218E0,1.5111507E1,1.0911604E3,1.679085E1,1.3019841E2,3.3978638E1,1.8382408E2,2.0070072E1,5.7029053E1,8.563178E1],"tree_param":{"num_deleted":"0","num_feature":"33","num_nodes":"29","size_leaf_vector":"1"}},{"base_weights":[-1.5595813E-3,-2.1458612E-1,5.5996907E-1,-6.3153684E-1,-1.4547142E-1,9.861222E-1,3.5816273E-1,1.0846754E0,-6.970278E-1,-1.7032969E-1,7.798915E-1,5.422291E-2,7.833635E-1,1.7195441E-1,6.8610436E-1,8.932647E-2,1.4145227E-2,-3.9207555E-2,3.0177439E-2,1.3196762E-3,-1.26513755E-2,4.621337E-2,-2.1956189E-2,5.329725E-2,3.18436E-2,3.5663337E-2,6.800927E-3,3.7618194E-2,2.021536E-2],"categories":[],"categories_nodes":[],"categories_segments":[],"categories_sizes":[],"default_left":[0,0,0,0,0,0,0,0,0,0,0,0,0,0,0,0,0,0,0,0,0,0,0,0,0,0,0,0,0],"id":32,"left_children":[1,3,5,7,9,11,13,15,17,19,21,-1,23,25,27,-1,-1,-1,-1,-1,-1,-1,-1,-1,-1,-1,-1,-1,-1],"loss_changes":[4.2561212E2,7.424122E1,8.380386E1,4.1946884E1,5.1060627E1,5.409363E0,4.0530617E1,7.2951145E0,4.0541687E1,3.509594E1,1.0630875E1,0E0,3.71418E0,8.188037E0,4.1909256E0,0E0,0E0,0E0,0E0,0E0,0E0,0E0,0E0,0E0,0E0,0E0,0E0,0E0,0E0],"parents":[2147483647,0,0,1,1,2,2,3,3,4,4,5,5,6,6,7,7,8,8,9,9,10,10,12,12,13,13,14,14],"right_children":[2,4,6,8,10,12,14,16,18,20,22,-1,24,26,28,-1,-1,-1,-1,-1,-1,-1,-1,-1,-1,-1,-1,-1,-1],"split_conditions":[2E0,1E0,1.61E0,-7.9E-1,3E0,1.14E0,5E0,3.65E0,1E0,2E0,1E1,5.422291E-2,-1.065E0,-1.15E0,1E0,8.932647E-2,1.4145227E-2,-3.9207555E-2,3.0177439E-2,1.3196762E-3,-1.26513755E-2,4.621337E-2,-2.1956189E-2,5.329725E-2,3.18436E-2,3.5663337E-2,6.800927E-3,3.7618194E-2,2.021536E-2],"split_indices":[3,2,7,15,4,7,3,0,3,2,4,0,15,15,4,0,0,0,0,0,0,0,0,0,0,0,0,0,0],"split_type":[0,0,0,0,0,0,0,0,0,0,0,0,0,0,0,0,0,0,0,0,0,0,0,0,0,0,0,0,0],"sum_hessian":[3.556015E3,2.5784492E3,9.7756573E2,3.6547824E2,2.212971E3,3.129098E2,6.6465594E2,1.286204E1,3.5261618E2,2.155873E3,5.7097843E1,2.0778667E2,1.0512312E2,4.2491153E2,2.397444E2,6.203443E0,6.6585965E0,3.3085022E2,2.1765982E1,6.382565E2,1.5176166E3,5.1267673E1,5.8301706E0,3.374764E1,7.137549E1,2.5278954E1,3.9963257E2,1.9275232E2,4.699209E1],"tree_param":{"num_deleted":"0","num_feature":"33","num_nodes":"29","size_leaf_vector":"1"}},{"base_weights":[1.2430135E-2,-1.519326E-1,6.5812653E-1,-2.2084333E-3,-3.776841E-1,1.0139487E0,4.430718E-1,-9.7324416E-2,1.9880955E-1,-3.358232E-1,-9.3831205E-1,5.4049022E-2,7.9661334E-1,2.4232943E-1,7.395544E-1,8.633728E-3,-1.8500129E-2,1.7729765E-2,-1.1778841E-2,-2.0164909E-2,2.9885108E-2,2.0161333E-2,-5.9867777E-2,4.378888E-2,8.1890635E-4,3.8352095E-2,7.279049E-3,4.1194078E-2,2.093168E-2],"categories":[],"categories_nodes":[],"categories_segments":[],"categories_sizes":[],"default_left":[0,0,0,0,0,0,0,0,0,0,0,0,0,0,0,0,0,0,0,0,0,0,0,0,0,0,0,0,0],"id":33,"left_children":[1,3,5,7,9,11,13,15,17,19,21,-1,23,25,27,-1,-1,-1,-1,-1,-1,-1,-1,-1,-1,-1,-1,-1,-1],"loss_changes":[3.7212286E2,9.447013E1,5.399112E1,3.216876E1,2.5840607E1,3.0320435E0,2.6318214E1,8.4145134E1,3.6652954E1,6.566401E1,2.719944E1,0E0,4.1112785E0,1.3440344E1,4.506172E0,0E0,0E0,0E0,0E0,0E0,0E0,0E0,0E0,0E0,0E0,0E0,0E0,0E0,0E0],"parents":[2147483647,0,0,1,1,2,2,3,3,4,4,5,5,6,6,7,7,8,8,9,9,10,10,12,12,13,13,14,14],"right_children":[2,4,6,8,10,12,14,16,18,20,22,-1,24,26,28,-1,-1,-1,-1,-1,-1,-1,-1,-1,-1,-1,-1,-1,-1],"split_conditions":[3E0,3.15E0,1.56E0,3E0,5E0,1.14E0,6E0,2E0,5E0,4E0,2.4E0,5.4049022E-2,-2.4E-1,-8.55E-1,1E0,8.633728E-3,-1.8500129E-2,1.7729765E-2,-1.1778841E-2,-2.0164909E-2,2.9885108E-2,2.0161333E-2,-5.9867777E-2,4.378888E-2,8.1890635E-4,3.8352095E-2,7.279049E-3,4.1194078E-2,2.093168E-2],"split_indices":[3,7,7,2,2,7,3,2,2,2,0,0,15,15,4,0,0,0,0,0,0,0,0,0,0,0,0,0,0],"split_type":[0,0,0,0,0,0,0,0,0,0,0,0,0,0,0,0,0,0,0,0,0,0,0,0,0,0,0,0,0],"sum_hessian":[3.5044033E3,2.793962E3,7.104414E2,1.6804525E3,1.1135093E3,2.662306E2,4.4421082E2,1.1410541E3,5.3939844E2,1.0376307E3,7.587863E1,2.004369E2,6.579366E1,2.6595523E2,1.7825557E2,5.7352795E2,5.675261E2,3.9715042E2,1.42248E2,9.6821625E2,6.941445E1,1.2190368E1,6.3688263E1,5.9621857E1,6.1718087E0,4.032509E1,2.2563016E2,1.3992166E2,3.83339E1],"tree_param":{"num_deleted":"0","num_feature":"33","num_nodes":"29","size_leaf_vector":"1"}},{"base_weights":[4.5258147E-3,-2.6135865E-1,3.932259E-1,7.4135415E-2,-4.0094167E-1,9.754169E-1,2.418853E-1,6.495201E-1,2.1679923E-2,-4.9675795E-1,-1.4636739E-1,5.287881E-2,7.7002275E-1,1.3530567E-1,4.1330287E-1,6.1612815E-2,2.9841291E-3,6.174647E-3,-1.23367E-2,-2.5910182E-2,3.637107E-2,3.4628443E-3,-4.9929217E-2,4.2694736E-2,1.6091798E-2,9.512114E-3,-1.1641181E-2,2.476398E-2,5.308373E-3],"categories":[],"categories_nodes":[],"categories_segments":[],"categories_sizes":[],"default_left":[0,0,0,0,0,0,0,0,0,0,0,0,0,0,0,0,0,0,0,0,0,0,0,0,0,0,0,0,0],"id":34,"left_children":[1,3,5,7,9,11,13,15,17,19,21,-1,23,25,27,-1,-1,-1,-1,-1,-1,-1,-1,-1,-1,-1,-1,-1,-1],"loss_changes":[3.594281E2,9.674008E1,1.2423015E2,1.8324968E1,3.5504852E1,4.0983887E0,2.045198E1,1.7363714E1,1.5276304E1,2.8186768E1,7.362183E1,0E0,2.990162E0,1.4072449E1,1.0770592E1,0E0,0E0,0E0,0E0,0E0,0E0,0E0,0E0,0E0,0E0,0E0,0E0,0E0,0E0],"parents":[2147483647,0,0,1,1,2,2,3,3,4,4,5,5,6,6,7,7,8,8,9,9,10,10,12,12,13,13,14,14],"right_children":[2,4,6,8,10,12,14,16,18,20,22,-1,24,26,28,-1,-1,-1,-1,-1,-1,-1,-1,-1,-1,-1,-1,-1,-1],"split_conditions":[1E0,2.77E0,1.56E0,2.01E0,3E0,1.14E0,1E0,2E0,3.135E0,5E0,5E0,5.287881E-2,2.085E0,3.17E0,1E0,6.1612815E-2,2.9841291E-3,6.174647E-3,-1.23367E-2,-2.5910182E-2,3.637107E-2,3.4628443E-3,-4.9929217E-2,4.2694736E-2,1.6091798E-2,9.512114E-3,-1.1641181E-2,2.476398E-2,5.308373E-3],"split_indices":[16,0,7,0,2,7,18,2,9,4,2,0,9,7,4,0,0,0,0,0,0,0,0,0,0,0,0,0,0],"split_type":[0,0,0,0,0,0,0,0,0,0,0,0,0,0,0,0,0,0,0,0,0,0,0,0,0,0,0,0,0],"sum_hessian":[3.4758044E3,2.0641685E3,1.4116359E3,6.066138E2,1.4575547E3,2.9012216E2,1.1215138E3,4.973106E1,5.568827E2,1.058287E3,3.992678E2,2.042654E2,8.585676E1,6.926469E2,4.2886685E2,2.446825E1,2.526281E1,4.0413046E2,1.5275221E2,1.0406334E3,1.7653526E1,3.193787E2,7.98891E1,7.156005E1,1.4296702E1,6.031247E2,8.952217E1,3.3803122E2,9.083562E1],"tree_param":{"num_deleted":"0","num_feature":"33","num_nodes":"29","size_leaf_vector":"1"}},{"base_weights":[-7.315889E-4,-1.2689039E-1,7.219814E-1,-2.4455068E-1,1.5370312E-1,1.0108217E0,5.241392E-1,-1.2821701E-1,-4.4774058E-1,7.5802934E-1,1.0908516E-1,1.0344135E0,6.11623E-1,3.2344988E-1,7.463875E-1,-8.5663395E-3,2.348463E-2,1.3608067E-2,-2.4674404E-2,4.871788E-2,2.9289126E-2,4.2861006E-3,4.7674756E-2,5.415727E-2,4.6084758E-2,4.8423693E-2,4.8849913E-3,-1.4608382E-2,2.8543666E-2,3.955664E-2,1.015237E-2],"categories":[],"categories_nodes":[],"categories_segments":[],"categories_sizes":[],"default_left":[0,0,0,0,0,0,0,0,0,0,0,0,0,0,0,0,0,0,0,0,0,0,0,0,0,0,0,0,0,0,0],"id":35,"left_children":[1,3,5,7,9,11,13,15,17,19,21,23,25,27,29,-1,-1,-1,-1,-1,-1,-1,-1,-1,-1,-1,-1,-1,-1,-1,-1],"loss_changes":[3.1651248E2,9.761247E1,2.8952393E1,4.9173325E1,2.3477951E1,1.3323364E0,1.3508301E1,3.4254677E1,2.5094131E1,1.6615562E0,1.5994247E1,7.589722E-2,2.4892898E0,2.5109903E1,3.3770676E0,0E0,0E0,0E0,0E0,0E0,0E0,0E0,0E0,0E0,0E0,0E0,0E0,0E0,0E0,0E0,0E0],"parents":[2147483647,0,0,1,1,2,2,3,3,4,4,5,5,6,6,7,7,8,8,9,9,10,10,11,11,12,12,13,13,14,14],"right_children":[2,4,6,8,10,12,14,16,18,20,22,24,26,28,30,-1,-1,-1,-1,-1,-1,-1,-1,-1,-1,-1,-1,-1,-1,-1,-1],"split_conditions":[4E0,1E0,1.45E0,3.32E0,1.56E0,1E0,7E0,8.8E-1,2.42E0,1.25E0,3.61E0,6.7E-1,1.67E0,2.52E0,3E0,-8.5663395E-3,2.348463E-2,1.3608067E-2,-2.4674404E-2,4.871788E-2,2.9289126E-2,4.2861006E-3,4.7674756E-2,5.415727E-2,4.6084758E-2,4.8423693E-2,4.8849913E-3,-1.4608382E-2,2.8543666E-2,3.955664E-2,1.015237E-2],"split_indices":[3,3,7,7,7,4,3,12,0,7,7,7,9,0,4,0,0,0,0,0,0,0,0,0,0,0,0,0,0,0,0],"split_type":[0,0,0,0,0,0,0,0,0,0,0,0,0,0,0,0,0,0,0,0,0,0,0,0,0,0,0,0,0,0,0],"sum_hessian":[3.4694177E3,2.9544968E3,5.1492084E2,2.0817095E3,8.727874E2,2.0765092E2,3.072699E2,1.324828E3,7.568815E2,5.89089E1,8.138785E2,1.9456154E2,1.3089394E1,1.627566E2,1.4451328E2,1.2363962E3,8.843172E1,4.4927887E1,7.119536E2,2.4048794E1,3.4860107E1,7.930382E2,2.0840277E1,1.2982465E2,6.473689E1,7.2032375E0,5.8861556E0,4.6608517E1,1.16148094E2,1.3309642E2,1.1416854E1],"tree_param":{"num_deleted":"0","num_feature":"33","num_nodes":"31","size_leaf_vector":"1"}},{"base_weights":[1.5244187E-2,-1.1379426E-1,7.465526E-1,-2.3414247E-1,1.7274758E-1,1.019203E0,5.350659E-1,-2.565716E-1,7.0855314E-1,5.4308283E-1,1.0845467E-1,1.0346212E0,1.7480582E-2,4.2275658E-1,8.437298E-1,-1.1424293E-2,-3.607735E-2,4.64474E-2,-3.402657E-2,4.7484033E-2,2.16612E-2,4.1845213E-3,6.3855395E-2,5.3270437E-2,4.416972E-2,3.048917E-2,2.8811162E-3,4.6961647E-2,9.099234E-3],"categories":[],"categories_nodes":[],"categories_segments":[],"categories_sizes":[],"default_left":[0,0,0,0,0,0,0,0,0,0,0,0,0,0,0,0,0,0,0,0,0,0,0,0,0,0,0,0,0],"id":36,"left_children":[1,3,5,7,9,11,13,15,17,19,21,23,-1,25,27,-1,-1,-1,-1,-1,-1,-1,-1,-1,-1,-1,-1,-1,-1],"loss_changes":[3.251318E2,1.01037735E2,2.9251648E1,4.379988E1,2.0580221E1,1.9573517E0,9.8046875E0,2.6158676E1,1.5390711E1,5.3051033E0,2.1305012E1,7.875061E-2,0E0,1.4778786E1,4.707821E0,0E0,0E0,0E0,0E0,0E0,0E0,0E0,0E0,0E0,0E0,0E0,0E0,0E0,0E0],"parents":[2147483647,0,0,1,1,2,2,3,3,4,4,5,5,6,6,7,7,8,8,9,9,10,10,11,11,13,13,14,14],"right_children":[2,4,6,8,10,12,14,16,18,20,22,24,-1,26,28,-1,-1,-1,-1,-1,-1,-1,-1,-1,-1,-1,-1,-1,-1],"split_conditions":[4E0,1E0,1.56E0,3E0,2.085E0,3E0,2.8E0,1E0,9E0,1.67E0,3.64E0,1.14E0,1.7480582E-2,-1.6E-1,5.95E-1,-1.1424293E-2,-3.607735E-2,4.64474E-2,-3.402657E-2,4.7484033E-2,2.16612E-2,4.1845213E-3,6.3855395E-2,5.3270437E-2,4.416972E-2,3.048917E-2,2.8811162E-3,4.6961647E-2,9.099234E-3],"split_indices":[3,3,7,4,9,4,7,4,4,9,9,7,0,15,15,0,0,0,0,0,0,0,0,0,0,0,0,0,0],"split_type":[0,0,0,0,0,0,0,0,0,0,0,0,0,0,0,0,0,0,0,0,0,0,0,0,0,0,0,0,0],"sum_hessian":[3.443501E3,2.927748E3,5.1575305E2,2.06192E3,8.6582806E2,2.2362918E2,2.9212387E2,2.0147125E3,4.720733E1,1.269771E2,7.3885095E2,2.1806284E2,5.566349E0,2.1592705E2,7.619681E1,1.9013569E3,1.1335561E2,4.1028862E1,6.178468E0,2.5383999E1,1.015931E2,7.2456866E2,1.4282301E1,1.7615526E2,4.1907574E1,1.4234563E2,7.358143E1,6.622052E1,9.976281E0],"tree_param":{"num_deleted":"0","num_feature":"33","num_nodes":"29","size_leaf_vector":"1"}},{"base_weights":[9.830162E-3,-1.1882778E-1,7.469533E-1,-1.6452705E-2,-3.4637424E-1,5.274703E-2,5.865941E-1,6.0605544E-1,-5.231607E-2,-4.213573E-1,3.8461992E-1,6.943115E-1,1.7520474E-1,5.074654E-2,2.4124581E-2,-7.7644647E-3,7.1457266E-3,-3.608564E-2,-1.5143975E-2,1.0578013E-2,6.247371E-2,3.0745536E-2,4.854136E-2,3.1217042E-2,-9.109342E-3],"categories":[],"categories_nodes":[],"categories_segments":[],"categories_sizes":[],"default_left":[0,0,0,0,0,0,0,0,0,0,0,0,0,0,0,0,0,0,0,0,0,0,0,0,0],"id":37,"left_children":[1,3,5,7,9,-1,11,13,15,17,19,21,23,-1,-1,-1,-1,-1,-1,-1,-1,-1,-1,-1,-1],"loss_changes":[3.2413702E2,6.778313E1,2.4465698E1,4.486249E1,4.9653534E1,0E0,1.4778915E1,5.0407257E0,3.8211082E1,2.8940247E1,1.2386725E1,5.246277E0,1.1528364E1,0E0,0E0,0E0,0E0,0E0,0E0,0E0,0E0,0E0,0E0,0E0,0E0],"parents":[2147483647,0,0,1,1,2,2,3,3,4,4,6,6,7,7,8,8,9,9,10,10,11,11,12,12],"right_children":[2,4,6,8,10,-1,12,14,16,18,20,22,24,-1,-1,-1,-1,-1,-1,-1,-1,-1,-1,-1,-1],"split_conditions":[4E0,3.245E0,1.25E0,1.79E0,1E0,5.274703E-2,1E0,1.67E0,3E0,1E0,3.86E0,2.94E0,2.42E0,5.074654E-2,2.4124581E-2,-7.7644647E-3,7.1457266E-3,-3.608564E-2,-1.5143975E-2,1.0578013E-2,6.247371E-2,3.0745536E-2,4.854136E-2,3.1217042E-2,-9.109342E-3],"split_indices":[3,9,7,7,3,0,4,9,2,2,11,7,11,0,0,0,0,0,0,0,0,0,0,0,0],"split_type":[0,0,0,0,0,0,0,0,0,0,0,0,0,0,0,0,0,0,0,0,0,0,0,0,0],"sum_hessian":[3.415906E3,2.9090054E3,5.0690085E2,2.0070767E3,9.019285E2,1.716499E2,3.3525095E2,1.08465096E2,1.8986116E3,8.1840295E2,8.35256E1,2.651396E2,7.0111374E1,2.3497509E1,8.496759E1,1.243133E3,6.554786E2,2.3006613E2,5.883368E2,7.06358E1,1.2889794E1,2.0849464E2,5.6644936E1,3.073703E1,3.9374344E1],"tree_param":{"num_deleted":"0","num_feature":"33","num_nodes":"25","size_leaf_vector":"1"}},{"base_weights":[3.495433E-4,-1.4515497E-1,6.076622E-1,6.237546E-2,-2.5072834E-1,9.9064434E-1,4.254355E-1,1.2367303E-1,-3.6204022E-1,1.919351E-1,-3.096714E-1,5.200317E-2,8.30113E-1,2.4406321E-1,6.066739E-1,1.9250732E-2,1.1990565E-3,6.4123147E-3,-3.341592E-2,3.6547318E-2,1.2461635E-3,-1.9011546E-2,2.00647E-3,4.82059E-2,1.3986498E-2,3.4353726E-2,5.7634064E-3,3.5280988E-2,1.8234381E-2],"categories":[],"categories_nodes":[],"categories_segments":[],"categories_sizes":[],"default_left":[0,0,0,0,0,0,0,0,0,0,0,0,0,0,0,0,0,0,0,0,0,0,0,0,0,0,0,0,0],"id":38,"left_children":[1,3,5,7,9,11,13,15,17,19,21,-1,23,25,27,-1,-1,-1,-1,-1,-1,-1,-1,-1,-1,-1,-1,-1,-1],"loss_changes":[3.002904E2,6.0079327E1,4.5417023E1,2.4113476E1,4.747525E1,8.106079E-1,1.453907E1,2.1072105E1,1.7656586E1,1.9260815E1,3.9607254E1,0E0,3.758873E0,1.2758327E1,5.077553E0,0E0,0E0,0E0,0E0,0E0,0E0,0E0,0E0,0E0,0E0,0E0,0E0,0E0,0E0],"parents":[2147483647,0,0,1,1,2,2,3,3,4,4,5,5,6,6,7,7,8,8,9,9,10,10,12,12,13,13,14,14],"right_children":[2,4,6,8,10,12,14,16,18,20,22,-1,24,26,28,-1,-1,-1,-1,-1,-1,-1,-1,-1,-1,-1,-1,-1,-1],"split_conditions":[3E0,2.77E0,1.45E0,5E0,-6.9E-1,1E0,5E0,-3.6E-1,2.61E0,1.4E-1,1E0,5.200317E-2,-5.55E-1,-6.9E-1,6.4E-1,1.9250732E-2,1.1990565E-3,6.4123147E-3,-3.341592E-2,3.6547318E-2,1.2461635E-3,-1.9011546E-2,2.00647E-3,4.82059E-2,1.3986498E-2,3.4353726E-2,5.7634064E-3,3.5280988E-2,1.8234381E-2],"split_indices":[3,0,7,2,15,7,3,14,7,12,3,0,15,15,12,0,0,0,0,0,0,0,0,0,0,0,0,0,0],"split_type":[0,0,0,0,0,0,0,0,0,0,0,0,0,0,0,0,0,0,0,0,0,0,0,0,0,0,0,0,0],"sum_hessian":[3.3962312E3,2.7404216E3,6.558097E2,9.241624E2,1.8162592E3,2.1000667E2,4.45803E2,8.0815125E2,1.16011185E2,2.1316086E2,1.6030984E3,1.563851E2,5.362156E1,2.2399207E2,2.2181094E2,2.2236388E2,5.8578735E2,4.4829662E1,7.118152E1,4.9625076E1,1.6353578E2,1.3339381E3,2.6916016E2,4.251778E1,1.1103778E1,4.947619E1,1.7451588E2,1.5607672E2,6.573423E1],"tree_param":{"num_deleted":"0","num_feature":"33","num_nodes":"29","size_leaf_vector":"1"}},{"base_weights":[1.0041033E-5,7.4998343E-1,-1.2135398E-1,5.1206615E-2,5.3061163E-1,-2.1996793E-1,9.867475E-2,9.6438044E-1,4.5039073E-1,-2.9842544E-1,1.7723267E-1,2.5370264E-2,5.8870286E-1,5.2912712E-2,1.9071868E-2,1.7785126E-2,4.0319674E-2,-2.5670955E-2,-1.2247438E-2,3.4667615E-2,-2.2689888E-2,4.1323324E-4,5.615294E-2,2.0482898E-2,4.745501E-2],"categories":[],"categories_nodes":[],"categories_segments":[],"categories_sizes":[],"default_left":[0,0,0,0,0,0,0,0,0,0,0,0,0,0,0,0,0,0,0,0,0,0,0,0,0],"id":39,"left_children":[1,3,5,-1,7,9,11,13,15,17,19,21,23,-1,-1,-1,-1,-1,-1,-1,-1,-1,-1,-1,-1],"loss_changes":[3.0312598E2,2.7353638E1,6.2218018E1,0E0,8.604263E0,6.1745728E1,3.1876253E1,1.7668877E0,7.165806E0,1.8884735E1,1.0686728E2,1.4511165E1,7.062958E0,0E0,0E0,0E0,0E0,0E0,0E0,0E0,0E0,0E0,0E0,0E0,0E0],"parents":[2147483647,0,0,1,1,2,2,4,4,5,5,6,6,7,7,8,8,9,9,10,10,11,11,12,12],"right_children":[2,4,6,-1,8,10,12,14,16,18,20,22,24,-1,-1,-1,-1,-1,-1,-1,-1,-1,-1,-1,-1],"split_conditions":[2E0,1.36E0,1E0,5.1206615E-2,1.1313708E-1,4E0,6E0,1.94E0,7E0,1E0,5E0,3.86E0,3.01E0,5.2912712E-2,1.9071868E-2,1.7785126E-2,4.0319674E-2,-2.5670955E-2,-1.2247438E-2,3.4667615E-2,-2.2689888E-2,4.1323324E-4,5.615294E-2,2.0482898E-2,4.745501E-2],"split_indices":[7,7,3,0,13,2,3,5,3,2,2,11,0,0,0,0,0,0,0,0,0,0,0,0,0],"split_type":[0,0,0,0,0,0,0,0,0,0,0,0,0,0,0,0,0,0,0,0,0,0,0,0,0],"sum_hessian":[3.3283308E3,4.628643E2,2.8654666E3,2.0411432E2,2.5874997E2,1.9786583E3,8.8680817E2,3.8664185E1,2.200858E2,1.6524958E3,3.2616248E2,7.723258E2,1.14482315E2,3.2599228E1,6.064956E0,1.7542586E2,4.4659927E1,3.2744803E2,1.3250479E3,1.7936287E2,1.467996E2,7.614672E2,1.0858635E1,7.791228E1,3.6570034E1],"tree_param":{"num_deleted":"0","num_feature":"33","num_nodes":"25","size_leaf_vector":"1"}},{"base_weights":[2.7383076E-2,7.298317E-1,-7.584996E-2,5.1512327E-2,5.1659274E-1,-1.9936281E-1,1.8604733E-1,8.512981E-1,4.2090553E-1,-1.068962E-1,-4.969091E-1,1.140708E-1,5.415626E-1,4.6934962E-2,1.857096E-2,4.8700266E-2,1.8292552E-2,3.158996E-2,-6.5491847E-3,-2.6456703E-2,3.6380816E-2,-6.1331715E-2,6.478209E-3,3.2239664E-2,2.708384E-3],"categories":[],"categories_nodes":[],"categories_segments":[],"categories_sizes":[],"default_left":[0,0,0,0,0,0,0,0,0,0,0,0,0,0,0,0,0,0,0,0,0,0,0,0,0],"id":40,"left_children":[1,3,5,-1,7,9,11,13,15,17,19,21,23,-1,-1,-1,-1,-1,-1,-1,-1,-1,-1,-1,-1],"loss_changes":[2.4233585E2,2.6897675E1,9.429429E1,0E0,7.7264557E0,5.443785E1,2.3846596E1,1.9642372E0,5.6817436E0,2.699089E1,1.8903152E1,1.6325512E1,7.8666916E0,0E0,0E0,0E0,0E0,0E0,0E0,0E0,0E0,0E0,0E0,0E0,0E0],"parents":[2147483647,0,0,1,1,2,2,4,4,5,5,6,6,7,7,8,8,9,9,10,10,11,11,12,12],"right_children":[2,4,6,-1,8,10,12,14,16,18,20,22,24,-1,-1,-1,-1,-1,-1,-1,-1,-1,-1,-1,-1],"split_conditions":[1.94E0,1.25E0,1E0,5.1512327E-2,1.93E0,3.32E0,5E0,4.4E-1,1.9E0,-8.55E-1,1.43E0,1.77E0,1E0,4.6934962E-2,1.857096E-2,4.8700266E-2,1.8292552E-2,3.158996E-2,-6.5491847E-3,-2.6456703E-2,3.6380816E-2,-6.1331715E-2,6.478209E-3,3.2239664E-2,2.708384E-3],"split_indices":[7,7,3,0,11,10,3,12,0,15,15,0,4,0,0,0,0,0,0,0,0,0,0,0,0],"split_type":[0,0,0,0,0,0,0,0,0,0,0,0,0,0,0,0,0,0,0,0,0,0,0,0,0],"sum_hessian":[3.3400674E3,4.2718942E2,2.912878E3,1.7575345E2,2.5143596E2,1.9795466E3,9.3333136E2,5.4144985E1,1.9729099E2,1.5112607E3,4.682859E2,7.7728546E2,1.5604593E2,4.499403E1,9.150955E0,1.634915E1,1.8094183E2,4.6926544E1,1.4643341E3,4.5683167E2,1.1454224E1,7.986764E0,7.6929865E2,1.2850543E2,2.7540491E1],"tree_param":{"num_deleted":"0","num_feature":"33","num_nodes":"25","size_leaf_vector":"1"}},{"base_weights":[-4.0213508E-3,6.1296105E-1,-1.0747657E-1,9.9778354E-1,3.6484683E-1,-2.1932615E-1,1.410608E-1,5.177901E-2,7.898452E-1,1.8561038E-1,6.365466E-1,-2.941042E-1,1.4264508E-1,7.385303E-2,6.222907E-1,2.7942289E-2,5.0650276E-2,1.4411293E-2,-9.51714E-3,3.379357E-2,-8.770039E-3,-9.693122E-3,-2.1271719E-2,3.3458944E-2,-2.5686303E-2,1.2950732E-3,3.0724183E-2,1.5186201E-2,4.1158028E-2],"categories":[],"categories_nodes":[],"categories_segments":[],"categories_sizes":[],"default_left":[0,0,0,0,0,0,0,0,0,0,0,0,0,0,0,0,0,0,0,0,0,0,0,0,0,0,0,0,0],"id":41,"left_children":[1,3,5,7,9,11,13,-1,15,17,19,21,23,25,27,-1,-1,-1,-1,-1,-1,-1,-1,-1,-1,-1,-1,-1,-1],"loss_changes":[2.1021223E2,4.4790558E1,7.8433495E1,6.34552E-1,1.3961121E1,5.269969E1,2.8283833E1,0E0,1.1164837E0,6.829568E0,3.7745934E0,2.1147873E1,1.1569145E2,1.9938581E1,6.610134E0,0E0,0E0,0E0,0E0,0E0,0E0,0E0,0E0,0E0,0E0,0E0,0E0,0E0,0E0],"parents":[2147483647,0,0,1,1,2,2,3,3,4,4,5,5,6,6,8,8,9,9,10,10,11,11,12,12,13,13,14,14],"right_children":[2,4,6,8,10,12,14,-1,16,18,20,22,24,26,28,-1,-1,-1,-1,-1,-1,-1,-1,-1,-1,-1,-1,-1,-1],"split_conditions":[2.05E0,1.36E0,1E0,1.14E0,1E0,4E0,6E0,5.177901E-2,2.56E0,1E0,9.4E-1,3.41E0,5E0,3.61E0,2.6E0,2.7942289E-2,5.0650276E-2,1.4411293E-2,-9.51714E-3,3.379357E-2,-8.770039E-3,-9.693122E-3,-2.1271719E-2,3.3458944E-2,-2.5686303E-2,1.2950732E-3,3.0724183E-2,1.5186201E-2,4.1158028E-2],"split_indices":[7,7,3,7,21,2,3,0,0,4,12,11,2,11,0,0,0,0,0,0,0,0,0,0,0,0,0,0,0],"split_type":[0,0,0,0,0,0,0,0,0,0,0,0,0,0,0,0,0,0,0,0,0,0,0,0,0,0,0,0,0],"sum_hessian":[3.2912795E3,4.7192224E2,2.8193574E3,1.8381134E2,2.881109E2,1.9444235E3,8.7493384E2,1.5217119E2,3.1640158E1,1.746078E2,1.1350309E2,1.6116643E3,3.327591E2,7.68728E2,1.0620581E2,1.7268885E1,1.4371271E1,1.3735143E2,3.7256382E1,1.0841963E2,5.083459E0,9.15419E2,6.9624536E2,1.8463078E2,1.4812831E2,7.070626E2,6.166545E1,4.2041977E1,6.4163826E1],"tree_param":{"num_deleted":"0","num_feature":"33","num_nodes":"29","size_leaf_vector":"1"}},{"base_weights":[1.8485192E-2,6.4818126E-1,-8.517249E-2,9.8664546E-1,4.300198E-1,-1.708209E-1,1.04519784E-1,5.160137E-2,7.299475E-1,2.4726309E-1,5.8163285E-1,8.93485E-2,-2.5326407E-1,4.475255E-2,5.641905E-1,4.059485E-2,1.6830975E-2,2.7646933E-2,-1.9342216E-3,3.462819E-2,3.5573964E-3,5.730185E-3,-6.04724E-2,-1.35777965E-2,3.162929E-2,6.800265E-4,4.75827E-2,1.1323162E-2,4.1132063E-2],"categories":[],"categories_nodes":[],"categories_segments":[],"categories_sizes":[],"default_left":[0,0,0,0,0,0,0,0,0,0,0,0,0,0,0,0,0,0,0,0,0,0,0,0,0,0,0,0,0],"id":42,"left_children":[1,3,5,7,9,11,13,-1,15,17,19,21,23,25,27,-1,-1,-1,-1,-1,-1,-1,-1,-1,-1,-1,-1,-1,-1],"loss_changes":[2.137878E2,3.3759995E1,4.5712067E1,1.3514252E0,7.7052994E0,4.1591434E1,2.4027184E1,0E0,7.117233E-1,1.140053E1,8.676689E0,1.5459635E1,2.402266E1,2.1905863E1,8.598888E0,0E0,0E0,0E0,0E0,0E0,0E0,0E0,0E0,0E0,0E0,0E0,0E0,0E0,0E0],"parents":[2147483647,0,0,1,1,2,2,3,3,4,4,5,5,6,6,8,8,9,9,10,10,11,11,12,12,13,13,14,14],"right_children":[2,4,6,8,10,12,14,-1,16,18,20,22,24,26,28,-1,-1,-1,-1,-1,-1,-1,-1,-1,-1,-1,-1,-1,-1],"split_conditions":[2.05E0,1.36E0,1E0,1.14E0,2.61E0,2.69E0,6E0,5.160137E-2,2.035E0,1E0,1E0,3.79E0,4E0,3.61E0,2.34E0,4.059485E-2,1.6830975E-2,2.7646933E-2,-1.9342216E-3,3.462819E-2,3.5573964E-3,5.730185E-3,-6.04724E-2,-1.35777965E-2,3.162929E-2,6.800265E-4,4.75827E-2,1.1323162E-2,4.1132063E-2],"split_indices":[7,7,3,7,0,0,3,0,9,30,4,7,4,7,10,0,0,0,0,0,0,0,0,0,0,0,0,0,0],"split_type":[0,0,0,0,0,0,0,0,0,0,0,0,0,0,0,0,0,0,0,0,0,0,0,0,0,0,0,0,0],"sum_hessian":[3.2734492E3,4.619512E2,2.811498E3,1.7967456E2,2.8227664E2,1.9370126E3,8.744856E2,1.5011516E2,2.955941E1,1.2918542E2,1.5309122E2,4.6608493E2,1.4709276E3,7.748372E2,9.9648415E1,2.3581963E1,5.9774475E0,6.1987537E1,6.719788E1,1.254694E2,2.7621815E1,4.580891E2,7.9958196E0,1.4418484E3,2.9079178E1,7.5008673E2,2.4750444E1,4.4012226E1,5.563619E1],"tree_param":{"num_deleted":"0","num_feature":"33","num_nodes":"29","size_leaf_vector":"1"}},{"base_weights":[1.6322225E-2,9.243084E-1,-4.6767343E-2,9.890544E-1,6.139507E-1,-2.388525E-1,6.918403E-2,5.2817654E-2,8.761811E-1,9.133872E-1,3.4527802E-1,-6.0263443E-1,-1.6194601E-1,2.7529415E-2,5.6480104E-1,4.8137274E-2,2.3654811E-2,2.4539394E-2,5.294344E-2,-1.056515E-2,3.5278644E-2,3.871906E-2,-3.4191918E-2,-5.2390867E-3,-4.3526534E-2,8.906178E-3,-3.5065585E-3,3.38229E-2,9.882047E-3],"categories":[],"categories_nodes":[],"categories_segments":[],"categories_sizes":[],"default_left":[0,0,0,0,0,0,0,0,0,0,0,0,0,0,0,0,0,0,0,0,0,0,0,0,0,0,0,0,0],"id":43,"left_children":[1,3,5,7,9,11,13,-1,15,17,19,21,23,25,27,-1,-1,-1,-1,-1,-1,-1,-1,-1,-1,-1,-1,-1,-1],"loss_changes":[1.8659232E2,3.6451569E0,6.7856834E1,3.9205933E-1,2.835415E0,3.1985847E1,3.9212456E1,0E0,2.0098267E0,5.816822E-1,4.611024E0,2.2866608E1,3.8308655E1,2.580699E1,5.90366E0,0E0,0E0,0E0,0E0,0E0,0E0,0E0,0E0,0E0,0E0,0E0,0E0,0E0,0E0],"parents":[2147483647,0,0,1,1,2,2,3,3,4,4,5,5,6,6,8,8,9,9,10,10,11,11,12,12,13,13,14,14],"right_children":[2,4,6,8,10,12,14,-1,16,18,20,22,24,26,28,-1,-1,-1,-1,-1,-1,-1,-1,-1,-1,-1,-1,-1,-1],"split_conditions":[1.56E0,1.36E0,2E0,6.7E-1,1.82E0,1E0,6E0,5.2817654E-2,-5.35E-1,-8.8E-1,2.59E0,-6.1E-1,1E0,2E0,1E0,4.8137274E-2,2.3654811E-2,2.4539394E-2,5.294344E-2,-1.056515E-2,3.5278644E-2,3.871906E-2,-3.4191918E-2,-5.2390867E-3,-4.3526534E-2,8.906178E-3,-3.5065585E-3,3.38229E-2,9.882047E-3],"split_indices":[7,7,31,7,9,2,3,0,15,15,0,15,4,2,4,0,0,0,0,0,0,0,0,0,0,0,0,0,0],"split_type":[0,0,0,0,0,0,0,0,0,0,0,0,0,0,0,0,0,0,0,0,0,0,0,0,0,0,0,0,0],"sum_hessian":[3.255539E3,2.106214E2,3.0449175E3,1.7245705E2,3.8164356E1,1.1457715E3,1.8991461E3,1.0280354E2,6.965351E1,1.6914015E1,2.1250341E1,1.987607E2,9.470108E2,1.7528792E3,1.462669E2,5.6196583E1,1.3456925E1,5.4515963E0,1.1462418E1,8.513018E0,1.2737323E1,1.0593029E1,1.8816766E2,8.7737726E2,6.963355E1,6.892386E2,1.0636406E3,1.1151246E2,3.475444E1],"tree_param":{"num_deleted":"0","num_feature":"33","num_nodes":"29","size_leaf_vector":"1"}},{"base_weights":[1.3377006E-3,-7.67079E-2,6.899561E-1,1.3440837E-1,-1.6937104E-1,5.2142818E-2,5.1586676E-1,2.0284627E-2,3.874809E-1,-4.0932855E-1,-1.2375009E-1,5.913619E-1,2.174351E-1,1.7596554E-2,-1.3588565E-2,1.5319037E-2,6.3442685E-2,-2.6179215E-2,2.8756697E-2,2.691079E-3,-1.0177772E-2,3.3683777E-2,2.65106E-3,2.4246393E-2,-1.9178588E-2],"categories":[],"categories_nodes":[],"categories_segments":[],"categories_sizes":[],"default_left":[0,0,0,0,0,0,0,0,0,0,0,0,0,0,0,0,0,0,0,0,0,0,0,0,0],"id":44,"left_children":[1,3,5,7,9,-1,11,13,15,17,19,21,23,-1,-1,-1,-1,-1,-1,-1,-1,-1,-1,-1,-1],"loss_changes":[1.7513043E2,5.7281155E1,1.9841919E1,2.579401E1,2.2221737E1,0E0,4.920864E0,5.9835213E1,1.9454044E1,3.681056E1,2.4257322E1,7.8647423E0,7.7147512E0,0E0,0E0,0E0,0E0,0E0,0E0,0E0,0E0,0E0,0E0,0E0,0E0],"parents":[2147483647,0,0,1,1,2,2,3,3,4,4,6,6,7,7,8,8,9,9,10,10,11,11,12,12],"right_children":[2,4,6,8,10,-1,12,14,16,18,20,22,24,-1,-1,-1,-1,-1,-1,-1,-1,-1,-1,-1,-1],"split_conditions":[5E0,2.63E0,1E0,3E0,1E0,5.2142818E-2,1E0,2E0,2E0,1E0,2E0,5E0,6.4E-1,1.7596554E-2,-1.3588565E-2,1.5319037E-2,6.3442685E-2,-2.6179215E-2,2.8756697E-2,2.691079E-3,-1.0177772E-2,3.3683777E-2,2.65106E-3,2.4246393E-2,-1.9178588E-2],"split_indices":[3,7,7,2,2,0,4,2,4,3,2,2,12,0,0,0,0,0,0,0,0,0,0,0,0],"split_type":[0,0,0,0,0,0,0,0,0,0,0,0,0,0,0,0,0,0,0,0,0,0,0,0,0],"sum_hessian":[3.2566418E3,2.9259172E3,3.307246E2,8.923677E2,2.0335496E3,1.0760529E2,2.2311931E2,6.1576636E2,2.7660135E2,3.2358444E2,1.7099651E3,1.7728854E2,4.583077E1,2.882438E2,3.2752255E2,2.5452835E2,2.2072992E1,2.9035434E2,3.32301E1,5.3031274E2,1.1796523E3,1.5355779E2,2.3730764E1,3.1848816E1,1.3981951E1],"tree_param":{"num_deleted":"0","num_feature":"33","num_nodes":"25","size_leaf_vector":"1"}},{"base_weights":[3.5169832E-2,-4.630531E-2,6.0687584E-1,-6.724562E-2,8.920587E-1,9.46445E-1,4.0255854E-1,-1.5482736E-1,1.2990883E-1,1.1019192E0,-5.130393E-2,5.011348E-2,6.790772E-1,1.2232647E-1,6.0098904E-1,2.1004204E-3,-1.3930172E-2,1.5132128E-2,-1.9276796E-2,6.0276754E-2,3.7016638E-2,4.1766174E-2,-1.126045E-3,-4.4735756E-2,1.3591875E-2,3.579058E-2,4.706869E-3],"categories":[],"categories_nodes":[],"categories_segments":[],"categories_sizes":[],"default_left":[0,0,0,0,0,0,0,0,0,0,0,0,0,0,0,0,0,0,0,0,0,0,0,0,0,0,0],"id":45,"left_children":[1,3,5,7,9,11,13,15,17,19,-1,-1,21,23,25,-1,-1,-1,-1,-1,-1,-1,-1,-1,-1,-1,-1],"loss_changes":[1.5083073E2,5.5758938E1,2.764183E1,4.791324E1,2.6066345E1,1.5730438E0,1.4045731E1,4.6813328E1,7.612479E1,1.2175446E0,0E0,0E0,3.2177715E0,1.6439892E1,8.569057E0,0E0,0E0,0E0,0E0,0E0,0E0,0E0,0E0,0E0,0E0,0E0,0E0],"parents":[2147483647,0,0,1,1,2,2,3,3,4,4,5,5,6,6,7,7,8,8,9,9,12,12,13,13,14,14],"right_children":[2,4,6,8,10,12,14,16,18,20,-1,-1,22,24,26,-1,-1,-1,-1,-1,-1,-1,-1,-1,-1,-1,-1],"split_conditions":[4E0,5E0,1.56E0,3E0,1E1,1.14E0,2.6E0,2.86E0,5E0,1.4E-1,-5.130393E-2,5.011348E-2,-4.85E-1,1.2E-1,1E0,2.1004204E-3,-1.3930172E-2,1.5132128E-2,-1.9276796E-2,6.0276754E-2,3.7016638E-2,4.1766174E-2,-1.126045E-3,-4.4735756E-2,1.3591875E-2,3.579058E-2,4.706869E-3],"split_indices":[3,4,7,2,4,7,0,0,2,14,0,0,15,12,4,0,0,0,0,0,0,0,0,0,0,0,0],"split_type":[0,0,0,0,0,0,0,0,0,0,0,0,0,0,0,0,0,0,0,0,0,0,0,0,0,0,0],"sum_hessian":[3.2365093E3,2.8336047E3,4.0290454E2,2.7726592E3,6.0945675E1,1.4999132E2,2.5291322E2,1.9199681E3,8.526909E2,5.531885E1,5.626827E0,1.2180961E2,2.818171E1,1.05515785E2,1.4739745E2,7.41482E2,1.1784862E3,6.389736E2,2.1371736E2,4.118337E1,1.4135481E1,2.2892857E1,5.2888513E0,1.2884605E1,9.263118E1,1.19837166E2,2.7560272E1],"tree_param":{"num_deleted":"0","num_feature":"33","num_nodes":"27","size_leaf_vector":"1"}},{"base_weights":[-4.221099E-3,6.622483E-1,-9.87414E-2,4.983373E-2,4.994336E-1,-2.1011107E-1,1.3975726E-1,1.0266483E0,4.1827813E-1,-2.6807532E-1,7.978922E-2,8.829649E-2,5.5088073E-1,6.921653E-2,4.3955013E-2,9.951397E-3,2.9728873E-2,-9.311481E-3,-2.3895746E-2,2.9299496E-2,-2.7476812E-2,1.4467316E-2,8.054046E-4,1.4263137E-2,3.918059E-2],"categories":[],"categories_nodes":[],"categories_segments":[],"categories_sizes":[],"default_left":[0,0,0,0,0,0,0,0,0,0,0,0,0,0,0,0,0,0,0,0,0,0,0,0,0],"id":46,"left_children":[1,3,5,-1,7,9,11,13,15,17,19,21,23,-1,-1,-1,-1,-1,-1,-1,-1,-1,-1,-1,-1],"loss_changes":[1.9999152E2,2.0973007E1,7.3880035E1,0E0,1.1003616E1,3.1876816E1,1.8688658E1,6.27964E-1,8.897804E0,2.7047836E1,1.0119637E2,1.1436432E1,5.8552094E0,0E0,0E0,0E0,0E0,0E0,0E0,0E0,0E0,0E0,0E0,0E0,0E0],"parents":[2147483647,0,0,1,1,2,2,4,4,5,5,6,6,7,7,8,8,9,9,10,10,11,11,12,12],"right_children":[2,4,6,-1,8,10,12,14,16,18,20,22,24,-1,-1,-1,-1,-1,-1,-1,-1,-1,-1,-1,-1],"split_conditions":[2E0,1.14E0,1E0,4.983373E-2,2.03E0,4E0,6E0,1E0,2.65E0,3.27E0,5E0,1.8E-1,2.34E0,6.921653E-2,4.3955013E-2,9.951397E-3,2.9728873E-2,-9.311481E-3,-2.3895746E-2,2.9299496E-2,-2.7476812E-2,1.4467316E-2,8.054046E-4,1.4263137E-2,3.918059E-2],"split_indices":[7,7,3,0,0,2,3,3,0,10,2,12,10,0,0,0,0,0,0,0,0,0,0,0,0],"split_type":[0,0,0,0,0,0,0,0,0,0,0,0,0,0,0,0,0,0,0,0,0,0,0,0,0],"sum_hessian":[3.172688E3,3.9332422E2,2.7793638E3,1.2711164E2,2.662126E2,1.8947212E3,8.846426E2,3.395813E1,2.3225446E2,1.5790687E3,3.156524E2,7.87309E2,9.7333565E1,7.469213E0,2.6488916E1,1.04466385E2,1.2778808E2,1.1373464E3,4.417223E2,1.7497742E2,1.4067499E2,2.07209E2,5.8010004E2,4.6494606E1,5.0838955E1],"tree_param":{"num_deleted":"0","num_feature":"33","num_nodes":"25","size_leaf_vector":"1"}},{"base_weights":[-5.9776655E-3,5.544532E-1,-9.106666E-2,8.7352467E-1,3.1417352E-1,-1.07752845E-1,6.6544443E-1,9.3392086E-1,3.1759068E-1,5.8697313E-1,1.5494929E-1,-1.7559591E-1,4.5296624E-2,8.555395E-1,-1.963753E-2,5.2013557E-2,4.0960446E-2,3.707911E-2,-4.2247744E-3,2.4988009E-2,4.7450423E-2,-2.7567072E-2,1.1550478E-2,-3.3625513E-3,-1.591242E-2,1.0299808E-2,-2.013146E-2,2.8895585E-2,6.475358E-2],"categories":[],"categories_nodes":[],"categories_segments":[],"categories_sizes":[],"default_left":[0,0,0,0,0,0,0,0,0,0,0,0,0,0,0,0,0,0,0,0,0,0,0,0,0,0,0,0,0],"id":47,"left_children":[1,3,5,7,9,11,13,15,17,19,21,23,25,27,-1,-1,-1,-1,-1,-1,-1,-1,-1,-1,-1,-1,-1,-1,-1],"loss_changes":[1.5113252E2,3.1753784E1,3.480433E1,5.710037E0,1.0327927E1,2.7969835E1,1.2308561E1,1.1101074E0,3.3096123E0,2.305664E0,8.336998E0,2.8819935E1,5.967543E1,5.446739E0,0E0,0E0,0E0,0E0,0E0,0E0,0E0,0E0,0E0,0E0,0E0,0E0,0E0,0E0,0E0],"parents":[2147483647,0,0,1,1,2,2,3,3,4,4,5,5,6,6,7,7,8,8,9,9,10,10,11,11,12,12,13,13],"right_children":[2,4,6,8,10,12,14,16,18,20,22,24,26,28,-1,-1,-1,-1,-1,-1,-1,-1,-1,-1,-1,-1,-1,-1,-1],"split_conditions":[2.05E0,1.56E0,5E0,1E0,1E0,3E0,1E1,6.7E-1,1.25E0,6.5E-1,2.29E0,2E0,5E0,3E0,-1.963753E-2,5.2013557E-2,4.0960446E-2,3.707911E-2,-4.2247744E-3,2.4988009E-2,4.7450423E-2,-2.7567072E-2,1.1550478E-2,-3.3625513E-3,-1.591242E-2,1.0299808E-2,-2.013146E-2,2.8895585E-2,6.475358E-2],"split_indices":[7,7,4,4,30,2,4,7,7,12,5,2,2,2,0,0,0,0,0,0,0,0,0,0,0,0,0,0,0],"split_type":[0,0,0,0,0,0,0,0,0,0,0,0,0,0,0,0,0,0,0,0,0,0,0,0,0,0,0,0,0],"sum_hessian":[3.1672349E3,4.1676096E2,2.7504739E3,1.778953E2,2.3886565E2,2.6919556E3,5.8518238E1,1.5984949E2,1.8045813E1,8.7044846E1,1.518208E2,1.8650691E3,8.2688654E2,4.9769173E1,8.749066E0,7.876101E1,8.108848E1,8.37267E0,9.673143E0,7.206506E1,1.4979783E1,1.4152533E1,1.3766826E2,1.0608344E3,8.042347E2,6.089555E2,2.1793106E2,3.1921179E1,1.7847994E1],"tree_param":{"num_deleted":"0","num_feature":"33","num_nodes":"29","size_leaf_vector":"1"}},{"base_weights":[-1.3395862E-2,-9.698399E-2,5.8944124E-1,1.3693094E-1,-1.9506048E-1,9.617796E-1,3.8695675E-1,5.3163923E-2,4.9353626E-1,-4.9677357E-1,-1.3904065E-1,5.0751533E-2,8.1506497E-1,2.9577333E-1,8.450929E-1,2.2701347E-2,-1.8513891E-3,3.5981826E-2,-5.192529E-3,5.1256765E-2,-2.8414449E-2,-4.9529322E-3,-2.756977E-2,4.653136E-2,1.4314621E-2,9.660835E-3,4.3313306E-2,4.9401876E-2,-2.3261642E-3],"categories":[],"categories_nodes":[],"categories_segments":[],"categories_sizes":[],"default_left":[0,0,0,0,0,0,0,0,0,0,0,0,0,0,0,0,0,0,0,0,0,0,0,0,0,0,0,0,0],"id":48,"left_children":[1,3,5,7,9,11,13,15,17,19,21,-1,23,25,27,-1,-1,-1,-1,-1,-1,-1,-1,-1,-1,-1,-1,-1,-1],"loss_changes":[1.5894708E2,6.357677E1,2.8587433E1,2.443642E1,3.292623E1,2.2454071E-1,1.0213802E1,2.4033142E1,2.1098763E1,3.3812897E1,2.711308E1,0E0,2.2345905E0,1.2145157E1,5.2765903E0,0E0,0E0,0E0,0E0,0E0,0E0,0E0,0E0,0E0,0E0,0E0,0E0,0E0,0E0],"parents":[2147483647,0,0,1,1,2,2,3,3,4,4,5,5,6,6,7,7,8,8,9,9,10,10,12,12,13,13,14,14],"right_children":[2,4,6,8,10,12,14,16,18,20,22,-1,24,26,28,-1,-1,-1,-1,-1,-1,-1,-1,-1,-1,-1,-1,-1,-1],"split_conditions":[4E0,2.64E0,1.56E0,4E0,1E0,2.5E0,3.3E0,2.115E0,9E-2,-6E-1,5E0,5.0751533E-2,1.14E0,1.2E1,5.6E-1,2.2701347E-2,-1.8513891E-3,3.5981826E-2,-5.192529E-3,5.1256765E-2,-2.8414449E-2,-4.9529322E-3,-2.756977E-2,4.653136E-2,1.4314621E-2,9.660835E-3,4.3313306E-2,4.9401876E-2,-2.3261642E-3],"split_indices":[3,7,7,2,2,5,11,9,15,15,2,0,7,3,15,0,0,0,0,0,0,0,0,0,0,0,0,0,0],"split_type":[0,0,0,0,0,0,0,0,0,0,0,0,0,0,0,0,0,0,0,0,0,0,0,0,0,0,0,0,0],"sum_hessian":[3.1522021E3,2.7690854E3,3.831165E2,8.179227E2,1.9511628E3,1.3363394E2,2.4948254E2,6.632691E2,1.5465363E2,3.0431378E2,1.646849E3,9.370478E1,3.992916E1,2.0944254E2,4.0040024E1,1.2108129E2,5.421878E2,1.12042786E2,4.2610832E1,1.3059611E1,2.9125418E2,1.5024148E3,1.444342E2,3.2144146E1,7.785017E0,1.7866321E2,3.0779327E1,3.4414516E1,5.625507E0],"tree_param":{"num_deleted":"0","num_feature":"33","num_nodes":"29","size_leaf_vector":"1"}},{"base_weights":[5.4747853E-3,-6.95859E-2,5.438209E-1,1.2503502E-1,-1.7777057E-1,9.539275E-1,3.8809845E-1,6.0777307E-1,8.580176E-2,-1.9702013E-1,8.0129063E-1,4.8888158E-2,2.5617186E-2,1.7028758E-1,5.5089307E-1,9.695812E-3,5.754813E-2,-6.947594E-2,4.8571783E-3,-1.146619E-3,-1.4319132E-2,6.395036E-2,2.4556959E-2,-2.1074226E-2,1.9172583E-2,1.5860246E-2,4.0326744E-2],"categories":[],"categories_nodes":[],"categories_segments":[],"categories_sizes":[],"default_left":[0,0,0,0,0,0,0,0,0,0,0,0,0,0,0,0,0,0,0,0,0,0,0,0,0,0,0],"id":49,"left_children":[1,3,5,7,9,11,13,15,17,19,21,-1,-1,23,25,-1,-1,-1,-1,-1,-1,-1,-1,-1,-1,-1,-1],"loss_changes":[1.2649132E2,5.7867123E1,2.409208E1,1.854889E1,3.344433E1,6.014099E-1,9.810165E0,1.6334986E1,1.5353111E1,2.695256E1,4.4469376E0,0E0,0E0,1.5414555E1,9.266548E0,0E0,0E0,0E0,0E0,0E0,0E0,0E0,0E0,0E0,0E0,0E0,0E0],"parents":[2147483647,0,0,1,1,2,2,3,3,4,4,5,5,6,6,7,7,8,8,9,9,10,10,13,13,14,14],"right_children":[2,4,6,8,10,12,14,16,18,20,22,-1,-1,24,26,-1,-1,-1,-1,-1,-1,-1,-1,-1,-1,-1,-1],"split_conditions":[4E0,2.77E0,1.25E0,-8.6E-1,5E0,1E0,2.58E0,2.59E0,-8.4E-1,-3.4E-1,7E0,4.8888158E-2,2.5617186E-2,5E0,2.585E0,9.695812E-3,5.754813E-2,-6.947594E-2,4.8571783E-3,-1.146619E-3,-1.4319132E-2,6.395036E-2,2.4556959E-2,-2.1074226E-2,1.9172583E-2,1.5860246E-2,4.0326744E-2],"split_indices":[3,0,7,14,4,4,0,0,14,15,4,0,0,3,9,0,0,0,0,0,0,0,0,0,0,0,0],"split_type":[0,0,0,0,0,0,0,0,0,0,0,0,0,0,0,0,0,0,0,0,0,0,0,0,0,0,0],"sum_hessian":[3.1283682E3,2.7463237E3,3.8204443E2,9.8113544E2,1.7651882E3,1.0373222E2,2.7831223E2,7.265647E1,9.08479E2,1.7319349E3,3.3253227E1,9.726772E1,6.4645004E0,1.19916336E2,1.5839589E2,4.2007725E1,3.0648745E1,6.0037947E0,9.024752E2,5.878997E2,1.1440353E3,1.1860718E1,2.139251E1,3.149757E1,8.841877E1,8.3921814E1,7.4474075E1],"tree_param":{"num_deleted":"0","num_feature":"33","num_nodes":"27","size_leaf_vector":"1"}},{"base_weights":[1.5241237E-2,-7.334431E-2,