{"learner":{"attributes":{"scikit_learn":"{\"_estimator_type\": \"classifier\"}"},"feature_names":["OLD_GPA_M6","GENDER_ENCODED","FAC_ENCODED","COUNT_F","COUNT_WIU","TERM1","TERM1_missing","avg_gpa_up_to_now","min_gpa_up_to_now","max_gpa_up_to_now","gpa_range","gpa_std","improvement_from_hs","has_F","multiple_F","excessive_F","has_WIU","low_gpa","very_low_gpa","critical_gpa","early_warning","term1_low","term1_excellent","performance_category","risk_score","current_term"],"feature_types":["float","int","int","int","int","float","int","float","float","float","float","float","float","int","int","int","int","int","int","int","int","int","int","int","int","int"],"gradient_booster":{"model":{"cats":{"enc":[],"feature_segments":[],"sorted_idx":[]},"gbtree_model_param":{"num_parallel_tree":"1","num_trees":"100"},"iteration_indptr":[0,1,2,3,4,5,6,7,8,9,10,11,12,13,14,15,16,17,18,19,20,21,22,23,24,25,26,27,28,29,30,31,32,33,34,35,36,37,38,39,40,41,42,43,44,45,46,47,48,49,50,51,52,53,54,55,56,57,58,59,60,61,62,63,64,65,66,67,68,69,70,71,72,73,74,75,76,77,78,79,80,81,82,83,84,85,86,87,88,89,90,91,92,93,94,95,96,97,98,99,100],"tree_info":[0,0,0,0,0,0,0,0,0,0,0,0,0,0,0,0,0,0,0,0,0,0,0,0,0,0,0,0,0,0,0,0,0,0,0,0,0,0,0,0,0,0,0,0,0,0,0,0,0,0,0,0,0,0,0,0,0,0,0,0,0,0,0,0,0,0,0,0,0,0,0,0,0,0,0,0,0,0,0,0,0,0,0,0,0,0,0,0,0,0,0,0,0,0,0,0,0,0,0,0],"trees":[{"base_weights":[9.2817405E-3,-8.547245E-1,1.5716568E0,-1.0473542E0,2.0964168E-1,1.1212255E0,1.8639368E0,-1.0846197E-1,1.0484449E-1,4.9989164E-2,3.1002308E-3,8.419829E-2,1.3182804E-1,1.8944536E-1,1.6288272E-1],"categories":[],"categories_nodes":[],"categories_segments":[],"categories_sizes":[],"default_left":[0,0,0,0,0,0,0,0,0,0,0,0,0,0,0],"id":0,"left_children":[1,3,5,7,9,11,13,-1,-1,-1,-1,-1,-1,-1,-1],"loss_changes":[8.416539E3,8.233574E2,2.9020117E2,2.6665454E2,3.1928179E1,4.710498E1,6.563965E0,0E0,0E0,0E0,0E0,0E0,0E0,0E0,0E0],"parents":[2147483647,0,0,1,1,2,2,3,3,4,4,5,5,6,6],"right_children":[2,4,6,8,10,12,14,-1,-1,-1,-1,-1,-1,-1,-1],"split_conditions":[2E0,1E0,5E0,3E0,2E0,3E0,1E0,-1.0846197E-1,1.0484449E-1,4.9989164E-2,3.1002308E-3,8.419829E-2,1.3182804E-1,1.8944536E-1,1.6288272E-1],"split_indices":[3,3,3,4,2,3,4,0,0,0,0,0,0,0,0],"split_type":[0,0,0,0,0,0,0,0,0,0,0,0,0,0,0],"sum_hessian":[6.2329307E3,4.013748E3,2.2191826E3,3.3986704E3,6.150778E2,8.752202E2,1.3439625E3,3.3397683E3,5.8901943E1,2.3364972E2,3.8142807E2,3.6427957E2,5.1094064E2,1.1833127E3,1.6064972E2],"tree_param":{"num_deleted":"0","num_feature":"26","num_nodes":"15","size_leaf_vector":"1"}},{"base_weights":[1.2930076E-3,-7.8351086E-1,1.4282563E0,-9.518284E-1,1.4908502E-1,7.382906E-1,1.5607631E0,-1.4564085E-1,-8.176142E-2,8.137819E-3,7.7218905E-2,9.649045E-2,5.9608694E-2,1.6005678E-1,1.2954108E-1],"categories":[],"categories_nodes":[],"categories_segments":[],"categories_sizes":[],"default_left":[0,0,0,0,0,0,0,0,0,0,0,0,0,0,0],"id":1,"left_children":[1,3,5,7,9,11,13,-1,-1,-1,-1,-1,-1,-1,-1],"loss_changes":[6.961732E3,6.297058E2,2.005127E2,2.289021E2,2.5843018E1,1.09379425E1,1.7462402E1,0E0,0E0,0E0,0E0,0E0,0E0,0E0,0E0],"parents":[2147483647,0,0,1,1,2,2,3,3,4,4,5,5,6,6],"right_children":[2,4,6,8,10,12,14,-1,-1,-1,-1,-1,-1,-1,-1],"split_conditions":[1E0,1E0,1E0,1E0,8.1E-1,-3.9E-1,1E0,-1.4564085E-1,-8.176142E-2,8.137819E-3,7.7218905E-2,9.649045E-2,5.9608694E-2,1.6005678E-1,1.2954108E-1],"split_indices":[14,13,15,2,12,12,4,0,0,0,0,0,0,0,0],"split_type":[0,0,0,0,0,0,0,0,0,0,0,0,0,0,0],"sum_hessian":[6.214464E3,4.0096694E3,2.2047944E3,3.3966177E3,6.1305176E2,3.5626852E2,1.8485259E3,7.115783E2,2.6850393E3,5.5398596E2,5.9065823E1,1.3513454E2,2.2113397E2,1.6030281E3,2.4549779E2],"tree_param":{"num_deleted":"0","num_feature":"26","num_nodes":"15","size_leaf_vector":"1"}},{"base_weights":[-9.929889E-4,-7.1320295E-1,1.3027369E0,-8.7600017E-1,1.6104032E-1,7.8305656E-1,1.5228314E0,-9.127824E-2,1.0943668E-1,6.167179E-2,8.148524E-3,1.1642531E-1,6.9873005E-2,1.19160645E-1,1.5753551E-1],"categories":[],"categories_nodes":[],"categories_segments":[],"categories_sizes":[],"default_left":[0,0,0,0,0,0,0,0,0,0,0,0,0,0,0],"id":2,"left_children":[1,3,5,7,9,11,13,-1,-1,-1,-1,-1,-1,-1,-1],"loss_changes":[5.6980586E3,5.649745E2,2.4678198E2,2.4348315E2,2.2565256E1,1.9986755E1,2.4600098E1,0E0,0E0,0E0,0E0,0E0,0E0,0E0,0E0],"parents":[2147483647,0,0,1,1,2,2,3,3,4,4,5,5,6,6],"right_children":[2,4,6,8,10,12,14,-1,-1,-1,-1,-1,-1,-1,-1],"split_conditions":[2E0,1E0,4E0,3E0,2.14E0,1.94E0,5E0,-9.127824E-2,1.0943668E-1,6.167179E-2,8.148524E-3,1.1642531E-1,6.9873005E-2,1.19160645E-1,1.5753551E-1],"split_indices":[3,3,3,4,7,8,3,0,0,0,0,0,0,0,0],"split_type":[0,0,0,0,0,0,0,0,0,0,0,0,0,0,0],"sum_hessian":[6.134648E3,3.9676355E3,2.1670125E3,3.3447844E3,6.2285095E2,6.46076E2,1.5209365E3,3.284016E3,6.0768303E1,9.157475E1,5.312762E2,1.14712715E2,5.313633E2,2.1141258E2,1.3095239E3],"tree_param":{"num_deleted":"0","num_feature":"26","num_nodes":"15","size_leaf_vector":"1"}},{"base_weights":[4.149984E-3,-6.363717E-1,1.2094893E0,-7.849486E-1,1.6055642E-1,1.4232445E0,1.0954738E0,-8.201737E-2,1.0346331E-1,4.5933317E-2,3.3616328E-3,1.5198354E-1,1.3051473E-1,1.14773236E-1,8.192303E-2],"categories":[],"categories_nodes":[],"categories_segments":[],"categories_sizes":[],"default_left":[0,0,0,0,0,0,0,0,0,0,0,0,0,0,0],"id":3,"left_children":[1,3,5,7,9,11,13,-1,-1,-1,-1,-1,-1,-1,-1],"loss_changes":[4.668284E3,4.67641E2,4.957715E1,2.1416602E2,2.3548004E1,6.303833E0,1.887622E1,0E0,0E0,0E0,0E0,0E0,0E0,0E0,0E0],"parents":[2147483647,0,0,1,1,2,2,3,3,4,4,5,5,6,6],"right_children":[2,4,6,8,10,12,14,-1,-1,-1,-1,-1,-1,-1,-1],"split_conditions":[1E0,1E0,2.03E0,3E0,2.51E0,1.55E0,1E0,-8.201737E-2,1.0346331E-1,4.5933317E-2,3.3616328E-3,1.5198354E-1,1.3051473E-1,1.14773236E-1,8.192303E-2],"split_indices":[14,13,5,4,0,5,4,0,0,0,0,0,0,0,0],"split_type":[0,0,0,0,0,0,0,0,0,0,0,0,0,0,0],"sum_hessian":[6.044643E3,3.9474346E3,2.0972087E3,3.3271462E3,6.202884E2,7.2552374E2,1.3716849E3,3.2644983E3,6.2647823E1,1.8417657E2,4.361118E2,3.925719E2,3.3295184E2,1.1508219E3,2.2086296E2],"tree_param":{"num_deleted":"0","num_feature":"26","num_nodes":"15","size_leaf_vector":"1"}},{"base_weights":[-2.3876368E-3,-5.814234E-1,1.1123927E0,-7.212179E-1,1.5430018E-1,4.8548532E-1,1.2418855E0,-1.2156051E-1,-5.932079E-2,2.2074278E-2,-6.0227998E-2,1.2933525E-1,4.3708246E-2,1.2811725E-1,9.679375E-2],"categories":[],"categories_nodes":[],"categories_segments":[],"categories_sizes":[],"default_left":[0,0,0,0,0,0,0,0,0,0,0,0,0,0,0],"id":4,"left_children":[1,3,5,7,9,11,13,-1,-1,-1,-1,-1,-1,-1,-1],"loss_changes":[3.8187356E3,4.0056482E2,1.6357446E2,2.0635583E2,3.1426085E1,1.30373535E1,1.679248E1,0E0,0E0,0E0,0E0,0E0,0E0,0E0,0E0],"parents":[2147483647,0,0,1,1,2,2,3,3,4,4,5,5,6,6],"right_children":[2,4,6,8,10,12,14,-1,-1,-1,-1,-1,-1,-1,-1],"split_conditions":[1E0,1E0,1E0,1E0,5E0,1.42E0,1E0,-1.2156051E-1,-5.932079E-2,2.2074278E-2,-6.0227998E-2,1.2933525E-1,4.3708246E-2,1.2811725E-1,9.679375E-2],"split_indices":[14,13,15,2,2,5,4,0,0,0,0,0,0,0,0],"split_type":[0,0,0,0,0,0,0,0,0,0,0,0,0,0,0],"sum_hessian":[5.913953E3,3.8925667E3,2.0213865E3,3.271055E3,6.2151184E2,3.4686664E2,1.6745199E3,6.710187E2,2.6000361E3,5.719883E2,4.952356E1,1.8153597E1,3.2871304E2,1.4612811E3,2.1323883E2],"tree_param":{"num_deleted":"0","num_feature":"26","num_nodes":"15","size_leaf_vector":"1"}},{"base_weights":[3.930581E-3,-5.1354146E-1,1.0361526E0,-6.427746E-1,1.5680347E-1,5.3840804E-1,1.2619123E0,-3.889372E-2,-9.0710215E-2,1.1912293E-2,1.0751448E-1,9.008795E-2,4.5592576E-2,1.0365105E-1,1.3467823E-1],"categories":[],"categories_nodes":[],"categories_segments":[],"categories_sizes":[],"default_left":[0,0,0,0,0,0,0,0,0,0,0,0,0,0,0],"id":5,"left_children":[1,3,5,7,9,11,13,-1,-1,-1,-1,-1,-1,-1,-1],"loss_changes":[3.1213435E3,3.3729614E2,2.1858862E2,2.1861023E2,2.1669004E1,1.784523E1,2.427002E1,0E0,0E0,0E0,0E0,0E0,0E0,0E0,0E0],"parents":[2147483647,0,0,1,1,2,2,3,3,4,4,5,5,6,6],"right_children":[2,4,6,8,10,12,14,-1,-1,-1,-1,-1,-1,-1,-1],"split_conditions":[2E0,1E0,4E0,3.22E0,3E0,1.94E0,6E0,-3.889372E-2,-9.0710215E-2,1.1912293E-2,1.0751448E-1,9.008795E-2,4.5592576E-2,1.0365105E-1,1.3467823E-1],"split_indices":[3,3,3,5,4,5,3,0,0,0,0,0,0,0,0],"split_type":[0,0,0,0,0,0,0,0,0,0,0,0,0,0,0],"sum_hessian":[5.8416187E3,3.891327E3,1.9502919E3,3.2624192E3,6.289077E2,6.096185E2,1.3406733E3,1.6654937E3,1.5969254E3,6.052052E2,2.3702518E1,1.11167305E2,4.984512E2,3.7033438E2,9.703389E2],"tree_param":{"num_deleted":"0","num_feature":"26","num_nodes":"15","size_leaf_vector":"1"}},{"base_weights":[6.8902114E-4,-4.8095748E-1,9.777163E-1,-5.941207E-1,1.0642584E-1,5.891868E-1,1.2553577E0,-3.661556E-2,-8.406546E-2,2.9449066E-2,-5.4254862E-3,4.0903505E-2,7.252051E-2,1.2831207E-1,1.04959324E-1],"categories":[],"categories_nodes":[],"categories_segments":[],"categories_sizes":[],"default_left":[0,0,0,0,0,0,0,0,0,0,0,0,0,0,0],"id":6,"left_children":[1,3,5,7,9,11,13,-1,-1,-1,-1,-1,-1,-1,-1],"loss_changes":[2.675114E3,2.5315778E2,2.0174194E2,1.7912671E2,1.8628006E1,1.8919067E1,4.9022217E0,0E0,0E0,0E0,0E0,0E0,0E0,0E0,0E0],"parents":[2147483647,0,0,1,1,2,2,3,3,4,4,5,5,6,6],"right_children":[2,4,6,8,10,12,14,-1,-1,-1,-1,-1,-1,-1,-1],"split_conditions":[2E0,1E0,5E0,3.25E0,1E0,3E0,1E0,-3.661556E-2,-8.406546E-2,2.9449066E-2,-5.4254862E-3,4.0903505E-2,7.252051E-2,1.2831207E-1,1.04959324E-1],"split_indices":[3,3,3,5,1,3,4,0,0,0,0,0,0,0,0],"split_type":[0,0,0,0,0,0,0,0,0,0,0,0,0,0,0],"sum_hessian":[5.682696E3,3.8066394E3,1.8760565E3,3.191722E3,6.1491736E2,7.8318915E2,1.0928674E3,1.659604E3,1.532118E3,2.8293277E2,3.319846E2,3.3865668E2,4.4453247E2,9.583288E2,1.3453859E2],"tree_param":{"num_deleted":"0","num_feature":"26","num_nodes":"15","size_leaf_vector":"1"}},{"base_weights":[-7.519746E-4,-4.503446E-1,9.171909E-1,-1.5943529E-1,-6.674156E-1,5.3180724E-1,1.2034986E0,4.9989287E-2,-2.3608906E-2,-7.401654E-2,6.624739E-3,8.401957E-2,4.5862604E-2,1.23078905E-1,1.0071701E-1],"categories":[],"categories_nodes":[],"categories_segments":[],"categories_sizes":[],"default_left":[0,0,0,0,0,0,0,0,0,0,0,0,0,0,0],"id":7,"left_children":[1,3,5,7,9,11,13,-1,-1,-1,-1,-1,-1,-1,-1],"loss_changes":[2.3033838E3,2.3646814E2,2.0181958E2,8.109375E1,1.1454346E2,1.730626E1,4.3967285E0,0E0,0E0,0E0,0E0,0E0,0E0,0E0,0E0],"parents":[2147483647,0,0,1,1,2,2,3,3,4,4,5,5,6,6],"right_children":[2,4,6,8,10,12,14,-1,-1,-1,-1,-1,-1,-1,-1],"split_conditions":[2E0,3.05E0,5E0,2.14E0,1E0,1.94E0,1E0,4.9989287E-2,-2.3608906E-2,-7.401654E-2,6.624739E-3,8.401957E-2,4.5862604E-2,1.23078905E-1,1.0071701E-1],"split_indices":[3,7,3,5,3,5,4,0,0,0,0,0,0,0,0],"split_type":[0,0,0,0,0,0,0,0,0,0,0,0,0,0,0],"sum_hessian":[5.5792495E3,3.7453506E3,1.8338988E3,1.6012108E3,2.1441396E3,7.8291534E2,1.0509835E3,1.6619379E2,1.435017E3,1.9507001E3,1.934396E2,1.481451E2,6.347702E2,9.180954E2,1.3288815E2],"tree_param":{"num_deleted":"0","num_feature":"26","num_nodes":"15","size_leaf_vector":"1"}},{"base_weights":[-1.295203E-3,-4.1349292E-1,8.678801E-1,-2.9782172E-2,-5.736984E-1,5.107753E-1,1.1459436E0,5.738598E-2,-9.044717E-3,-6.057344E-2,1.033262E-1,5.59006E-2,1.4722685E-3,1.1756331E-1,9.5014535E-2],"categories":[],"categories_nodes":[],"categories_segments":[],"categories_sizes":[],"default_left":[0,0,0,0,0,0,0,0,0,0,0,0,0,0,0],"id":8,"left_children":[1,3,5,7,9,11,13,-1,-1,-1,-1,-1,-1,-1,-1],"loss_changes":[1.9598048E3,2.280763E2,1.7414563E2,4.011213E1,1.353786E2,1.8465393E1,4.6293945E0,0E0,0E0,0E0,0E0,0E0,0E0,0E0,0E0],"parents":[2147483647,0,0,1,1,2,2,3,3,4,4,5,5,6,6],"right_children":[2,4,6,8,10,12,14,-1,-1,-1,-1,-1,-1,-1,-1],"split_conditions":[2E0,2.77E0,5E0,2.12E0,3E0,6.1E-1,1E0,5.738598E-2,-9.044717E-3,-6.057344E-2,1.033262E-1,5.59006E-2,1.4722685E-3,1.1756331E-1,9.5014535E-2],"split_indices":[3,0,3,5,4,12,4,0,0,0,0,0,0,0,0],"split_type":[0,0,0,0,0,0,0,0,0,0,0,0,0,0,0],"sum_hessian":[5.4681562E3,3.7094912E3,1.7586649E3,1.0929456E3,2.6165457E3,7.711491E2,9.8751587E2,9.903607E1,9.9390955E2,2.5660132E3,5.053238E1,7.026995E2,6.844959E1,8.5314685E2,1.3436902E2],"tree_param":{"num_deleted":"0","num_feature":"26","num_nodes":"15","size_leaf_vector":"1"}},{"base_weights":[1.533392E-3,-3.73524E-1,8.18451E-1,-1.2999075E-2,-5.269339E-1,4.6787786E-1,1.097097E0,2.1822002E-2,-1.4066373E-2,-6.931559E-3,-6.318485E-2,5.1254537E-2,-3.7848258E-3,1.1338872E-1,8.6178735E-2],"categories":[],"categories_nodes":[],"categories_segments":[],"categories_sizes":[],"default_left":[0,0,0,0,0,0,0,0,0,0,0,0,0,0,0],"id":9,"left_children":[1,3,5,7,9,11,13,-1,-1,-1,-1,-1,-1,-1,-1],"loss_changes":[1.6325852E3,2.0196933E2,1.6326733E2,3.223837E1,1.22947205E2,1.6830902E1,7.1031494E0,0E0,0E0,0E0,0E0,0E0,0E0,0E0,0E0],"parents":[2147483647,0,0,1,1,2,2,3,3,4,4,5,5,6,6],"right_children":[2,4,6,8,10,12,14,-1,-1,-1,-1,-1,-1,-1,-1],"split_conditions":[2E0,2.77E0,5E0,2E0,2.78E0,5E0,1E0,2.1822002E-2,-1.4066373E-2,-6.931559E-3,-6.318485E-2,5.1254537E-2,-3.7848258E-3,1.1338872E-1,8.6178735E-2],"split_indices":[3,0,3,2,7,2,16,0,0,0,0,0,0,0,0],"split_type":[0,0,0,0,0,0,0,0,0,0,0,0,0,0,0],"sum_hessian":[5.32644E3,3.6508367E3,1.6756034E3,1.0901011E3,2.5607356E3,7.4321765E2,9.323857E2,3.8752612E2,7.0257495E2,4.7789688E2,2.0828386E3,6.828891E2,6.0328594E1,8.0301715E2,1.2936855E2],"tree_param":{"num_deleted":"0","num_feature":"26","num_nodes":"15","size_leaf_vector":"1"}},{"base_weights":[8.494375E-3,-2.8382784E-1,8.993406E-1,-4.2712787E-1,1.7066605E-1,5.5734515E-1,1.0581948E0,-4.5931127E-2,1.08464815E-1,3.461214E-2,5.8778296E-3,5.0732214E-2,1.0783245E-1,8.400935E-2,1.0982598E-1],"categories":[],"categories_nodes":[],"categories_segments":[],"categories_sizes":[],"default_left":[0,0,0,0,0,0,0,0,0,0,0,0,0,0,0],"id":10,"left_children":[1,3,5,7,9,11,13,-1,-1,-1,-1,-1,-1,-1,-1],"loss_changes":[1.3575559E3,2.557113E2,6.938269E1,1.4570569E2,1.8464914E1,1.0154091E1,6.7525635E0,0E0,0E0,0E0,0E0,0E0,0E0,0E0,0E0],"parents":[2147483647,0,0,1,1,2,2,3,3,4,4,5,5,6,6],"right_children":[2,4,6,8,10,12,14,-1,-1,-1,-1,-1,-1,-1,-1],"split_conditions":[3E0,1E0,5E0,3E0,2.52E0,3.47E0,6E0,-4.5931127E-2,1.08464815E-1,3.461214E-2,5.8778296E-3,5.0732214E-2,1.0783245E-1,8.400935E-2,1.0982598E-1],"split_indices":[3,3,3,4,7,0,3,0,0,0,0,0,0,0,0],"split_type":[0,0,0,0,0,0,0,0,0,0,0,0,0,0,0],"sum_hessian":[5.211085E3,3.9241094E3,1.2869756E3,2.9834883E3,9.4062115E2,4.0961926E2,8.773563E2,2.92198E3,6.1508278E1,3.6545078E2,5.751704E2,3.7553516E2,3.4084118E1,1.395667E2,7.377897E2],"tree_param":{"num_deleted":"0","num_feature":"26","num_nodes":"15","size_leaf_vector":"1"}},{"base_weights":[4.3885536E-3,-3.106559E-1,7.3260754E-1,-8.1420565E-1,-2.0919201E-1,3.363836E-1,9.607854E-1,-8.777778E-2,4.7464766E-2,-2.4052901E-2,9.4458126E-2,3.8649693E-2,-2.9313952E-2,7.462431E-2,1.0542015E-1],"categories":[],"categories_nodes":[],"categories_segments":[],"categories_sizes":[],"default_left":[0,0,0,0,0,0,0,0,0,0,0,0,0,0,0],"id":11,"left_children":[1,3,5,7,9,11,13,-1,-1,-1,-1,-1,-1,-1,-1],"loss_changes":[1.1702777E3,1.8174872E2,1.3894324E2,4.9314453E1,1.07422714E2,1.792036E1,1.8792908E1,0E0,0E0,0E0,0E0,0E0,0E0,0E0,0E0],"parents":[2147483647,0,0,1,1,2,2,3,3,4,4,5,5,6,6],"right_children":[2,4,6,8,10,12,14,-1,-1,-1,-1,-1,-1,-1,-1],"split_conditions":[2E0,1E0,4E0,1E0,3E0,5E0,6E0,-8.777778E-2,4.7464766E-2,-2.4052901E-2,9.4458126E-2,3.8649693E-2,-2.9313952E-2,7.462431E-2,1.0542015E-1],"split_indices":[3,2,3,3,4,2,3,0,0,0,0,0,0,0,0],"split_type":[0,0,0,0,0,0,0,0,0,0,0,0,0,0,0],"sum_hessian":[5.0990063E3,3.5596099E3,1.5393965E3,5.957867E2,2.9638232E3,5.634525E2,9.75944E2,5.680851E2,2.7701597E1,2.8862236E3,7.75996E1,5.222637E2,4.1188858E1,2.9876947E2,6.771745E2],"tree_param":{"num_deleted":"0","num_feature":"26","num_nodes":"15","size_leaf_vector":"1"}},{"base_weights":[6.7064976E-3,-2.3396745E-1,8.1022805E-1,-3.6481485E-1,1.723559E-1,4.7176594E-1,9.812632E-1,-8.446549E-2,-2.5263412E-2,2.1514492E-2,-2.9332263E-2,4.182353E-2,1.01242915E-1,1.02680825E-1,6.919024E-2],"categories":[],"categories_nodes":[],"categories_segments":[],"categories_sizes":[],"default_left":[0,0,0,0,0,0,0,0,0,0,0,0,0,0,0],"id":12,"left_children":[1,3,5,7,9,11,13,-1,-1,-1,-1,-1,-1,-1,-1],"loss_changes":[9.680035E2,2.0485124E2,6.63241E1,1.566387E2,1.8772247E1,1.08413925E1,9.377808E0,0E0,0E0,0E0,0E0,0E0,0E0,0E0,0E0],"parents":[2147483647,0,0,1,1,2,2,3,3,4,4,5,5,6,6],"right_children":[2,4,6,8,10,12,14,-1,-1,-1,-1,-1,-1,-1,-1],"split_conditions":[3E0,1E0,5E0,1E0,5E0,3.47E0,1E0,-8.446549E-2,-2.5263412E-2,2.1514492E-2,-2.9332263E-2,4.182353E-2,1.01242915E-1,1.02680825E-1,6.919024E-2],"split_indices":[3,3,3,2,2,0,4,0,0,0,0,0,0,0,0],"split_type":[0,0,0,0,0,0,0,0,0,0,0,0,0,0,0],"sum_hessian":[5.003552E3,3.8508416E3,1.1527103E3,2.9129067E3,9.379347E2,3.8821954E2,7.6449084E2,5.5072314E2,2.3621836E3,8.594975E2,7.843719E1,3.548588E2,3.336075E1,6.583231E2,1.06167725E2],"tree_param":{"num_deleted":"0","num_feature":"26","num_nodes":"15","size_leaf_vector":"1"}},{"base_weights":[-1.7990288E-3,-2.2833127E-1,7.7575934E-1,-3.3781648E-1,1.08947895E-1,4.3329033E-1,9.533295E-1,-7.491186E-2,-2.4469336E-2,1.4997362E-2,-3.3106115E-2,6.789728E-2,2.6164988E-2,1.1272632E-1,8.883137E-2],"categories":[],"categories_nodes":[],"categories_segments":[],"categories_sizes":[],"default_left":[0,0,0,0,0,0,0,0,0,0,0,0,0,0,0],"id":13,"left_children":[1,3,5,7,9,11,13,-1,-1,-1,-1,-1,-1,-1,-1],"loss_changes":[8.663842E2,1.4069073E2,6.707025E1,1.0996387E2,1.6913372E1,1.5878021E1,7.253235E0,0E0,0E0,0E0,0E0,0E0,0E0,0E0,0E0],"parents":[2147483647,0,0,1,1,2,2,3,3,4,4,5,5,6,6],"right_children":[2,4,6,8,10,12,14,-1,-1,-1,-1,-1,-1,-1,-1],"split_conditions":[3E0,1E0,5E0,1E0,5E0,-4.2E-1,1.64E0,-7.491186E-2,-2.4469336E-2,1.4997362E-2,-3.3106115E-2,6.789728E-2,2.6164988E-2,1.1272632E-1,8.883137E-2],"split_indices":[3,3,3,2,2,12,5,0,0,0,0,0,0,0,0],"split_type":[0,0,0,0,0,0,0,0,0,0,0,0,0,0,0],"sum_hessian":[4.9166626E3,3.8079646E3,1.1086981E3,2.874774E3,9.3319073E2,3.797455E2,7.289526E2,5.294183E2,2.3453555E3,8.542052E2,7.8985535E1,1.5496959E2,2.2477592E2,1.9389543E2,5.350571E2],"tree_param":{"num_deleted":"0","num_feature":"26","num_nodes":"15","size_leaf_vector":"1"}},{"base_weights":[1.4788009E-2,-1.789718E-1,7.227418E-1,8.274684E-2,-3.2620725E-1,1.024378E0,6.4025694E-1,6.2294353E-2,2.478446E-3,-1.4344736E-2,-5.190402E-2,1.0386437E-1,3.076588E-2,7.091992E-2,2.9144311E-2],"categories":[],"categories_nodes":[],"categories_segments":[],"categories_sizes":[],"default_left":[0,0,0,0,0,0,0,0,0,0,0,0,0,0,0],"id":14,"left_children":[1,3,5,7,9,11,13,-1,-1,-1,-1,-1,-1,-1,-1],"loss_changes":[6.6092584E2,1.4579913E2,2.5103577E1,4.2654083E1,8.525244E1,1.9365234E0,1.9408539E1,0E0,0E0,0E0,0E0,0E0,0E0,0E0,0E0],"parents":[2147483647,0,0,1,1,2,2,3,3,4,4,5,5,6,6],"right_children":[2,4,6,8,10,12,14,-1,-1,-1,-1,-1,-1,-1,-1],"split_conditions":[1E0,2.83E0,1.64E0,2.03E0,3.24E0,4E0,1E0,6.2294353E-2,2.478446E-3,-1.4344736E-2,-5.190402E-2,1.0386437E-1,3.076588E-2,7.091992E-2,2.9144311E-2],"split_indices":[15,0,5,0,5,4,4,0,0,0,0,0,0,0,0],"split_type":[0,0,0,0,0,0,0,0,0,0,0,0,0,0,0],"sum_hessian":[4.81625E3,3.7819229E3,1.0343269E3,1.3617607E3,2.420162E3,2.1965576E2,8.1467114E2,1.3101184E2,1.2307489E3,1.2434297E3,1.1767325E3,2.1492863E2,4.7271385E0,6.793634E2,1.3530775E2],"tree_param":{"num_deleted":"0","num_feature":"26","num_nodes":"15","size_leaf_vector":"1"}},{"base_weights":[1.6528416E-3,-1.5950893E-1,8.0986637E-1,-2.9386258E-1,1.7071731E-1,5.4278475E-1,9.3374336E-1,-7.367502E-2,-1.9748615E-2,2.127253E-2,-2.9436732E-2,6.4492434E-2,-8.595007E-3,9.75162E-2,6.953478E-2],"categories":[],"categories_nodes":[],"categories_segments":[],"categories_sizes":[],"default_left":[0,0,0,0,0,0,0,0,0,0,0,0,0,0,0],"id":15,"left_children":[1,3,5,7,9,11,13,-1,-1,-1,-1,-1,-1,-1,-1],"loss_changes":[6.1695856E2,1.7526225E2,2.554712E1,1.19687195E2,2.2387875E1,1.6232368E1,4.620056E0,0E0,0E0,0E0,0E0,0E0,0E0,0E0,0E0],"parents":[2147483647,0,0,1,1,2,2,3,3,4,4,5,5,6,6],"right_children":[2,4,6,8,10,12,14,-1,-1,-1,-1,-1,-1,-1,-1],"split_conditions":[4E0,1E0,6E0,1E0,5E0,1E0,1E0,-7.367502E-2,-1.9748615E-2,2.127253E-2,-2.9436732E-2,6.4492434E-2,-8.595007E-3,9.75162E-2,6.953478E-2],"split_indices":[3,3,3,2,2,4,4,0,0,0,0,0,0,0,0],"split_type":[0,0,0,0,0,0,0,0,0,0,0,0,0,0,0],"sum_hessian":[4.734621E3,3.948144E3,7.864768E2,2.8064434E3,1.1417007E3,2.509038E2,5.35573E2,5.003757E2,2.3060676E3,1.0476189E3,9.4081825E1,2.1581787E2,3.5085922E1,4.5366333E2,8.190966E1],"tree_param":{"num_deleted":"0","num_feature":"26","num_nodes":"15","size_leaf_vector":"1"}},{"base_weights":[4.427296E-3,-1.4101002E-1,7.7469367E-1,-2.646505E-1,1.5393297E-1,5.2712035E-1,8.9947367E-1,-6.6160046E-2,-1.8033585E-2,4.951454E-2,1.0687509E-2,6.1939448E-2,5.0211423E-3,9.515353E-2,6.668028E-2],"categories":[],"categories_nodes":[],"categories_segments":[],"categories_sizes":[],"default_left":[0,0,0,0,0,0,0,0,0,0,0,0,0,0,0],"id":16,"left_children":[1,3,5,7,9,11,13,-1,-1,-1,-1,-1,-1,-1,-1],"loss_changes":[5.2027966E2,1.4250555E2,2.2312988E1,9.202356E1,1.848592E1,1.0953117E1,5.2891846E0,0E0,0E0,0E0,0E0,0E0,0E0,0E0,0E0],"parents":[2147483647,0,0,1,1,2,2,3,3,4,4,5,5,6,6],"right_children":[2,4,6,8,10,12,14,-1,-1,-1,-1,-1,-1,-1,-1],"split_conditions":[4E0,1E0,6E0,1E0,1.94E0,1E0,2.4E-1,-6.6160046E-2,-1.8033585E-2,4.951454E-2,1.0687509E-2,6.1939448E-2,5.0211423E-3,9.515353E-2,6.668028E-2],"split_indices":[3,3,3,2,5,4,12,0,0,0,0,0,0,0,0],"split_type":[0,0,0,0,0,0,0,0,0,0,0,0,0,0,0],"sum_hessian":[4.6423228E3,3.9056895E3,7.366332E2,2.752106E3,1.1535835E3,2.4860522E2,4.8802792E2,4.8095285E2,2.271153E3,1.3865884E2,1.0149247E3,2.0805182E2,4.055341E1,3.962702E2,9.175772E1],"tree_param":{"num_deleted":"0","num_feature":"26","num_nodes":"15","size_leaf_vector":"1"}},{"base_weights":[3.5222736E-3,-1.305565E-1,7.464652E-1,-2.5149995E-1,1.5507376E-1,4.889178E-1,8.790559E-1,6.058008E-3,-3.7059274E-2,1.9233828E-2,-2.3232615E-2,-3.967486E-3,5.7907343E-2,9.267053E-2,6.0210753E-2],"categories":[],"categories_nodes":[],"categories_segments":[],"categories_sizes":[],"default_left":[0,0,0,0,0,0,0,0,0,0,0,0,0,0,0],"id":17,"left_children":[1,3,5,7,9,11,13,-1,-1,-1,-1,-1,-1,-1,-1],"loss_changes":[4.5367374E2,1.3331819E2,2.334674E1,1.0077435E2,1.6621765E1,1.1407158E1,5.4910583E0,0E0,0E0,0E0,0E0,0E0,0E0,0E0,0E0],"parents":[2147483647,0,0,1,1,2,2,3,3,4,4,5,5,6,6],"right_children":[2,4,6,8,10,12,14,-1,-1,-1,-1,-1,-1,-1,-1],"split_conditions":[4E0,1E0,6E0,2.77E0,5E0,2.22E0,1E0,6.058008E-3,-3.7059274E-2,1.9233828E-2,-2.3232615E-2,-3.967486E-3,5.7907343E-2,9.267053E-2,6.0210753E-2],"split_indices":[3,3,3,0,2,0,4,0,0,0,0,0,0,0,0],"split_type":[0,0,0,0,0,0,0,0,0,0,0,0,0,0,0],"sum_hessian":[4.5523906E3,3.8571208E3,6.9526965E2,2.7098274E3,1.1472935E3,2.3788452E2,4.573851E2,7.486079E2,1.9612195E3,1.0470771E3,1.00216286E2,3.47429E1,2.0314163E2,3.882415E2,6.914363E1],"tree_param":{"num_deleted":"0","num_feature":"26","num_nodes":"15","size_leaf_vector":"1"}},{"base_weights":[1.4599024E-2,-1.02718785E-1,6.9993687E-1,-1.2714124E-1,9.9107015E-1,4.5085654E-1,8.271056E-1,-3.1941596E-3,-3.871121E-2,1.2635405E-1,-1.1478847E-1,5.53023E-2,-8.004783E-3,8.817825E-2,5.2328736E-2],"categories":[],"categories_nodes":[],"categories_segments":[],"categories_sizes":[],"default_left":[0,0,0,0,0,0,0,0,0,0,0,0,0,0,0],"id":18,"left_children":[1,3,5,7,9,11,13,-1,-1,-1,-1,-1,-1,-1,-1],"loss_changes":[3.6278534E2,1.0304404E2,2.0516876E1,9.327879E1,5.0557167E1,1.2253979E1,6.7713013E0,0E0,0E0,0E0,0E0,0E0,0E0,0E0,0E0],"parents":[2147483647,0,0,1,1,2,2,3,3,4,4,5,5,6,6],"right_children":[2,4,6,8,10,12,14,-1,-1,-1,-1,-1,-1,-1,-1],"split_conditions":[4E0,5E0,6E0,3.39E0,1E1,1E0,1E0,-3.1941596E-3,-3.871121E-2,1.2635405E-1,-1.1478847E-1,5.53023E-2,-8.004783E-3,8.817825E-2,5.2328736E-2],"split_indices":[3,4,3,5,4,4,4,0,0,0,0,0,0,0,0],"split_type":[0,0,0,0,0,0,0,0,0,0,0,0,0,0,0],"sum_hessian":[4.5102305E3,3.8517317E3,6.584987E2,3.7684717E3,8.3259796E1,2.2410274E2,4.3439597E2,2.7591953E3,1.0092765E3,7.421518E1,9.044616E0,1.8790158E2,3.6201157E1,3.665306E2,6.7865364E1],"tree_param":{"num_deleted":"0","num_feature":"26","num_nodes":"15","size_leaf_vector":"1"}},{"base_weights":[-6.452885E-3,-1.19037695E-1,6.7686033E-1,6.3142814E-2,-3.057198E-1,4.118053E-1,8.1457025E-1,4.126225E-3,8.08447E-2,-3.8512696E-2,1.1317449E-2,5.4575928E-2,7.82396E-4,8.731734E-2,4.8435222E-2],"categories":[],"categories_nodes":[],"categories_segments":[],"categories_sizes":[],"default_left":[0,0,0,0,0,0,0,0,0,0,0,0,0,0,0],"id":19,"left_children":[1,3,5,7,9,11,13,-1,-1,-1,-1,-1,-1,-1,-1],"loss_changes":[3.4045087E2,1.2923528E2,2.2514221E1,3.1337677E1,6.2467743E1,1.16878395E1,7.529602E0,0E0,0E0,0E0,0E0,0E0,0E0,0E0,0E0],"parents":[2147483647,0,0,1,1,2,2,3,3,4,4,5,5,6,6],"right_children":[2,4,6,8,10,12,14,-1,-1,-1,-1,-1,-1,-1,-1],"split_conditions":[4E0,3.05E0,6E0,5E0,1E0,1.5E-1,1E0,4.126225E-3,8.08447E-2,-3.8512696E-2,1.1317449E-2,5.4575928E-2,7.82396E-4,8.731734E-2,4.8435222E-2],"split_indices":[3,5,3,4,3,12,4,0,0,0,0,0,0,0,0],"split_type":[0,0,0,0,0,0,0,0,0,0,0,0,0,0,0],"sum_hessian":[4.4233765E3,3.7983706E3,6.2500555E2,1.9226979E3,1.8756729E3,2.1506082E2,4.099447E2,1.8688867E3,5.3811207E1,1.5768416E3,2.9883133E2,1.612439E2,5.3816936E1,3.4676144E2,6.3183273E1],"tree_param":{"num_deleted":"0","num_feature":"26","num_nodes":"15","size_leaf_vector":"1"}},{"base_weights":[-7.582777E-3,-1.0810928E-1,6.248891E-1,-1.3011032E-1,9.374762E-1,3.6135384E-1,7.7428716E-1,8.155616E-3,-2.4118332E-2,1.16968356E-1,-9.3963645E-2,9.340677E-2,2.5106668E-2,8.428051E-2,4.1463494E-2],"categories":[],"categories_nodes":[],"categories_segments":[],"categories_sizes":[],"default_left":[0,0,0,0,0,0,0,0,0,0,0,0,0,0,0],"id":20,"left_children":[1,3,5,7,9,11,13,-1,-1,-1,-1,-1,-1,-1,-1],"loss_changes":[2.7687183E2,8.6557144E1,2.323381E1,8.655797E1,3.4903786E1,1.3531755E1,9.021484E0,0E0,0E0,0E0,0E0,0E0,0E0,0E0,0E0],"parents":[2147483647,0,0,1,1,2,2,3,3,4,4,5,5,6,6],"right_children":[2,4,6,8,10,12,14,-1,-1,-1,-1,-1,-1,-1,-1],"split_conditions":[4E0,5E0,6E0,2.77E0,1E1,-1.05E0,1E0,8.155616E-3,-2.4118332E-2,1.16968356E-1,-9.3963645E-2,9.340677E-2,2.5106668E-2,8.428051E-2,4.1463494E-2],"split_indices":[3,4,3,0,4,12,4,0,0,0,0,0,0,0,0],"split_type":[0,0,0,0,0,0,0,0,0,0,0,0,0,0,0],"sum_hessian":[4.352625E3,3.7564026E3,5.9622205E2,3.6798474E3,7.65552E1,2.1694833E2,3.792737E2,1.2665361E3,2.4133113E3,6.84629E1,8.092301E0,3.3825485E1,1.8312285E2,3.1745203E2,6.1821712E1],"tree_param":{"num_deleted":"0","num_feature":"26","num_nodes":"15","size_leaf_vector":"1"}},{"base_weights":[-4.159006E-3,-2.060038E-1,3.0647087E-1,-2.3417503E-1,9.356584E-1,1.2285529E-1,5.245065E-1,1.5540873E-2,-3.005438E-2,1.1156174E-1,-4.7633007E-2,4.048911E-3,3.0205136E-2,8.69489E-2,4.4519212E-2],"categories":[],"categories_nodes":[],"categories_segments":[],"categories_sizes":[],"default_left":[0,0,0,0,0,0,0,0,0,0,0,0,0,0,0],"id":21,"left_children":[1,3,5,7,9,11,13,-1,-1,-1,-1,-1,-1,-1,-1],"loss_changes":[2.7006647E2,8.41887E1,6.785489E1,6.594786E1,1.6558155E1,1.3599948E1,2.0825546E1,0E0,0E0,0E0,0E0,0E0,0E0,0E0,0E0],"parents":[2147483647,0,0,1,1,2,2,3,3,4,4,5,5,6,6],"right_children":[2,4,6,8,10,12,14,-1,-1,-1,-1,-1,-1,-1,-1],"split_conditions":[1E0,3E0,1E0,2.51E0,1E1,3E0,1.64E0,1.5540873E-2,-3.005438E-2,1.1156174E-1,-4.7633007E-2,4.048911E-3,3.0205136E-2,8.69489E-2,4.4519212E-2],"split_indices":[13,4,15,0,4,2,5,0,0,0,0,0,0,0,0],"split_type":[0,0,0,0,0,0,0,0,0,0,0,0,0,0,0],"sum_hessian":[4.3053403E3,2.6098303E3,1.69551E3,2.5477578E3,6.2072636E1,9.2125323E2,7.742568E2,3.70658E2,2.1770999E3,5.5241913E1,6.830724E0,6.319897E2,2.8926355E2,1.4287051E2,6.313862E2],"tree_param":{"num_deleted":"0","num_feature":"26","num_nodes":"15","size_leaf_vector":"1"}},{"base_weights":[7.5786803E-3,-6.3128665E-2,6.6075426E-1,-1.563422E-1,1.2875639E-1,9.549626E-1,5.65387E-1,-5.425067E-2,-8.09569E-3,1.8269403E-2,-1.3639427E-2,9.731018E-2,-3.458787E-2,6.2885575E-2,1.7050622E-3],"categories":[],"categories_nodes":[],"categories_segments":[],"categories_sizes":[],"default_left":[0,0,0,0,0,0,0,0,0,0,0,0,0,0,0],"id":22,"left_children":[1,3,5,7,9,11,13,-1,-1,-1,-1,-1,-1,-1,-1],"loss_changes":[1.9773663E2,6.912129E1,1.119397E1,7.566479E1,1.8097591E1,2.7180023E0,1.1066101E1,0E0,0E0,0E0,0E0,0E0,0E0,0E0,0E0],"parents":[2147483647,0,0,1,1,2,2,3,3,4,4,5,5,6,6],"right_children":[2,4,6,8,10,12,14,-1,-1,-1,-1,-1,-1,-1,-1],"split_conditions":[5E0,1E0,1.64E0,1E0,1E0,9E0,5E0,-5.425067E-2,-8.09569E-3,1.8269403E-2,-1.3639427E-2,9.731018E-2,-3.458787E-2,6.2885575E-2,1.7050622E-3],"split_indices":[3,3,8,2,4,4,2,0,0,0,0,0,0,0,0],"split_type":[0,0,0,0,0,0,0,0,0,0,0,0,0,0,0],"sum_hessian":[4.279564E3,3.8623606E3,4.1720364E2,2.599679E3,1.2626815E3,9.992406E1,3.1727957E2,4.235956E2,2.1760835E3,1.0495004E3,2.1318114E2,9.879834E1,1.1257182E0,2.8423337E2,3.304622E1],"tree_param":{"num_deleted":"0","num_feature":"26","num_nodes":"15","size_leaf_vector":"1"}},{"base_weights":[1.28678195E-2,-5.561574E-2,6.5977746E-1,2.3128198E-2,-2.924348E-1,9.743635E-1,5.570642E-1,4.434866E-2,-1.5295972E-3,-3.2553967E-2,1.0516577E-1,1.01189174E-1,-2.4695233E-2,6.0557898E-2,1.3681847E-2],"categories":[],"categories_nodes":[],"categories_segments":[],"categories_sizes":[],"default_left":[0,0,0,0,0,0,0,0,0,0,0,0,0,0,0],"id":23,"left_children":[1,3,5,7,9,11,13,-1,-1,-1,-1,-1,-1,-1,-1],"loss_changes":[1.8732048E2,7.130974E1,1.2535812E1,4.6369503E1,4.2800262E1,4.754959E0,6.185814E0,0E0,0E0,0E0,0E0,0E0,0E0,0E0,0E0],"parents":[2147483647,0,0,1,1,2,2,3,3,4,4,5,5,6,6],"right_children":[2,4,6,8,10,12,14,-1,-1,-1,-1,-1,-1,-1,-1],"split_conditions":[5E0,3.39E0,1.64E0,1E0,2E0,4E0,5E0,4.434866E-2,-1.5295972E-3,-3.2553967E-2,1.0516577E-1,1.01189174E-1,-2.4695233E-2,6.0557898E-2,1.3681847E-2],"split_indices":[3,5,5,23,4,4,2,0,0,0,0,0,0,0,0],"split_type":[0,0,0,0,0,0,0,0,0,0,0,0,0,0,0],"sum_hessian":[4.2263696E3,3.822612E3,4.0375778E2,2.8694146E3,9.531974E2,9.729137E1,3.0646643E2,2.3943764E2,2.629977E3,9.310242E2,2.21732E1,9.455731E1,2.734054E0,2.7435306E2,3.211335E1],"tree_param":{"num_deleted":"0","num_feature":"26","num_nodes":"15","size_leaf_vector":"1"}},{"base_weights":[-4.8458534E-3,-6.8349294E-2,6.2057394E-1,4.2546758E-1,-1.0159164E-1,9.454532E-1,5.2069986E-1,5.639062E-2,-1.4284006E-2,-1.8211212E-2,8.8954E-3,9.7530715E-2,-1.5678817E-2,5.7375368E-2,1.1420184E-2],"categories":[],"categories_nodes":[],"categories_segments":[],"categories_sizes":[],"default_left":[0,0,0,0,0,0,0,0,0,0,0,0,0,0,0],"id":24,"left_children":[1,3,5,7,9,11,13,-1,-1,-1,-1,-1,-1,-1,-1],"loss_changes":[1.6549332E2,6.2138996E1,1.1970459E1,1.8866283E1,5.4405727E1,3.0844574E0,6.318245E0,0E0,0E0,0E0,0E0,0E0,0E0,0E0,0E0],"parents":[2147483647,0,0,1,1,2,2,3,3,4,4,5,5,6,6],"right_children":[2,4,6,8,10,12,14,-1,-1,-1,-1,-1,-1,-1,-1],"split_conditions":[5E0,2.03E0,1.64E0,1E0,3E0,4E0,5E0,5.639062E-2,-1.4284006E-2,-1.8211212E-2,8.8954E-3,9.7530715E-2,-1.5678817E-2,5.7375368E-2,1.1420184E-2],"split_indices":[3,5,5,4,2,4,2,0,0,0,0,0,0,0,0],"split_type":[0,0,0,0,0,0,0,0,0,0,0,0,0,0,0],"sum_hessian":[4.164818E3,3.7817227E3,3.830952E2,2.3777423E2,3.5439485E3,8.808807E1,2.9500714E2,1.9120485E2,4.656938E1,2.4912458E3,1.0527025E3,8.587727E1,2.2108023E0,2.6058554E2,3.4421608E1],"tree_param":{"num_deleted":"0","num_feature":"26","num_nodes":"15","size_leaf_vector":"1"}},{"base_weights":[-1.2125843E-3,-5.88495E-2,6.0204923E-1,-7.661164E-2,7.559334E-1,9.6619254E-1,5.081632E-1,-1.6155737E-2,9.908764E-3,9.547434E-2,-8.6564705E-2,9.907343E-2,-8.379954E-3,5.8285084E-2,1.6504085E-2],"categories":[],"categories_nodes":[],"categories_segments":[],"categories_sizes":[],"default_left":[0,0,0,0,0,0,0,0,0,0,0,0,0,0,0],"id":25,"left_children":[1,3,5,7,9,11,13,-1,-1,-1,-1,-1,-1,-1,-1],"loss_changes":[1.4391908E2,5.473655E1,1.1850052E1,5.5215218E1,2.6842442E1,1.9611053E0,7.3123856E0,0E0,0E0,0E0,0E0,0E0,0E0,0E0,0E0],"parents":[2147483647,0,0,1,1,2,2,3,3,4,4,5,5,6,6],"right_children":[2,4,6,8,10,12,14,-1,-1,-1,-1,-1,-1,-1,-1],"split_conditions":[5E0,5E0,1.55E0,1E0,1E1,4E0,1E0,-1.6155737E-2,9.908764E-3,9.547434E-2,-8.6564705E-2,9.907343E-2,-8.379954E-3,5.8285084E-2,1.6504085E-2],"split_indices":[3,4,5,3,4,4,4,0,0,0,0,0,0,0,0],"split_type":[0,0,0,0,0,0,0,0,0,0,0,0,0,0,0],"sum_hessian":[4.1371377E3,3.7771619E3,3.599756E2,3.6974636E3,7.969814E1,7.188269E1,2.880929E2,2.492493E3,1.2049708E3,7.1360405E1,8.337743E0,7.029608E1,1.5866098E0,2.360197E2,5.20732E1],"tree_param":{"num_deleted":"0","num_feature":"26","num_nodes":"15","size_leaf_vector":"1"}},{"base_weights":[6.823944E-3,-5.7107385E-2,5.0101566E-1,4.5530143E-1,-8.124258E-2,2.755691E-1,6.5332574E-1,1.5080737E-2,7.304069E-2,-9.795355E-3,7.0792645E-2,-2.6006238E-3,4.5861762E-2,7.402758E-2,2.8680814E-2],"categories":[],"categories_nodes":[],"categories_segments":[],"categories_sizes":[],"default_left":[0,0,0,0,0,0,0,0,0,0,0,0,0,0,0],"id":26,"left_children":[1,3,5,7,9,11,13,-1,-1,-1,-1,-1,-1,-1,-1],"loss_changes":[1.2982335E2,4.5034447E1,1.5982086E1,1.3612736E1,4.5905598E1,1.0583621E1,8.716484E0,0E0,0E0,0E0,0E0,0E0,0E0,0E0,0E0],"parents":[2147483647,0,0,1,1,2,2,3,3,4,4,5,5,6,6],"right_children":[2,4,6,8,10,12,14,-1,-1,-1,-1,-1,-1,-1,-1],"split_conditions":[4E0,1.94E0,6E0,1.79E0,5E0,2.58E0,2.6E-1,1.5080737E-2,7.304069E-2,-9.795355E-3,7.0792645E-2,-2.6006238E-3,4.5861762E-2,7.402758E-2,2.8680814E-2],"split_indices":[3,5,3,7,4,0,12,0,0,0,0,0,0,0,0],"split_type":[0,0,0,0,0,0,0,0,0,0,0,0,0,0,0],"sum_hessian":[4.1071646E3,3.6374844E3,4.6968033E2,1.6282027E2,3.474664E3,1.9050604E2,2.791743E2,7.801706E1,8.480321E1,3.4034702E3,7.119391E1,7.228057E1,1.1822547E2,2.2481982E2,5.4354458E1],"tree_param":{"num_deleted":"0","num_feature":"26","num_nodes":"15","size_leaf_vector":"1"}},{"base_weights":[-3.4233145E-3,-5.967058E-2,4.6247566E-1,-1.4619289E-2,-5.65997E-1,5.505178E-1,7.764934E-2,-9.687054E-3,8.179473E-2,8.1371805E-3,-7.967794E-2,6.62386E-2,2.1047816E-2,3.5945214E-2,-2.7747864E-2],"categories":[],"categories_nodes":[],"categories_segments":[],"categories_sizes":[],"default_left":[0,0,0,0,0,0,0,0,0,0,0,0,0,0,0],"id":27,"left_children":[1,3,5,7,9,11,13,-1,-1,-1,-1,-1,-1,-1,-1],"loss_changes":[1.0659198E2,8.2778755E1,1.4802826E1,2.2837671E2,4.4364265E1,1.341877E1,8.380605E0,0E0,0E0,0E0,0E0,0E0,0E0,0E0,0E0],"parents":[2147483647,0,0,1,1,2,2,3,3,4,4,5,5,6,6],"right_children":[2,4,6,8,10,12,14,-1,-1,-1,-1,-1,-1,-1,-1],"split_conditions":[4E0,5E0,1E0,4E0,2.67E0,1.6E-1,2.45E0,-9.687054E-3,8.179473E-2,8.1371805E-3,-7.967794E-2,6.62386E-2,2.1047816E-2,3.5945214E-2,-2.7747864E-2],"split_indices":[3,2,16,2,7,12,8,0,0,0,0,0,0,0,0],"split_type":[0,0,0,0,0,0,0,0,0,0,0,0,0,0,0],"sum_hessian":[4.0654824E3,3.6283137E3,4.371688E2,3.3328005E3,2.9551297E2,3.5542307E2,8.174572E1,3.033953E3,2.9884784E2,7.783239E1,2.1768059E2,2.667261E2,8.8696976E1,4.5571465E1,3.6174255E1],"tree_param":{"num_deleted":"0","num_feature":"26","num_nodes":"15","size_leaf_vector":"1"}},{"base_weights":[9.259483E-4,-1.1307456E-1,1.8731555E-1,-4.7088233E-1,-4.6542063E-2,2.500554E-1,-1.1433416E-1,-5.333097E-2,1.23596095E-1,9.250085E-4,-6.0123492E-2,3.0270634E-2,-2.07715E-2,-3.5888728E-2,3.697596E-2],"categories":[],"categories_nodes":[],"categories_segments":[],"categories_sizes":[],"default_left":[0,0,0,0,0,0,0,0,0,0,0,0,0,0,0],"id":28,"left_children":[1,3,5,7,9,11,13,-1,-1,-1,-1,-1,-1,-1,-1],"loss_changes":[8.5350525E1,5.9311348E1,2.887851E1,4.2286705E1,6.507919E1,3.048552E1,3.1286608E1,0E0,0E0,0E0,0E0,0E0,0E0,0E0,0E0],"parents":[2147483647,0,0,1,1,2,2,3,3,4,4,5,5,6,6],"right_children":[2,4,6,8,10,12,14,-1,-1,-1,-1,-1,-1,-1,-1],"split_conditions":[1E0,1E0,1E0,1E0,5E0,5E0,3E0,-5.333097E-2,1.23596095E-1,9.250085E-4,-6.0123492E-2,3.0270634E-2,-2.07715E-2,-3.5888728E-2,3.697596E-2],"split_indices":[13,2,4,4,2,2,2,0,0,0,0,0,0,0,0],"split_type":[0,0,0,0,0,0,0,0,0,0,0,0,0,0,0],"sum_hessian":[4.0147798E3,2.491382E3,1.5233977E3,3.89672E2,2.10171E3,1.2612439E3,2.6215387E2,3.76586E2,1.3085994E1,1.9105284E3,1.9118156E2,1.131448E3,1.2979591E2,1.7433995E2,8.781393E1],"tree_param":{"num_deleted":"0","num_feature":"26","num_nodes":"15","size_leaf_vector":"1"}},{"base_weights":[-3.4873425E-3,-4.8355278E-2,5.2365345E-1,1.082489E-1,-1.364262E-1,8.715512E-1,4.2800117E-1,2.8814375E-2,1.5715167E-3,-2.2682581E-2,9.803482E-3,9.232506E-2,-2.6038384E-2,5.1036365E-2,1.22233825E-2],"categories":[],"categories_nodes":[],"categories_segments":[],"categories_sizes":[],"default_left":[0,0,0,0,0,0,0,0,0,0,0,0,0,0,0],"id":29,"left_children":[1,3,5,7,9,11,13,-1,-1,-1,-1,-1,-1,-1,-1],"loss_changes":[9.48329E1,5.0976913E1,1.00928955E1,2.2144539E1,5.0157574E1,4.153023E0,6.1995125E0,0E0,0E0,0E0,0E0,0E0,0E0,0E0,0E0],"parents":[2147483647,0,0,1,1,2,2,3,3,4,4,5,5,6,6],"right_children":[2,4,6,8,10,12,14,-1,-1,-1,-1,-1,-1,-1,-1],"split_conditions":[5E0,2.77E0,1.64E0,2E0,3E0,4E0,1E0,2.8814375E-2,1.5715167E-3,-2.2682581E-2,9.803482E-3,9.232506E-2,-2.6038384E-2,5.1036365E-2,1.22233825E-2],"split_indices":[3,0,5,2,2,4,4,0,0,0,0,0,0,0,0],"split_type":[0,0,0,0,0,0,0,0,0,0,0,0,0,0,0],"sum_hessian":[4.0074854E3,3.6939783E3,3.1350714E2,1.3295668E3,2.3644116E3,6.585905E1,2.4764809E2,4.508857E2,8.786811E2,1.7064856E3,6.5792596E2,6.3158726E1,2.700319E0,1.9456917E2,5.307892E1],"tree_param":{"num_deleted":"0","num_feature":"26","num_nodes":"15","size_leaf_vector":"1"}},{"base_weights":[9.214014E-3,4.2115015E-1,-2.8267605E-2,5.207521E-1,-1.51069735E-5,-1.068261E-1,1.24502644E-1,8.778952E-2,4.4442423E-2,5.146439E-3,-1.4220195E-1,-1.7449176E-2,2.373811E-2,5.3887017E-2,9.450828E-3],"categories":[],"categories_nodes":[],"categories_segments":[],"categories_sizes":[],"default_left":[0,0,0,0,0,0,0,0,0,0,0,0,0,0,0],"id":30,"left_children":[1,3,5,7,9,11,13,-1,-1,-1,-1,-1,-1,-1,-1],"loss_changes":[6.191536E1,1.4029339E1,4.4128582E1,6.982956E0,4.828865E0,5.6593784E1,1.5469608E1,0E0,0E0,0E0,0E0,0E0,0E0,0E0,0E0],"parents":[2147483647,0,0,1,1,2,2,3,3,4,4,5,5,6,6],"right_children":[2,4,6,8,10,12,14,-1,-1,-1,-1,-1,-1,-1,-1],"split_conditions":[2.03E0,1E0,1E0,1E0,2.8E1,4E0,1E0,8.778952E-2,4.4442423E-2,5.146439E-3,-1.4220195E-1,-1.7449176E-2,2.373811E-2,5.3887017E-2,9.450828E-3],"split_indices":[5,4,13,13,4,2,2,0,0,0,0,0,0,0,0],"split_type":[0,0,0,0,0,0,0,0,0,0,0,0,0,0,0],"sum_hessian":[4.008283E3,3.334387E2,3.6748442E3,2.6947397E2,6.396472E1,2.4270776E3,1.2477666E3,4.560123E1,2.2387274E2,6.2660103E1,1.3046167E0,2.0287506E3,3.9832697E2,8.30789E1,1.1646877E3],"tree_param":{"num_deleted":"0","num_feature":"26","num_nodes":"15","size_leaf_vector":"1"}},{"base_weights":[1.1206705E-2,-2.1701664E-2,5.478143E-1,1.3144007E-2,-4.135259E-1,8.698894E-1,4.5213807E-1,-5.0080693E-3,6.480145E-2,-4.9276803E-2,8.198481E-2,9.0308934E-2,-2.8340762E-2,2.8408116E-2,6.8849646E-2],"categories":[],"categories_nodes":[],"categories_segments":[],"categories_sizes":[],"default_left":[0,0,0,0,0,0,0,0,0,0,0,0,0,0,0],"id":31,"left_children":[1,3,5,7,9,11,13,-1,-1,-1,-1,-1,-1,-1,-1],"loss_changes":[7.0495735E1,5.136585E1,6.714897E0,1.3873404E2,3.0432915E1,2.2373505E0,6.951359E0,0E0,0E0,0E0,0E0,0E0,0E0,0E0,0E0],"parents":[2147483647,0,0,1,1,2,2,3,3,4,4,5,5,6,6],"right_children":[2,4,6,8,10,12,14,-1,-1,-1,-1,-1,-1,-1,-1],"split_conditions":[6E0,5E0,1.64E0,4E0,1E0,9E0,2.83E0,-5.0080693E-3,6.480145E-2,-4.9276803E-2,8.198481E-2,9.0308934E-2,-2.8340762E-2,2.8408116E-2,6.8849646E-2],"split_indices":[3,2,5,2,4,4,0,0,0,0,0,0,0,0,0],"split_type":[0,0,0,0,0,0,0,0,0,0,0,0,0,0,0],"sum_hessian":[3.9904106E3,3.7607366E3,2.2967397E2,3.4544888E3,3.0624777E2,5.0748222E1,1.7892575E2,3.1424622E3,3.1202652E2,2.8832394E2,1.7923838E1,4.953909E1,1.2091321E0,1.058591E2,7.306664E1],"tree_param":{"num_deleted":"0","num_feature":"26","num_nodes":"15","size_leaf_vector":"1"}},{"base_weights":[1.7804398E-3,-2.7413988E-2,4.940556E-1,4.551181E-3,-3.8905883E-1,5.828422E-1,1.4625739E-1,-6.3481205E-3,6.6664E-2,6.43563E-3,-6.0543325E-2,9.09187E-2,4.827364E-2,4.6586197E-2,-2.4020802E-2],"categories":[],"categories_nodes":[],"categories_segments":[],"categories_sizes":[],"default_left":[0,0,0,0,0,0,0,0,0,0,0,0,0,0,0],"id":32,"left_children":[1,3,5,7,9,11,13,-1,-1,-1,-1,-1,-1,-1,-1],"loss_changes":[5.662107E1,4.299649E1,6.7258224E0,1.5401003E2,2.9672615E1,5.290474E0,5.8172216E0,0E0,0E0,0E0,0E0,0E0,0E0,0E0,0E0],"parents":[2147483647,0,0,1,1,2,2,3,3,4,4,5,5,6,6],"right_children":[2,4,6,8,10,12,14,-1,-1,-1,-1,-1,-1,-1,-1],"split_conditions":[6E0,5E0,1E0,4E0,2.72E0,1.64E0,2.4E0,-6.3481205E-3,6.6664E-2,6.43563E-3,-6.0543325E-2,9.09187E-2,4.827364E-2,4.6586197E-2,-2.4020802E-2],"split_indices":[3,2,4,2,5,5,5,0,0,0,0,0,0,0,0],"split_type":[0,0,0,0,0,0,0,0,0,0,0,0,0,0,0],"sum_hessian":[3.9378215E3,3.7182544E3,2.1956712E2,3.4172012E3,3.0105313E2,1.7437625E2,4.5190884E1,3.0996077E3,3.1759348E2,9.748168E1,2.0357147E2,3.903614E1,1.353401E2,2.4622654E1,2.056823E1],"tree_param":{"num_deleted":"0","num_feature":"26","num_nodes":"15","size_leaf_vector":"1"}},{"base_weights":[9.56568E-3,-1.7970402E-2,4.960659E-1,1.12117315E-2,-3.5126603E-1,5.923437E-1,1.3276501E-1,-4.4114967E-3,5.4204263E-2,-1.2394722E-2,-6.8194315E-2,9.2335336E-2,4.9379226E-2,-5.1615825E-3,7.9495005E-2],"categories":[],"categories_nodes":[],"categories_segments":[],"categories_sizes":[],"default_left":[0,0,0,0,0,0,0,0,0,0,0,0,0,0,0],"id":33,"left_children":[1,3,5,7,9,11,13,-1,-1,-1,-1,-1,-1,-1,-1],"loss_changes":[5.287874E1,3.634275E1,7.3173294E0,1.0094589E2,2.2527729E1,4.9873505E0,5.6067386E0,0E0,0E0,0E0,0E0,0E0,0E0,0E0,0E0],"parents":[2147483647,0,0,1,1,2,2,3,3,4,4,5,5,6,6],"right_children":[2,4,6,8,10,12,14,-1,-1,-1,-1,-1,-1,-1,-1],"split_conditions":[6E0,5E0,1E0,4E0,3.08E0,1.64E0,1.3E1,-4.4114967E-3,5.4204263E-2,-1.2394722E-2,-6.8194315E-2,9.2335336E-2,4.9379226E-2,-5.1615825E-3,7.9495005E-2],"split_indices":[3,2,4,2,7,5,3,0,0,0,0,0,0,0,0],"split_type":[0,0,0,0,0,0,0,0,0,0,0,0,0,0,0],"sum_hessian":[3.9455957E3,3.735148E3,2.1044762E2,3.4353296E3,2.9981842E2,1.6586227E2,4.458534E1,3.1119033E3,3.234262E2,1.7849182E2,1.213266E2,3.61326E1,1.2972968E2,3.5595947E1,8.989392E0],"tree_param":{"num_deleted":"0","num_feature":"26","num_nodes":"15","size_leaf_vector":"1"}},{"base_weights":[-2.1766142E-3,3.862986E-1,-3.544656E-2,4.8428726E-1,-3.528533E-2,1.689122E-1,-8.719969E-2,8.448949E-2,4.010421E-2,-3.9717942E-2,2.74393E-2,2.3999503E-2,-2.3073092E-2,-1.2572258E-2,2.7464533E-2],"categories":[],"categories_nodes":[],"categories_segments":[],"categories_sizes":[],"default_left":[0,0,0,0,0,0,0,0,0,0,0,0,0,0,0],"id":34,"left_children":[1,3,5,7,9,11,13,-1,-1,-1,-1,-1,-1,-1,-1],"loss_changes":[5.0716457E1,1.2804897E1,3.8241657E1,7.2031403E0,6.7561593E0,2.0813393E1,4.0245426E1,0E0,0E0,0E0,0E0,0E0,0E0,0E0,0E0],"parents":[2147483647,0,0,1,1,2,2,3,3,4,4,5,5,6,6],"right_children":[2,4,6,8,10,12,14,-1,-1,-1,-1,-1,-1,-1,-1],"split_conditions":[2.03E0,1E0,2.51E0,1E0,1E0,5E0,1E0,8.448949E-2,4.010421E-2,-3.9717942E-2,2.74393E-2,2.3999503E-2,-2.3073092E-2,-1.2572258E-2,2.7464533E-2],"split_indices":[5,4,0,13,15,2,15,0,0,0,0,0,0,0,0],"split_type":[0,0,0,0,0,0,0,0,0,0,0,0,0,0,0],"sum_hessian":[3.9219814E3,3.0855383E2,3.6134277E3,2.502415E2,5.8312317E1,7.297164E2,2.8837112E3,4.5217117E1,2.0502438E2,2.675893E1,3.1553387E1,6.1986334E2,1.0985299E2,2.606834E3,2.7687726E2],"tree_param":{"num_deleted":"0","num_feature":"26","num_nodes":"15","size_leaf_vector":"1"}},{"base_weights":[-5.137972E-3,3.4529525E-1,-3.5596386E-2,4.3435577E-1,-4.2493008E-2,-5.024403E-2,6.108128E-1,2.4061104E-2,6.0033035E-2,3.499663E-2,-1.9555831E-2,-1.7628706E-3,-3.7836377E-2,7.9083815E-2,-5.2173745E-2],"categories":[],"categories_nodes":[],"categories_segments":[],"categories_sizes":[],"default_left":[0,0,0,0,0,0,0,0,0,0,0,0,0,0,0],"id":35,"left_children":[1,3,5,7,9,11,13,-1,-1,-1,-1,-1,-1,-1,-1],"loss_changes":[4.1829334E1,1.0841663E1,3.4167988E1,8.053658E0,3.639184E0,3.7732334E1,1.671634E1,0E0,0E0,0E0,0E0,0E0,0E0,0E0,0E0],"parents":[2147483647,0,0,1,1,2,2,3,3,4,4,5,5,6,6],"right_children":[2,4,6,8,10,12,14,-1,-1,-1,-1,-1,-1,-1,-1],"split_conditions":[2.03E0,1E0,5E0,1E0,1.55E0,1E0,1E1,2.4061104E-2,6.0033035E-2,3.499663E-2,-1.9555831E-2,-1.7628706E-3,-3.7836377E-2,7.9083815E-2,-5.2173745E-2],"split_indices":[5,4,4,1,5,4,4,0,0,0,0,0,0,0,0],"split_type":[0,0,0,0,0,0,0,0,0,0,0,0,0,0,0],"sum_hessian":[3.9167866E3,3.123835E2,3.604403E3,2.5394234E2,5.8441185E1,3.525439E3,7.896426E1,1.1829935E2,1.3564299E2,1.6036705E1,4.2404484E1,3.20765E3,3.1778888E2,6.839431E1,1.0569947E1],"tree_param":{"num_deleted":"0","num_feature":"26","num_nodes":"15","size_leaf_vector":"1"}},{"base_weights":[1.4477118E-2,-1.7542403E-2,3.259822E-1,1.5747587E-1,-6.2158395E-2,1.3795528E-1,4.945528E-1,9.393079E-3,5.826192E-2,-8.037159E-3,5.772346E-2,4.2206783E-2,-1.4546818E-2,6.220909E-2,-1.3290507E-3],"categories":[],"categories_nodes":[],"categories_segments":[],"categories_sizes":[],"default_left":[0,0,0,0,0,0,0,0,0,0,0,0,0,0,0],"id":36,"left_children":[1,3,5,7,9,11,13,-1,-1,-1,-1,-1,-1,-1,-1],"loss_changes":[3.8923046E1,2.764487E1,1.1460545E1,1.937495E1,3.2896328E1,1.4018639E1,1.2405235E1,0E0,0E0,0E0,0E0,0E0,0E0,0E0,0E0],"parents":[2147483647,0,0,1,1,2,2,3,3,4,4,5,5,6,6],"right_children":[2,4,6,8,10,12,14,-1,-1,-1,-1,-1,-1,-1,-1],"split_conditions":[4E0,2.51E0,2.64E0,2.47E0,3E0,2.21E0,1E0,9.393079E-3,5.826192E-2,-8.037159E-3,5.772346E-2,4.2206783E-2,-1.4546818E-2,6.220909E-2,-1.3290507E-3],"split_indices":[3,0,0,0,4,5,4,0,0,0,0,0,0,0,0],"split_type":[0,0,0,0,0,0,0,0,0,0,0,0,0,0,0],"sum_hessian":[3.9007825E3,3.538051E3,3.627316E2,7.181975E2,2.8198535E3,1.7232988E2,1.9040172E2,6.258711E2,9.2326416E1,2.7426042E3,7.7249146E1,8.581603E1,8.6513855E1,1.5200317E2,3.8398537E1],"tree_param":{"num_deleted":"0","num_feature":"26","num_nodes":"15","size_leaf_vector":"1"}},{"base_weights":[1.1979094E-3,-2.2911314E-2,3.54972E-1,-8.511242E-2,1.18199274E-1,8.008401E-1,2.7144715E-1,7.12856E-3,-2.7770737E-2,2.6472822E-2,-3.038979E-2,9.018269E-2,2.6111234E-2,1.4421448E-2,4.7154333E-2],"categories":[],"categories_nodes":[],"categories_segments":[],"categories_sizes":[],"default_left":[0,0,0,0,0,0,0,0,0,0,0,0,0,0,0],"id":37,"left_children":[1,3,5,7,9,11,13,-1,-1,-1,-1,-1,-1,-1,-1],"loss_changes":[3.2985973E1,3.17899E1,8.971594E0,7.573234E1,6.861817E1,1.8584595E0,5.261182E0,0E0,0E0,0E0,0E0,0E0,0E0,0E0,0E0],"parents":[2147483647,0,0,1,1,2,2,3,3,4,4,5,5,6,6],"right_children":[2,4,6,8,10,12,14,-1,-1,-1,-1,-1,-1,-1,-1],"split_conditions":[5E0,3E0,1.55E0,2E0,5E0,1E0,2.83E0,7.12856E-3,-2.7770737E-2,2.6472822E-2,-3.038979E-2,9.018269E-2,2.6111234E-2,1.4421448E-2,4.7154333E-2],"split_indices":[3,2,5,2,2,4,0,0,0,0,0,0,0,0,0],"split_type":[0,0,0,0,0,0,0,0,0,0,0,0,0,0,0],"sum_hessian":[3.865455E3,3.619712E3,2.457432E2,2.512574E3,1.107138E3,3.74171E1,2.083261E2,1.3869344E3,1.1256395E3,8.2211694E2,2.85021E2,3.0954418E1,6.46268E0,1.2840166E2,7.992444E1],"tree_param":{"num_deleted":"0","num_feature":"26","num_nodes":"15","size_leaf_vector":"1"}},{"base_weights":[-4.5918045E-3,3.0084768E-1,-3.0096428E-2,3.7934044E-1,-2.6649784E-3,-3.7582964E-2,9.4746816E-1,3.9746467E-2,-8.290155E-2,5.4701823E-3,-1.5157808E-1,-9.446549E-3,9.255178E-3,-3.6732063E-2,2.0510964E-1],"categories":[],"categories_nodes":[],"categories_segments":[],"categories_sizes":[],"default_left":[0,0,0,0,0,0,0,0,0,0,0,0,0,0,0],"id":38,"left_children":[1,3,5,7,9,11,13,-1,-1,-1,-1,-1,-1,-1,-1],"loss_changes":[3.0085749E1,7.091715E0,2.6120777E1,5.508644E0,5.477661E0,2.619927E1,4.0115616E1,0E0,0E0,0E0,0E0,0E0,0E0,0E0,0E0],"parents":[2147483647,0,0,1,1,2,2,3,3,4,4,5,5,6,6],"right_children":[2,4,6,8,10,12,14,-1,-1,-1,-1,-1,-1,-1,-1],"split_conditions":[2.03E0,1E0,1.51E0,1.7E-1,1E-2,3E0,1E0,3.9746467E-2,-8.290155E-2,5.4701823E-3,-1.5157808E-1,-9.446549E-3,9.255178E-3,-3.6732063E-2,2.0510964E-1],"split_indices":[5,4,12,12,12,2,1,0,0,0,0,0,0,0,0],"split_type":[0,0,0,0,0,0,0,0,0,0,0,0,0,0,0],"sum_hessian":[3.8598772E3,2.966343E2,3.563243E3,2.3548473E2,6.114957E1,3.537116E3,2.612693E1,2.3266602E2,2.8187065E0,5.9844532E1,1.3050392E0,2.4614697E3,1.0756462E3,1.2227306E1,1.3899624E1],"tree_param":{"num_deleted":"0","num_feature":"26","num_nodes":"15","size_leaf_vector":"1"}},{"base_weights":[-1.6018214E-2,3.14346E-2,-1.7438684E-1,6.617531E-2,-1.9118856E-1,-2.7687436E-1,3.1238776E-1,4.728598E-3,4.1964572E-2,-3.8896397E-2,1.161427E-2,-3.0766148E-2,1.0365653E-1,6.356846E-2,1.8248547E-2],"categories":[],"categories_nodes":[],"categories_segments":[],"categories_sizes":[],"default_left":[0,0,0,0,0,0,0,0,0,0,0,0,0,0,0],"id":39,"left_children":[1,3,5,7,9,11,13,-1,-1,-1,-1,-1,-1,-1,-1],"loss_changes":[2.867662E1,2.2723154E1,4.397588E1,1.6944502E1,2.4153631E1,2.9727592E1,6.3297396E0,0E0,0E0,0E0,0E0,0E0,0E0,0E0,0E0],"parents":[2147483647,0,0,1,1,2,2,3,3,4,4,5,5,6,6],"right_children":[2,4,6,8,10,12,14,-1,-1,-1,-1,-1,-1,-1,-1],"split_conditions":[3.39E0,1E0,1E0,6E0,2E0,2E0,1.8E-1,4.728598E-3,4.1964572E-2,-3.8896397E-2,1.161427E-2,-3.0766148E-2,1.0365653E-1,6.356846E-2,1.8248547E-2],"split_indices":[5,4,3,3,4,4,12,0,0,0,0,0,0,0,0],"split_type":[0,0,0,0,0,0,0,0,0,0,0,0,0,0,0],"sum_hessian":[3.8141694E3,2.9354167E3,8.787526E2,2.5397822E3,3.9563446E2,7.262716E2,1.5248102E2,2.4120186E3,1.2776364E2,2.4056148E2,1.5507298E2,7.103859E2,1.588573E1,4.2590225E1,1.0989079E2],"tree_param":{"num_deleted":"0","num_feature":"26","num_nodes":"15","size_leaf_vector":"1"}},{"base_weights":[3.2893373E-3,3.8103834E-1,-1.5501961E-2,7.7311724E-1,1.501348E-1,1.5820916E-1,-6.295541E-2,1.2791E-1,-1.6938373E-2,3.6663737E-2,-2.6734537E-2,2.8140143E-2,2.2035611E-3,-3.0708296E-2,-2.6170644E-3],"categories":[],"categories_nodes":[],"categories_segments":[],"categories_sizes":[],"default_left":[0,0,0,0,0,0,0,0,0,0,0,0,0,0,0],"id":40,"left_children":[1,3,5,7,9,11,13,-1,-1,-1,-1,-1,-1,-1,-1],"loss_changes":[2.724817E1,1.635227E1,3.0154495E1,3.2254494E1,1.0557855E1,1.3161171E1,2.5791872E1,0E0,0E0,0E0,0E0,0E0,0E0,0E0,0E0],"parents":[2147483647,0,0,1,1,2,2,3,3,4,4,5,5,6,6],"right_children":[2,4,6,8,10,12,14,-1,-1,-1,-1,-1,-1,-1,-1],"split_conditions":[2.03E0,2E0,-4.5E-1,1E0,7.9E-1,3.22E0,1E0,1.2791E-1,-1.6938373E-2,3.6663737E-2,-2.6734537E-2,2.8140143E-2,2.2035611E-3,-3.0708296E-2,-2.6170644E-3],"split_indices":[0,2,12,14,12,0,2,0,0,0,0,0,0,0,0],"split_type":[0,0,0,0,0,0,0,0,0,0,0,0,0,0,0],"sum_hessian":[3.8368066E3,1.8090553E2,3.6559011E3,6.618086E1,1.1472467E2,7.839156E2,2.8719856E3,4.283025E1,2.3350609E1,7.562685E1,3.9097816E1,4.110154E2,3.7290018E2,3.751171E2,2.4968684E3],"tree_param":{"num_deleted":"0","num_feature":"26","num_nodes":"15","size_leaf_vector":"1"}},{"base_weights":[-6.038214E-3,-2.4254503E-2,3.6979052E-1,-3.470099E-2,5.0036305E-1,4.6101868E-1,-8.12466E-3,-8.343655E-4,-2.831983E-2,6.8501316E-2,-8.044362E-2,3.6019396E-2,8.689752E-2,-3.3968236E-2,4.251688E-2],"categories":[],"categories_nodes":[],"categories_segments":[],"categories_sizes":[],"default_left":[0,0,0,0,0,0,0,0,0,0,0,0,0,0,0],"id":41,"left_children":[1,3,5,7,9,11,13,-1,-1,-1,-1,-1,-1,-1,-1],"loss_changes":[2.6190037E1,2.0011677E1,6.100876E0,2.3432749E1,1.7728008E1,5.5473747E0,5.2260537E0,0E0,0E0,0E0,0E0,0E0,0E0,0E0,0E0],"parents":[2147483647,0,0,1,1,2,2,3,3,4,4,5,5,6,6],"right_children":[2,4,6,8,10,12,14,-1,-1,-1,-1,-1,-1,-1,-1],"split_conditions":[6E0,5E0,3.5E-1,1E0,1E1,1.2E1,3.06E0,-8.343655E-4,-2.831983E-2,6.8501316E-2,-8.044362E-2,3.6019396E-2,8.689752E-2,-3.3968236E-2,4.251688E-2],"split_indices":[3,4,12,4,4,3,5,0,0,0,0,0,0,0,0],"split_type":[0,0,0,0,0,0,0,0,0,0,0,0,0,0,0],"sum_hessian":[3.8231724E3,3.6473232E3,1.7584901E2,3.5770293E3,7.029402E1,1.4147684E2,3.4372185E1,3.2349424E3,3.4208673E2,6.199565E1,8.298376E0,1.1495028E2,2.6526556E1,1.9594471E1,1.4777715E1],"tree_param":{"num_deleted":"0","num_feature":"26","num_nodes":"15","size_leaf_vector":"1"}},{"base_weights":[3.1676008E-3,-1.666981E-2,3.1398806E-1,6.974576E-2,-7.904526E-2,3.7253895E-1,-2.6383173E-1,2.2242058E-2,-1.0935429E-3,-9.692358E-3,5.141407E-2,2.9034594E-2,8.514294E-2,-8.787071E-2,1.0287037E-2],"categories":[],"categories_nodes":[],"categories_segments":[],"categories_sizes":[],"default_left":[0,0,0,0,0,0,0,0,0,0,0,0,0,0,0],"id":42,"left_children":[1,3,5,7,9,11,13,-1,-1,-1,-1,-1,-1,-1,-1],"loss_changes":[2.3520641E1,1.9334515E1,7.840868E0,1.8526392E1,2.2141783E1,7.9483547E0,4.9700933E0,0E0,0E0,0E0,0E0,0E0,0E0,0E0,0E0],"parents":[2147483647,0,0,1,1,2,2,3,3,4,4,5,5,6,6],"right_children":[2,4,6,8,10,12,14,-1,-1,-1,-1,-1,-1,-1,-1],"split_conditions":[5E0,2.86E0,6E-1,2E0,3E0,1.2E1,3.03E0,2.2242058E-2,-1.0935429E-3,-9.692358E-3,5.141407E-2,2.9034594E-2,8.514294E-2,-8.787071E-2,1.0287037E-2],"split_indices":[3,0,12,2,4,3,5,0,0,0,0,0,0,0,0],"split_type":[0,0,0,0,0,0,0,0,0,0,0,0,0,0,0],"sum_hessian":[3.8128003E3,3.5849458E3,2.2785466E2,1.5028141E3,2.0821316E3,2.0721289E2,2.0641768E1,5.189799E2,9.838341E2,2.0220255E3,6.010619E1,1.782293E2,2.8983595E1,7.18983E0,1.3451938E1],"tree_param":{"num_deleted":"0","num_feature":"26","num_nodes":"15","size_leaf_vector":"1"}},{"base_weights":[1.0747997E-2,3.6916975E-2,-2.877217E-1,-3.1763709E-3,4.2937398E-1,-3.5683623E-1,5.80168E-1,1.1380486E-2,-1.0464197E-2,2.2772122E-2,6.5272145E-2,1.3895218E-2,-4.736216E-2,2.4120118E-3,2.0181954E-1],"categories":[],"categories_nodes":[],"categories_segments":[],"categories_sizes":[],"default_left":[0,0,0,0,0,0,0,0,0,0,0,0,0,0,0],"id":43,"left_children":[1,3,5,7,9,11,13,-1,-1,-1,-1,-1,-1,-1,-1],"loss_changes":[2.9730307E1,5.5060783E1,1.8612133E1,3.770775E1,1.4459602E1,1.655722E1,1.835305E1,0E0,0E0,0E0,0E0,0E0,0E0,0E0,0E0],"parents":[2147483647,0,0,1,1,2,2,3,3,4,4,5,5,6,6],"right_children":[2,4,6,8,10,12,14,-1,-1,-1,-1,-1,-1,-1,-1],"split_conditions":[5E0,4E0,1E0,2E0,2.91E0,2.5E0,1E0,1.1380486E-2,-1.0464197E-2,2.2772122E-2,6.5272145E-2,1.3895218E-2,-4.736216E-2,2.4120118E-3,2.0181954E-1],"split_indices":[2,2,4,2,7,7,1,0,0,0,0,0,0,0,0],"split_type":[0,0,0,0,0,0,0,0,0,0,0,0,0,0,0],"sum_hessian":[3.8040222E3,3.4981875E3,3.0583484E2,3.1748384E3,3.2334906E2,2.8382153E2,2.201332E1,1.4746129E3,1.7002253E3,1.7098875E2,1.523603E2,5.4073544E1,2.2974797E2,1.6608152E1,5.4051685E0],"tree_param":{"num_deleted":"0","num_feature":"26","num_nodes":"15","size_leaf_vector":"1"}},{"base_weights":[-2.7691503E-3,-5.621873E-2,8.769622E-2,-7.607031E-2,5.5464137E-1,5.4565024E-1,5.8654804E-2,-3.5650086E-2,-2.7228536E-3,4.6357542E-2,1.9551091E-1,3.1020293E-2,9.800004E-2,1.994529E-3,3.1124298E-2],"categories":[],"categories_nodes":[],"categories_segments":[],"categories_sizes":[],"default_left":[0,0,0,0,0,0,0,0,0,0,0,0,0,0,0],"id":44,"left_children":[1,3,5,7,9,11,13,-1,-1,-1,-1,-1,-1,-1,-1],"loss_changes":[1.8390182E1,2.903344E1,1.875429E1,3.1716827E1,8.705774E0,8.298145E0,1.2992353E1,0E0,0E0,0E0,0E0,0E0,0E0,0E0,0E0],"parents":[2147483647,0,0,1,1,2,2,3,3,4,4,5,5,6,6],"right_children":[2,4,6,8,10,12,14,-1,-1,-1,-1,-1,-1,-1,-1],"split_conditions":[1E0,2E0,1E0,1E0,3.72E0,3.33E0,3.3E0,-3.5650086E-2,-2.7228536E-3,4.6357542E-2,1.9551091E-1,3.1020293E-2,9.800004E-2,1.994529E-3,3.1124298E-2],"split_indices":[3,4,2,2,0,0,7,0,0,0,0,0,0,0,0],"split_type":[0,0,0,0,0,0,0,0,0,0,0,0,0,0,0],"sum_hessian":[3.80127E3,2.3897278E3,1.4115424E3,2.3153591E3,7.43685E1,8.31149E1,1.3284275E3,3.4250858E2,1.9728507E3,7.107766E1,3.2908366E0,5.500995E1,2.810495E1,1.1528331E3,1.7559442E2],"tree_param":{"num_deleted":"0","num_feature":"26","num_nodes":"15","size_leaf_vector":"1"}},{"base_weights":[5.888545E-3,2.7986353E-2,-2.4701832E-1,-1.1701943E-2,4.0262005E-1,4.5254114E-1,-3.3068213E-1,4.429568E-2,-3.1700355E-3,-4.874174E-2,4.514158E-2,1.5858673E-2,1.7437354E-1,-1.1880221E-2,-7.754045E-2],"categories":[],"categories_nodes":[],"categories_segments":[],"categories_sizes":[],"default_left":[0,0,0,0,0,0,0,0,0,0,0,0,0,0,0],"id":45,"left_children":[1,3,5,7,9,11,13,-1,-1,-1,-1,-1,-1,-1,-1],"loss_changes":[2.1226229E1,5.1935284E1,1.801196E1,2.8737532E1,1.4751358E1,1.22574005E1,2.5648134E1,0E0,0E0,0E0,0E0,0E0,0E0,0E0,0E0],"parents":[2147483647,0,0,1,1,2,2,3,3,4,4,5,5,6,6],"right_children":[2,4,6,8,10,12,14,-1,-1,-1,-1,-1,-1,-1,-1],"split_conditions":[5E0,4E0,-5.1E-1,2.03E0,2.1E0,2.88E0,2.83E0,4.429568E-2,-3.1700355E-3,-4.874174E-2,4.514158E-2,1.5858673E-2,1.7437354E-1,-1.1880221E-2,-7.754045E-2],"split_indices":[2,2,12,0,0,7,0,0,0,0,0,0,0,0,0],"split_type":[0,0,0,0,0,0,0,0,0,0,0,0,0,0,0],"sum_hessian":[3.7958333E3,3.4916396E3,3.0419366E2,3.158048E3,3.335915E2,3.202295E1,2.7217072E2,1.3216484E2,3.0258833E3,1.6871185E1,3.167203E2,2.6999125E1,5.0238233E0,1.8520181E2,8.69689E1],"tree_param":{"num_deleted":"0","num_feature":"26","num_nodes":"15","size_leaf_vector":"1"}},{"base_weights":[2.752274E-3,4.0110207E-1,-1.7418709E-2,2.613196E-1,8.715197E-1,-7.530859E-2,8.478094E-2,4.2029284E-2,-1.83912E-2,1.02995254E-1,-1.3891329E-1,7.9490125E-2,-8.830804E-3,4.1149585E-3,3.3446427E-2],"categories":[],"categories_nodes":[],"categories_segments":[],"categories_sizes":[],"default_left":[0,0,0,0,0,0,0,0,0,0,0,0,0,0,0],"id":46,"left_children":[1,3,5,7,9,11,13,-1,-1,-1,-1,-1,-1,-1,-1],"loss_changes":[3.0410624E1,1.176668E1,2.1319607E1,1.0131625E1,1.6243235E1,2.609172E1,1.4182753E1,0E0,0E0,0E0,0E0,0E0,0E0,0E0,0E0],"parents":[2147483647,0,0,1,1,2,2,3,3,4,4,5,5,6,6],"right_children":[2,4,6,8,10,12,14,-1,-1,-1,-1,-1,-1,-1,-1],"split_conditions":[2.03E0,3.06E0,1E0,7.9E-1,3.68E0,-1.15E0,3.3E0,4.2029284E-2,-1.83912E-2,1.02995254E-1,-1.3891329E-1,7.9490125E-2,-8.830804E-3,4.1149585E-3,3.3446427E-2],"split_indices":[0,7,3,12,7,12,7,0,0,0,0,0,0,0,0],"split_type":[0,0,0,0,0,0,0,0,0,0,0,0,0,0,0],"sum_hessian":[3.78285E3,1.8140765E2,3.6014424E3,1.4105061E2,4.035704E1,2.299295E3,1.3021475E3,1.0397985E2,3.707076E1,3.822269E1,2.134351E0,3.295672E1,2.2663381E3,1.109441E3,1.9270644E2],"tree_param":{"num_deleted":"0","num_feature":"26","num_nodes":"15","size_leaf_vector":"1"}},{"base_weights":[8.277985E-3,4.327954E-2,-1.1764552E-1,1.4054659E-1,-8.0491295E-3,-1.4123657E-1,8.103432E-1,1.1018153E-2,5.9678495E-2,-7.529467E-3,1.6676765E-2,-2.130537E-2,2.2635942E-2,1.3996123E-1,-2.7744949E-2],"categories":[],"categories_nodes":[],"categories_segments":[],"categories_sizes":[],"default_left":[0,0,0,0,0,0,0,0,0,0,0,0,0,0,0],"id":47,"left_children":[1,3,5,7,9,11,13,-1,-1,-1,-1,-1,-1,-1,-1],"loss_changes":[1.6636204E1,1.4746092E1,1.808756E1,1.4068094E1,2.274972E1,2.1207027E1,1.3529992E1,0E0,0E0,0E0,0E0,0E0,0E0,0E0,0E0],"parents":[2147483647,0,0,1,1,2,2,3,3,4,4,5,5,6,6],"right_children":[2,4,6,8,10,12,14,-1,-1,-1,-1,-1,-1,-1,-1],"split_conditions":[3.42E0,2E0,2E0,3.36E0,4E0,1E0,2E0,1.1018153E-2,5.9678495E-2,-7.529467E-3,1.6676765E-2,-2.130537E-2,2.2635942E-2,1.3996123E-1,-2.7744949E-2],"split_indices":[5,2,4,7,2,3,2,0,0,0,0,0,0,0,0],"split_type":[0,0,0,0,0,0,0,0,0,0,0,0,0,0,0],"sum_hessian":[3.7723508E3,2.9523696E3,8.19981E2,1.01922174E3,1.933148E3,8.004793E2,1.9501749E1,9.5678424E2,6.2437508E1,1.3965256E3,5.366223E2,6.700017E2,1.304776E2,1.246349E1,7.038259E0],"tree_param":{"num_deleted":"0","num_feature":"26","num_nodes":"15","size_leaf_vector":"1"}},{"base_weights":[-4.4618566E-3,-2.2414875E-1,2.263127E-2,-3.5179356E-1,6.360201E-1,1.6700639E-1,-4.1560344E-2,-3.810536E-2,1.1221081E-1,-5.49464E-2,8.241612E-2,1.5472312E-2,1.6470832E-1,-1.5678335E-2,7.5322427E-3],"categories":[],"categories_nodes":[],"categories_segments":[],"categories_sizes":[],"default_left":[0,0,0,0,0,0,0,0,0,0,0,0,0,0,0],"id":48,"left_children":[1,3,5,7,9,11,13,-1,-1,-1,-1,-1,-1,-1,-1],"loss_changes":[2.2344328E1,4.547578E1,3.09803E1,1.5932941E1,1.2410696E1,1.8449116E1,3.1179522E1,0E0,0E0,0E0,0E0,0E0,0E0,0E0,0E0],"parents":[2147483647,0,0,1,1,2,2,3,3,4,4,5,5,6,6],"right_children":[2,4,6,8,10,12,14,-1,-1,-1,-1,-1,-1,-1,-1],"split_conditions":[1E0,1E0,2E0,2E0,2.6E0,3.89E0,3E0,-3.810536E-2,1.1221081E-1,-5.49464E-2,8.241612E-2,1.5472312E-2,1.6470832E-1,-1.5678335E-2,7.5322427E-3],"split_indices":[2,14,2,4,0,0,2,0,0,0,0,0,0,0,0],"split_type":[0,0,0,0,0,0,0,0,0,0,0,0,0,0,0],"sum_hessian":[3.7522322E3,4.1114612E2,3.341086E3,3.5853265E2,5.261345E1,1.0278096E3,2.3132764E3,3.522806E2,6.252044E0,6.9432535E0,4.5670197E1,1.0204454E3,7.3642216E0,1.1647373E3,1.1485391E3],"tree_param":{"num_deleted":"0","num_feature":"26","num_nodes":"15","size_leaf_vector":"1"}},{"base_weights":[5.5762753E-3,4.757042E-1,-3.7368704E-3,-3.780528E-1,5.795544E-1,-9.199715E-3,7.96459E-1,-9.195813E-2,5.0147004E-2,3.6591195E-2,7.4429885E-2,1.9668806E-3,-1.1350554E-2,-2.1244839E-2,1.5987156E-1],"categories":[],"categories_nodes":[],"categories_segments":[],"categories_sizes":[],"default_left":[0,0,0,0,0,0,0,0,0,0,0,0,0,0,0],"id":49,"left_children":[1,3,5,7,9,11,13,-1,-1,-1,-1,-1,-1,-1,-1],"loss_changes":[1.6380074E1,6.662361E0,1.604605E1,4.5030346E0,2.0219364E0,1.0978399E1,2.048552E1,0E0,0E0,0E0,0E0,0E0,0E0,0E0,0E0],"parents":[2147483647,0,0,1,1,2,2,3,3,4,4,5,5,6,6],"right_children":[2,4,6,8,10,12,14,-1,-1,-1,-1,-1,-1,-1,-1],"split_conditions":[1.55E0,1.98E0,1.51E0,7E0,4E0,3.42E0,1E0,-9.195813E-2,5.0147004E-2,3.6591195E-2,7.4429885E-2,1.9668806E-3,-1.1350554E-2,-2.1244839E-2,1.5987156E-1],"split_indices":[5,0,12,3,3,5,1,0,0,0,0,0,0,0,0],"split_type":[0,0,0,0,0,0,0,0,0,0,0,0,0,0,0],"sum_hessian":[3.7397292E3,7.1671486E1,3.6680579E3,7.486259E0,6.418523E1,3.644168E3,2.3889809E1,4.6052365E0,2.8810227E0,2.9347778E1,3.483745E1,2.8548484E3,7.8931946E2,1.0907661E1,1.2982148E1],"tree_param":{"num_deleted":"0","num_feature":"26","num_nodes":"15","size_leaf_vector":"1"}},{"base_weights":[1.1206477E-2,3.2024164E-2,-2.2239678E-1,-3.5134256E-3,3.6680573E-1,-2.8796205E-1,5.852119E-1,2.9072452E-3,-2.3324484E-2,9.892088E-3,5.884522E-2,-1.4444453E-2,-7.137824E-2,-2.8973183E-4,1.7595974E-1],"categories":[],"categories_nodes":[],"categories_segments":[],"categories_sizes":[],"default_left":[0,0,0,0,0,0,0,0,0,0,0,0,0,0,0],"id":50,"left_children":[1,3,5,7,9,11,13,-1,-1,-1,-1,-1,-1,-1,-1],"loss_changes":[1.8218897E1,4.0920467E1,1.6400581E1,2.329042E1,1.9539738E1,1.7265137E1,1.6130802E1,0E0,0E0,0E0,0E0,0E0,0E0,0E0,0E0],"parents":[2147483647,0,0,1,1,2,2,3,3,4,4,5,5,6,6],"right_children":[2,4,6,8,10,12,14,-1,-1,-1,-1,-1,-1,-1,-1],"split_conditions":[5E0,4E0,1E0,1E0,2.84E0,3E0,1E0,2.9072452E-3,-2.3324484E-2,9.892088E-3,5.884522E-2,-1.4444453E-2,-7.137824E-2,-2.8973183E-4,1.7595974E-1],"split_indices":[2,2,4,4,5,0,1,0,0,0,0,0,0,0,0],"split_type":[0,0,0,0,0,0,0,0,0,0,0,0,0,0,0],"sum_hessian":[3.7439065E3,3.4383582E3,3.055483E2,3.1092915E3,3.2906665E2,2.832003E2,2.234802E1,2.7238105E3,3.85481E2,1.4964726E2,1.7941939E2,2.1281337E2,7.038691E1,1.5555609E1,6.7924113E0],"tree_param":{"num_deleted":"0","num_feature":"26","num_nodes":"15","size_leaf_vector":"1"}},{"base_weights":[2.3864757E-2,4.447063E-1,1.4326274E-2,-1.590368E-1,5.245868E-1,8.857454E-3,4.7958148E-1,-6.378697E-2,5.881331E-2,5.585295E-2,-3.965136E-2,1.6440505E-4,3.75338E-2,-5.816914E-3,1.2565988E-1],"categories":[],"categories_nodes":[],"categories_segments":[],"categories_sizes":[],"default_left":[0,0,0,0,0,0,0,0,0,0,0,0,0,0,0],"id":51,"left_children":[1,3,5,7,9,11,13,-1,-1,-1,-1,-1,-1,-1,-1],"loss_changes":[1.498679E1,4.074053E0,9.291183E0,4.1088843E0,2.5134716E0,9.547621E0,1.7799923E1,0E0,0E0,0E0,0E0,0E0,0E0,0E0,0E0],"parents":[2147483647,0,0,1,1,2,2,3,3,4,4,5,5,6,6],"right_children":[2,4,6,8,10,12,14,-1,-1,-1,-1,-1,-1,-1,-1],"split_conditions":[1.64E0,1.98E0,1.38E0,7E0,3.38E0,5E0,1E0,-6.378697E-2,5.881331E-2,5.585295E-2,-3.965136E-2,1.6440505E-4,3.75338E-2,-5.816914E-3,1.2565988E-1],"split_indices":[5,0,12,3,0,4,1,0,0,0,0,0,0,0,0],"split_type":[0,0,0,0,0,0,0,0,0,0,0,0,0,0,0],"sum_hessian":[3.7340403E3,8.1746155E1,3.6522942E3,9.436139E0,7.231001E1,3.6108694E3,4.142476E1,5.8398724E0,3.596267E0,7.011972E1,2.190293E0,3.542154E3,6.871541E1,2.502845E1,1.6396309E1],"tree_param":{"num_deleted":"0","num_feature":"26","num_nodes":"15","size_leaf_vector":"1"}},{"base_weights":[1.2031086E-3,2.2159448E-2,-2.4652192E-1,-1.363266E-2,3.541918E-1,-1.06325656E-1,-5.5072194E-1,4.0570676E-2,-3.2675054E-3,-4.923827E-3,5.0356742E-2,-4.611993E-3,-9.2131905E-2,-1.1813927E-1,-1.8348029E-2],"categories":[],"categories_nodes":[],"categories_segments":[],"categories_sizes":[],"default_left":[0,0,0,0,0,0,0,0,0,0,0,0,0,0,0],"id":52,"left_children":[1,3,5,7,9,11,13,-1,-1,-1,-1,-1,-1,-1,-1],"loss_changes":[1.9511679E1,4.118638E1,1.244356E1,2.4999199E1,2.034731E1,9.864511E0,2.1147276E1,0E0,0E0,0E0,0E0,0E0,0E0,0E0,0E0],"parents":[2147483647,0,0,1,1,2,2,3,3,4,4,5,5,6,6],"right_children":[2,4,6,8,10,12,14,-1,-1,-1,-1,-1,-1,-1,-1],"split_conditions":[5E0,4E0,3.18E0,2.03E0,-2.4E-1,7.8E-1,4.5E-1,4.0570676E-2,-3.2675054E-3,-4.923827E-3,5.0356742E-2,-4.611993E-3,-9.2131905E-2,-1.1813927E-1,-1.8348029E-2],"split_indices":[2,2,8,0,12,12,12,0,0,0,0,0,0,0,0],"split_type":[0,0,0,0,0,0,0,0,0,0,0,0,0,0,0],"sum_hessian":[3.7564023E3,3.4642537E3,2.9214856E2,3.1280212E3,3.362325E2,2.0090654E2,9.124201E1,1.349927E2,2.9930286E3,9.103573E1,2.4519678E2,1.880699E2,1.2836632E1,3.276211E1,5.84799E1],"tree_param":{"num_deleted":"0","num_feature":"26","num_nodes":"15","size_leaf_vector":"1"}},{"base_weights":[-1.2211506E-2,-8.589496E-3,-1.1209605E0,-1.7062632E-2,4.8611003E-1,-1.7781353E0,-1.4247115E-1,9.990892E-4,-2.661622E-2,2.7634734E-2,9.3855694E-2,-2.1168235E-1,7.938626E-3,5.180284E-2,-1.1281792E-1],"categories":[],"categories_nodes":[],"categories_segments":[],"categories_sizes":[],"default_left":[0,0,0,0,0,0,0,0,0,0,0,0,0,0,0],"id":53,"left_children":[1,3,5,7,9,11,13,-1,-1,-1,-1,-1,-1,-1,-1],"loss_changes":[1.495811E1,1.558445E1,7.545577E0,2.4629614E1,5.6826353E0,4.677746E0,4.4647183E0,0E0,0E0,0E0,0E0,0E0,0E0,0E0,0E0],"parents":[2147483647,0,0,1,1,2,2,3,3,4,4,5,5,6,6],"right_children":[2,4,6,8,10,12,14,-1,-1,-1,-1,-1,-1,-1,-1],"split_conditions":[1E1,5E0,2.88E0,1E0,3E0,1E1,2.92E0,9.990892E-4,-2.661622E-2,2.7634734E-2,9.3855694E-2,-2.1168235E-1,7.938626E-3,5.180284E-2,-1.1281792E-1],"split_indices":[4,4,0,4,2,3,5,0,0,0,0,0,0,0,0],"split_type":[0,0,0,0,0,0,0,0,0,0,0,0,0,0,0],"sum_hessian":[3.7261191E3,3.714991E3,1.1128216E1,3.6533818E3,6.1609043E1,6.1682553E0,4.9599605E0,3.2963416E3,3.5704016E2,4.3194202E1,1.841484E1,5.0989504E0,1.0693048E0,3.2539957E0,1.7059648E0],"tree_param":{"num_deleted":"0","num_feature":"26","num_nodes":"15","size_leaf_vector":"1"}},{"base_weights":[6.6476956E-4,2.0886473E-1,-1.6440772E-2,5.3374094E-1,1.2823424E-1,6.243095E-2,-6.6927366E-2,-4.934933E-3,8.604157E-2,7.035635E-2,8.311031E-3,-1.2936215E-2,1.427421E-2,-1.88328E-2,5.3681373E-3],"categories":[],"categories_nodes":[],"categories_segments":[],"categories_sizes":[],"default_left":[0,0,0,0,0,0,0,0,0,0,0,0,0,0,0],"id":54,"left_children":[1,3,5,7,9,11,13,-1,-1,-1,-1,-1,-1,-1,-1],"loss_changes":[1.3340561E1,7.3812532E0,1.378793E1,1.0753668E1,5.8908305E0,2.083588E1,3.0919897E1,0E0,0E0,0E0,0E0,0E0,0E0,0E0,0E0],"parents":[2147483647,0,0,1,1,2,2,3,3,4,4,5,5,6,6],"right_children":[2,4,6,8,10,12,14,-1,-1,-1,-1,-1,-1,-1,-1],"split_conditions":[2.03E0,1E0,2E0,2.55E0,9.2E-1,1E0,3E0,-4.934933E-3,8.604157E-2,7.035635E-2,8.311031E-3,-1.2936215E-2,1.427421E-2,-1.88328E-2,5.3681373E-3],"split_indices":[5,3,2,0,5,2,2,0,0,0,0,0,0,0,0],"split_type":[0,0,0,0,0,0,0,0,0,0,0,0,0,0,0],"sum_hessian":[3.7439397E3,2.8339456E2,3.4605452E3,5.5232456E1,2.281621E2,1.3505061E3,2.110039E3,2.0137478E1,3.509498E1,1.5532407E1,2.1262968E2,3.9841953E2,9.520866E2,1.0512875E3,1.0587516E3],"tree_param":{"num_deleted":"0","num_feature":"26","num_nodes":"15","size_leaf_vector":"1"}},{"base_weights":[-1.9938827E-2,4.838634E-2,-1.0408756E-1,1.9205813E-1,-1.6274106E-2,-1.4832656E-1,1.9897202E-1,2.1201078E-2,-1.3526863E-1,-3.6253862E-3,5.5295475E-2,-1.1529255E-2,-6.539708E-2,2.8442843E-2,-3.1570505E-2],"categories":[],"categories_nodes":[],"categories_segments":[],"categories_sizes":[],"default_left":[0,0,0,0,0,0,0,0,0,0,0,0,0,0,0],"id":55,"left_children":[1,3,5,7,9,11,13,-1,-1,-1,-1,-1,-1,-1,-1],"loss_changes":[2.1319155E1,1.9015934E1,2.2305687E1,1.9867516E1,1.6082495E1,2.4152195E1,9.417278E0,0E0,0E0,0E0,0E0,0E0,0E0,0E0,0E0],"parents":[2147483647,0,0,1,1,2,2,3,3,4,4,5,5,6,6],"right_children":[2,4,6,8,10,12,14,-1,-1,-1,-1,-1,-1,-1,-1],"split_conditions":[3.05E0,2E0,8.8E-1,8E0,3.63E0,5E0,2.67E0,2.1201078E-2,-1.3526863E-1,-3.6253862E-3,5.5295475E-2,-1.1529255E-2,-6.539708E-2,2.8442843E-2,-3.1570505E-2],"split_indices":[5,2,12,4,0,2,0,0,0,0,0,0,0,0,0],"split_type":[0,0,0,0,0,0,0,0,0,0,0,0,0,0,0],"sum_hessian":[3.706141E3,2.0456146E3,1.6605264E3,6.3428955E2,1.4113251E3,1.4494536E3,2.1107286E2,6.27053E2,7.2365594E0,1.3643724E3,4.695274E1,1.3617196E3,8.773392E1,1.8140068E2,2.9672192E1],"tree_param":{"num_deleted":"0","num_feature":"26","num_nodes":"15","size_leaf_vector":"1"}},{"base_weights":[-2.4529519E-3,1.2123856E-1,-3.5656005E-2,3.8188884E-1,8.3233856E-2,-4.8825003E-2,3.1854752E-1,9.118684E-2,1.5710713E-2,-2.8008765E-2,1.1745689E-2,2.3120197E-2,-6.646793E-3,6.8787664E-2,-8.810177E-3],"categories":[],"categories_nodes":[],"categories_segments":[],"categories_sizes":[],"default_left":[0,0,0,0,0,0,0,0,0,0,0,0,0,0,0],"id":56,"left_children":[1,3,5,7,9,11,13,-1,-1,-1,-1,-1,-1,-1,-1],"loss_changes":[1.5228741E1,7.7416725E0,1.3651184E1,1.1719686E1,8.564428E0,1.3944363E1,1.5818551E1,0E0,0E0,0E0,0E0,0E0,0E0,0E0,0E0],"parents":[2147483647,0,0,1,1,2,2,3,3,4,4,5,5,6,6],"right_children":[2,4,6,8,10,12,14,-1,-1,-1,-1,-1,-1,-1,-1],"split_conditions":[-4.4E-1,-1.2E0,3.86E0,1E0,-1.02E0,2.03E0,3.48E0,9.118684E-2,1.5710713E-2,-2.8008765E-2,1.1745689E-2,2.3120197E-2,-6.646793E-3,6.8787664E-2,-8.810177E-3],"split_indices":[12,12,5,3,12,0,0,0,0,0,0,0,0,0,0],"split_type":[0,0,0,0,0,0,0,0,0,0,0,0,0,0,0],"sum_hessian":[3.7060017E3,7.837272E2,2.9222744E3,9.85801E1,6.851471E2,2.8183525E3,1.0392189E2,2.844862E1,7.0131485E1,5.836314E1,6.2678394E2,1.6632658E2,2.652026E3,5.409756E1,4.9824333E1],"tree_param":{"num_deleted":"0","num_feature":"26","num_nodes":"15","size_leaf_vector":"1"}},{"base_weights":[-4.032299E-3,2.8413152E-2,-1.4807832E-1,1.14258565E-1,-1.8384783E-2,-2.2996275E-1,1.3474849E-1,1.4068695E-2,-4.140268E-2,-6.639705E-3,1.2839719E-2,6.1131444E-2,-2.6709E-2,-1.4015286E-1,2.8650615E-2],"categories":[],"categories_nodes":[],"categories_segments":[],"categories_sizes":[],"default_left":[0,0,0,0,0,0,0,0,0,0,0,0,0,0,0],"id":57,"left_children":[1,3,5,7,9,11,13,-1,-1,-1,-1,-1,-1,-1,-1],"loss_changes":[1.7334787E1,1.2163953E1,1.5822091E1,1.4972197E1,1.3822013E1,1.6690393E1,3.623989E1,0E0,0E0,0E0,0E0,0E0,0E0,0E0,0E0],"parents":[2147483647,0,0,1,1,2,2,3,3,4,4,5,5,6,6],"right_children":[2,4,6,8,10,12,14,-1,-1,-1,-1,-1,-1,-1,-1],"split_conditions":[3.44E0,2E0,3E0,3.67E0,2E0,2.27E0,2.61E0,1.4068695E-2,-4.140268E-2,-6.639705E-3,1.2839719E-2,6.1131444E-2,-2.6709E-2,-1.4015286E-1,2.8650615E-2],"split_indices":[5,2,2,0,3,0,0,0,0,0,0,0,0,0,0],"split_type":[0,0,0,0,0,0,0,0,0,0,0,0,0,0,0],"sum_hessian":[3.707156E3,3.0263032E3,6.808528E2,1.0672023E3,1.959101E3,5.281337E2,1.527191E2,1.017056E3,5.0146286E1,1.4766406E3,4.8246033E2,2.1668787E1,5.0646494E2,1.2989377E1,1.3972972E2],"tree_param":{"num_deleted":"0","num_feature":"26","num_nodes":"15","size_leaf_vector":"1"}},{"base_weights":[-1.3355134E-2,-2.7689395E-2,3.0653533E-1,9.496798E-2,-5.8677867E-2,1.9409332E-1,6.5297365E-1,2.7448485E-2,1.989526E-3,-1.7252477E-2,-3.2180732E-3,6.486767E-2,1.0867799E-2,4.6672296E-2,9.6751444E-2],"categories":[],"categories_nodes":[],"categories_segments":[],"categories_sizes":[],"default_left":[0,0,0,0,0,0,0,0,0,0,0,0,0,0,0],"id":58,"left_children":[1,3,5,7,9,11,13,-1,-1,-1,-1,-1,-1,-1,-1],"loss_changes":[1.6836843E1,1.3360298E1,6.007844E0,9.549785E0,8.457553E0,4.601184E0,1.7843151E0,0E0,0E0,0E0,0E0,0E0,0E0,0E0,0E0],"parents":[2147483647,0,0,1,1,2,2,3,3,4,4,5,5,6,6],"right_children":[2,4,6,8,10,12,14,-1,-1,-1,-1,-1,-1,-1,-1],"split_conditions":[6E0,-4.5E-1,3.05E0,1E0,-1.8E-1,1.55E0,-2E-1,2.7448485E-2,1.989526E-3,-1.7252477E-2,-3.2180732E-3,6.486767E-2,1.0867799E-2,4.6672296E-2,9.6751444E-2],"split_indices":[3,12,0,1,12,5,12,0,0,0,0,0,0,0,0],"split_type":[0,0,0,0,0,0,0,0,0,0,0,0,0,0,0],"sum_hessian":[3.6689912E3,3.5125095E3,1.564818E2,7.0801337E2,2.804496E3,1.19316124E2,3.7165665E1,2.079939E2,5.000195E2,5.28452E2,2.276044E3,1.7829983E1,1.01486145E2,2.4903341E1,1.2262323E1],"tree_param":{"num_deleted":"0","num_feature":"26","num_nodes":"15","size_leaf_vector":"1"}},{"base_weights":[1.4778129E-2,3.127324E-2,-1.7560658E-1,-9.943055E-4,3.31731E-1,-2.3654069E-1,5.904227E-1,5.2275117E-2,-1.0624949E-3,1.7010497E-3,4.562666E-2,-1.2019238E-2,-5.90592E-2,9.69899E-3,1.7136185E-1],"categories":[],"categories_nodes":[],"categories_segments":[],"categories_sizes":[],"default_left":[0,0,0,0,0,0,0,0,0,0,0,0,0,0,0],"id":59,"left_children":[1,3,5,7,9,11,13,-1,-1,-1,-1,-1,-1,-1,-1],"loss_changes":[1.1657965E1,3.3113598E1,1.3956082E1,1.5567584E1,1.29746475E1,1.1253138E1,1.2080128E1,0E0,0E0,0E0,0E0,0E0,0E0,0E0,0E0],"parents":[2147483647,0,0,1,1,2,2,3,3,4,4,5,5,6,6],"right_children":[2,4,6,8,10,12,14,-1,-1,-1,-1,-1,-1,-1,-1],"split_conditions":[5E0,4E0,1E0,1.55E0,2.59E0,3E0,1E0,5.2275117E-2,-1.0624949E-3,1.7010497E-3,4.562666E-2,-1.2019238E-2,-5.90592E-2,9.69899E-3,1.7136185E-1],"split_indices":[2,2,4,5,7,0,1,0,0,0,0,0,0,0,0],"split_type":[0,0,0,0,0,0,0,0,0,0,0,0,0,0,0],"sum_hessian":[3.7094863E3,3.4144878E3,2.9499872E2,3.0842522E3,3.302354E2,2.7390225E2,2.1096455E1,5.472726E1,3.029525E3,9.394886E1,2.3628654E2,2.0716364E2,6.673862E1,1.5412095E1,5.6843596E0],"tree_param":{"num_deleted":"0","num_feature":"26","num_nodes":"15","size_leaf_vector":"1"}},{"base_weights":[1.1156902E-2,1.6256887E-3,3.398033E-1,1.6844528E-2,-3.0646852E-1,4.2271206E-1,-1.126573E-1,1.1204694E-3,7.262403E-2,-4.6469346E-2,2.4078047E-2,7.112547E-2,6.290519E-3],"categories":[],"categories_nodes":[],"categories_segments":[],"categories_sizes":[],"default_left":[0,0,0,0,0,0,0,0,0,0,0,0,0],"id":60,"left_children":[1,3,5,7,9,11,-1,-1,-1,-1,-1,-1,-1],"loss_changes":[1.1621922E1,1.691703E1,1.3189296E1,1.3746892E1,1.4817327E1,1.0306145E1,0E0,0E0,0E0,0E0,0E0,0E0,0E0],"parents":[2147483647,0,0,1,1,2,2,3,3,4,4,5,5],"right_children":[2,4,6,8,10,12,-1,-1,-1,-1,-1,-1,-1],"split_conditions":[3.86E0,3.7E0,5E0,1.38E0,3E0,3.54E0,-1.126573E-1,1.1204694E-3,7.262403E-2,-4.6469346E-2,2.4078047E-2,7.112547E-2,6.290519E-3],"split_indices":[7,5,2,12,2,0,0,0,0,0,0,0,0],"split_type":[0,0,0,0,0,0,0,0,0,0,0,0,0],"sum_hessian":[3.709407E3,3.6058376E3,1.0356947E2,3.437006E3,1.6883145E2,9.8700676E1,4.8687963E0,3.4109045E3,2.6101553E1,1.3108266E2,3.774879E1,5.423269E1,4.446799E1],"tree_param":{"num_deleted":"0","num_feature":"26","num_nodes":"13","size_leaf_vector":"1"}},{"base_weights":[-3.2202166E-4,2.9168986E-3,-1.041705E0,-5.9980135E-3,5.358309E-1,-1.3486398E0,1.9041955E-1,1.383093E-3,-1.8362954E-2,7.273955E-2,1.4585446E-2,-1.526657E-1,-9.334527E-4,-1.20358326E-1,1.4843383E-1],"categories":[],"categories_nodes":[],"categories_segments":[],"categories_sizes":[],"default_left":[0,0,0,0,0,0,0,0,0,0,0,0,0,0,0],"id":61,"left_children":[1,3,5,7,9,11,13,-1,-1,-1,-1,-1,-1,-1,-1],"loss_changes":[1.240122E1,1.7416914E1,4.5679827E0,1.2703908E1,4.4000473E0,2.1911297E0,7.467769E0,0E0,0E0,0E0,0E0,0E0,0E0,0E0,0E0],"parents":[2147483647,0,0,1,1,2,2,3,3,4,4,5,5,6,6],"right_children":[2,4,6,8,10,12,14,-1,-1,-1,-1,-1,-1,-1,-1],"split_conditions":[1E1,5E0,3.34E0,1E0,2E0,5E0,5.8E1,1.383093E-3,-1.8362954E-2,7.273955E-2,1.4585446E-2,-1.526657E-1,-9.334527E-4,-1.20358326E-1,1.4843383E-1],"split_indices":[4,4,5,4,3,2,4,0,0,0,0,0,0,0,0],"split_type":[0,0,0,0,0,0,0,0,0,0,0,0,0,0,0],"sum_hessian":[3.674761E3,3.6643613E3,1.0399735E1,3.6050427E3,5.9318615E1,8.25001E0,2.1497262E0,3.2438545E3,3.6118814E2,3.9198345E1,2.0120272E1,7.158617E0,1.0913925E0,1.0684487E0,1.0812774E0],"tree_param":{"num_deleted":"0","num_feature":"26","num_nodes":"15","size_leaf_vector":"1"}},{"base_weights":[7.5979093E-3,1.0546187E-2,-1.0219928E0,3.0489283E-4,3.3460432E-1,-1.3918717E0,4.6552528E-2,-7.05692E-4,4.7330387E-2,2.199926E-2,7.226246E-2,-1.5953553E-1,6.997907E-3],"categories":[],"categories_nodes":[],"categories_segments":[],"categories_sizes":[],"default_left":[0,0,0,0,0,0,0,0,0,0,0,0,0],"id":62,"left_children":[1,3,5,7,9,11,-1,-1,-1,-1,-1,-1,-1],"loss_changes":[1.1166813E1,1.2165401E1,6.4273567E0,1.2380098E1,4.835059E0,2.6885624E0,0E0,0E0,0E0,0E0,0E0,0E0,0E0],"parents":[2147483647,0,0,1,1,2,2,3,3,4,4,5,5],"right_children":[2,4,6,8,10,12,-1,-1,-1,-1,-1,-1,-1],"split_conditions":[1E1,7E0,3.35E0,5E0,3.05E0,1E1,4.6552528E-2,-7.05692E-4,4.7330387E-2,2.199926E-2,7.226246E-2,-1.5953553E-1,6.997907E-3],"split_indices":[4,3,0,4,0,3,0,0,0,0,0,0,0],"split_type":[0,0,0,0,0,0,0,0,0,0,0,0,0],"sum_hessian":[3.6741653E3,3.6646611E3,9.50416E0,3.5533643E3,1.1129695E2,7.663012E0,1.8411477E0,3.4998767E3,5.3487423E1,8.712833E1,2.416863E1,6.6465187E0,1.0164932E0],"tree_param":{"num_deleted":"0","num_feature":"26","num_nodes":"13","size_leaf_vector":"1"}},{"base_weights":[-6.872233E-3,8.962306E-3,-1.9193348E-1,-3.767607E-2,1.4762378E-1,2.0675527E-1,-2.875106E-1,-6.4076245E-4,-2.7539251E-2,8.47759E-4,3.305432E-2,7.561137E-3,1.078905E-1,-8.8373326E-2,-2.021446E-2],"categories":[],"categories_nodes":[],"categories_segments":[],"categories_sizes":[],"default_left":[0,0,0,0,0,0,0,0,0,0,0,0,0,0,0],"id":63,"left_children":[1,3,5,7,9,11,13,-1,-1,-1,-1,-1,-1,-1,-1],"loss_changes":[1.0752301E1,2.1866947E1,1.1079923E1,1.8807049E1,2.1658354E1,6.3814936E0,1.1716166E1,0E0,0E0,0E0,0E0,0E0,0E0,0E0,0E0],"parents":[2147483647,0,0,1,1,2,2,3,3,4,4,5,5,6,6],"right_children":[2,4,6,8,10,12,14,-1,-1,-1,-1,-1,-1,-1,-1],"split_conditions":[5E0,3E0,-2.6E-1,1E0,2.95E0,1E0,-3E-2,-6.4076245E-4,-2.7539251E-2,8.47759E-4,3.305432E-2,7.561137E-3,1.078905E-1,-8.8373326E-2,-2.021446E-2],"split_indices":[2,2,12,4,7,4,12,0,0,0,0,0,0,0,0],"split_type":[0,0,0,0,0,0,0,0,0,0,0,0,0,0,0],"sum_hessian":[3.66769E3,3.3794805E3,2.8820953E2,2.5294392E3,8.5004114E2,5.550668E1,2.3270285E2,2.2363093E3,2.931299E2,4.833811E2,3.6666006E2,4.9195866E1,6.3108153E0,2.7973682E1,2.0472917E2],"tree_param":{"num_deleted":"0","num_feature":"26","num_nodes":"15","size_leaf_vector":"1"}},{"base_weights":[-2.8373133E-3,-7.3151817E-3,6.2482166E-1,2.5674114E-1,-1.4558531E-2,8.757066E-2,-3.5582716E-3,7.309844E-3,6.879594E-2,1.5501087E-3,-9.096544E-3,-4.1018043E-2,5.5849712E-2],"categories":[],"categories_nodes":[],"categories_segments":[],"categories_sizes":[],"default_left":[0,0,0,0,0,0,0,0,0,0,0,0,0],"id":64,"left_children":[1,3,5,7,9,-1,11,-1,-1,-1,-1,-1,-1],"loss_changes":[1.0334593E1,6.9856195E0,4.1094685E0,7.671831E0,8.163765E0,0E0,2.1552775E0,0E0,0E0,0E0,0E0,0E0,0E0],"parents":[2147483647,0,0,1,1,2,2,3,3,4,4,6,6],"right_children":[2,4,6,8,10,-1,12,-1,-1,-1,-1,-1,-1],"split_conditions":[1.2E1,-1.2E0,2.9E-1,2.12E0,3.24E0,8.757066E-2,1.6E1,7.309844E-3,6.879594E-2,1.5501087E-3,-9.096544E-3,-4.1018043E-2,5.5849712E-2],"split_indices":[3,12,12,5,0,0,3,0,0,0,0,0,0],"split_type":[0,0,0,0,0,0,0,0,0,0,0,0,0],"sum_hessian":[3.6744133E3,3.6493662E3,2.50471E1,9.651371E1,3.5528525E3,1.7619001E1,7.428099E0,6.850783E1,2.800588E1,2.550317E3,1.0025356E3,4.4667892E0,2.9613101E0],"tree_param":{"num_deleted":"0","num_feature":"26","num_nodes":"13","size_leaf_vector":"1"}},{"base_weights":[3.2395555E-3,-6.08413E-3,3.0772617E-1,2.4287956E-2,-1.2878078E-1,7.888687E-1,2.1944994E-2,4.493343E-3,-1.465966E-2,-2.197158E-2,2.3477398E-2,-4.547163E-2,1.151733E-1,1.3837689E-1,-1.7848607E-2],"categories":[],"categories_nodes":[],"categories_segments":[],"categories_sizes":[],"default_left":[0,0,0,0,0,0,0,0,0,0,0,0,0,0,0],"id":65,"left_children":[1,3,5,7,9,11,13,-1,-1,-1,-1,-1,-1,-1,-1],"loss_changes":[1.0486457E1,1.3360548E1,1.5073058E1,1.0146081E1,2.3569622E1,1.896494E1,1.932092E1,0E0,0E0,0E0,0E0,0E0,0E0,0E0,0E0],"parents":[2147483647,0,0,1,1,2,2,3,3,4,4,5,5,6,6],"right_children":[2,4,6,8,10,12,14,-1,-1,-1,-1,-1,-1,-1,-1],"split_conditions":[3.86E0,3.39E0,3.92E0,5.7E-1,1E0,2.6E-1,4E-2,4.493343E-3,-1.465966E-2,-2.197158E-2,2.3477398E-2,-4.547163E-2,1.151733E-1,1.3837689E-1,-1.7848607E-2],"split_indices":[7,5,5,12,3,12,12,0,0,0,0,0,0,0,0],"split_type":[0,0,0,0,0,0,0,0,0,0,0,0,0,0,0],"sum_hessian":[3.6921367E3,3.5833896E3,1.0874697E2,2.873012E3,7.103776E2,3.986674E1,6.8880226E1,2.563981E3,3.090312E2,5.6856067E2,1.4181696E2,8.94791E0,3.0918829E1,8.079602E0,6.0800625E1],"tree_param":{"num_deleted":"0","num_feature":"26","num_nodes":"15","size_leaf_vector":"1"}},{"base_weights":[5.8337697E-4,7.290459E-2,-4.4208676E-2,4.7950782E-2,5.337325E-1,-8.0547523E-1,-2.858212E-2,5.296798E-3,-1.2931864E-1,-1.6240081E-3,1.2545721E-1,-9.008092E-2,1.6049755E-1,3.610199E-2,-4.761782E-3],"categories":[],"categories_nodes":[],"categories_segments":[],"categories_sizes":[],"default_left":[0,0,0,0,0,0,0,0,0,0,0,0,0,0,0],"id":66,"left_children":[1,3,5,7,9,11,13,-1,-1,-1,-1,-1,-1,-1,-1],"loss_changes":[1.191366E1,1.6149544E1,2.6994139E1,9.054401E0,2.8626173E1,1.193486E1,1.652949E1,0E0,0E0,0E0,0E0,0E0,0E0,0E0,0E0],"parents":[2147483647,0,0,1,1,2,2,3,3,4,4,5,5,6,6],"right_children":[2,4,6,8,10,12,14,-1,-1,-1,-1,-1,-1,-1,-1],"split_conditions":[2.77E0,2.75E0,2.79E0,2.8E1,3.08E0,3.92E0,2.83E0,5.296798E-3,-1.2931864E-1,-1.6240081E-3,1.2545721E-1,-9.008092E-2,1.6049755E-1,3.610199E-2,-4.761782E-3],"split_indices":[0,0,0,4,7,7,0,0,0,0,0,0,0,0,0],"split_type":[0,0,0,0,0,0,0,0,0,0,0,0,0,0,0],"sum_hessian":[3.6757244E3,1.4056062E3,2.2701182E3,1.3344498E3,7.1156334E1,4.464485E1,2.2254734E3,1.3304332E3,4.0166464E0,4.0916275E1,3.0240055E1,4.3548775E1,1.096075E0,1.02833046E2,2.1226401E3],"tree_param":{"num_deleted":"0","num_feature":"26","num_nodes":"15","size_leaf_vector":"1"}},{"base_weights":[1.00892E-3,1.8248683E-2,-2.0448677E-1,-1.3314601E-2,3.01498E-1,-2.6539847E-1,5.3865755E-1,-2.507519E-3,3.335885E-2,-2.0093436E-3,4.252305E-2,-1.3068539E-2,-4.9904317E-2,-2.980598E-3,1.6756682E-1],"categories":[],"categories_nodes":[],"categories_segments":[],"categories_sizes":[],"default_left":[0,0,0,0,0,0,0,0,0,0,0,0,0,0,0],"id":67,"left_children":[1,3,5,7,9,11,13,-1,-1,-1,-1,-1,-1,-1,-1],"loss_changes":[1.2944417E1,3.0141428E1,1.2944578E1,1.2386237E1,1.3458706E1,8.182909E0,1.4110828E1,0E0,0E0,0E0,0E0,0E0,0E0,0E0,0E0],"parents":[2147483647,0,0,1,1,2,2,3,3,4,4,5,5,6,6],"right_children":[2,4,6,8,10,12,14,-1,-1,-1,-1,-1,-1,-1,-1],"split_conditions":[5E0,4E0,1E0,3.86E0,2.59E0,2.8E0,1E0,-2.507519E-3,3.335885E-2,-2.0093436E-3,4.252305E-2,-1.3068539E-2,-4.9904317E-2,-2.980598E-3,1.6756682E-1],"split_indices":[2,2,4,5,7,0,1,0,0,0,0,0,0,0,0],"split_type":[0,0,0,0,0,0,0,0,0,0,0,0,0,0,0],"sum_hessian":[3.6517778E3,3.3699702E3,2.8180756E2,3.0329526E3,3.370176E2,2.6105325E2,2.0754318E1,2.9343994E3,9.855328E1,9.38725E1,2.4314513E2,1.6657185E2,9.44814E1,1.4485757E1,6.268561E0],"tree_param":{"num_deleted":"0","num_feature":"26","num_nodes":"15","size_leaf_vector":"1"}},{"base_weights":[-4.3224483E-3,1.0748183E-1,-3.3430893E-2,1.3245738E-1,-2.160776E-1,3.7141968E-2,-8.1030786E-2,1.4609757E-2,-9.786143E-2,-5.4185934E-2,5.0449617E-2,7.506727E-4,5.1919457E-2,-1.9379748E-2,3.4796011E-3],"categories":[],"categories_nodes":[],"categories_segments":[],"categories_sizes":[],"default_left":[0,0,0,0,0,0,0,0,0,0,0,0,0,0,0],"id":68,"left_children":[1,3,5,7,9,11,13,-1,-1,-1,-1,-1,-1,-1,-1],"loss_changes":[1.19386835E1,6.152438E0,9.7802E0,1.0813987E1,1.3110138E1,1.6753855E1,2.2713709E1,0E0,0E0,0E0,0E0,0E0,0E0,0E0,0E0],"parents":[2147483647,0,0,1,1,2,2,3,3,4,4,5,5,6,6],"right_children":[2,4,6,8,10,12,14,-1,-1,-1,-1,-1,-1,-1,-1],"split_conditions":[-4.5E-1,3.75E0,2E0,3.14E0,3.89E0,1E0,3E0,1.4609757E-2,-9.786143E-2,-5.4185934E-2,5.0449617E-2,7.506727E-4,5.1919457E-2,-1.9379748E-2,3.4796011E-3],"split_indices":[12,0,2,5,0,4,2,0,0,0,0,0,0,0,0],"split_type":[0,0,0,0,0,0,0,0,0,0,0,0,0,0,0],"sum_hessian":[3.6663157E3,7.5679736E2,2.9095183E3,7.0311456E2,5.368279E1,1.1720403E3,1.7374781E3,6.954454E2,7.6691985E0,3.7139503E1,1.6543285E1,1.1051163E3,6.692388E1,8.8002747E2,8.574506E2],"tree_param":{"num_deleted":"0","num_feature":"26","num_nodes":"15","size_leaf_vector":"1"}},{"base_weights":[2.1379755E-3,5.519707E-1,-1.0106905E-3,-1.1277089E-1,7.7584314E-1,1.7605878E-1,-9.487296E-3,-7.146259E-2,5.9415847E-2,2.9906912E-3,8.2727596E-2,2.1451633E-2,-1.6499266E-1,-3.970494E-3,5.7768724E-3],"categories":[],"categories_nodes":[],"categories_segments":[],"categories_sizes":[],"default_left":[0,0,0,0,0,0,0,0,0,0,0,0,0,0,0],"id":69,"left_children":[1,3,5,7,9,11,13,-1,-1,-1,-1,-1,-1,-1,-1],"loss_changes":[6.3143425E0,3.1780767E0,5.445919E0,3.0221632E0,5.761585E-1,1.1993994E1,7.03909E0,0E0,0E0,0E0,0E0,0E0,0E0,0E0,0E0],"parents":[2147483647,0,0,1,1,2,2,3,3,4,4,5,5,6,6],"right_children":[2,4,6,8,10,12,14,-1,-1,-1,-1,-1,-1,-1,-1],"split_conditions":[1.17E0,4E0,2.03E0,-1.28E0,2E0,3.68E0,3E0,-7.146259E-2,5.9415847E-2,2.9906912E-3,8.2727596E-2,2.1451633E-2,-1.6499266E-1,-3.970494E-3,5.7768724E-3],"split_indices":[5,3,0,12,0,5,2,0,0,0,0,0,0,0,0],"split_type":[0,0,0,0,0,0,0,0,0,0,0,0,0,0,0],"sum_hessian":[3.6459739E3,1.9767632E1,3.626206E3,5.1051745E0,1.46624565E1,1.6475874E2,3.4614475E3,2.7516384E0,2.353536E0,1.0477837E0,1.3614673E1,1.6222461E2,2.534133E0,2.3886526E3,1.0727948E3],"tree_param":{"num_deleted":"0","num_feature":"26","num_nodes":"15","size_leaf_vector":"1"}},{"base_weights":[5.950743E-4,-1.8193433E-1,2.2192813E-2,-3.1987333E-1,3.784931E-1,4.738115E-2,-1.598851E-1,1.8839453E-1,-3.6566943E-2,1.828562E-2,9.9137E-2,6.8978877E-3,-1.6516538E-2,-5.9402147E-3,-5.73166E-2],"categories":[],"categories_nodes":[],"categories_segments":[],"categories_sizes":[],"default_left":[0,0,0,0,0,0,0,0,0,0,0,0,0,0,0],"id":70,"left_children":[1,3,5,7,9,11,13,-1,-1,-1,-1,-1,-1,-1,-1],"loss_changes":[1.44246855E1,3.0049204E1,1.5013087E1,3.2099083E1,9.042197E0,1.3209183E1,1.6487564E1,0E0,0E0,0E0,0E0,0E0,0E0,0E0,0E0],"parents":[2147483647,0,0,1,1,2,2,3,3,4,4,5,5,6,6],"right_children":[2,4,6,8,10,12,14,-1,-1,-1,-1,-1,-1,-1,-1],"split_conditions":[1E0,1E0,1E0,-9.3E-1,3.47E0,5E0,3.23E0,1.8839453E-1,-3.6566943E-2,1.828562E-2,9.9137E-2,6.8978877E-3,-1.6516538E-2,-5.9402147E-3,-5.73166E-2],"split_indices":[2,3,4,12,0,2,0,0,0,0,0,0,0,0,0],"split_type":[0,0,0,0,0,0,0,0,0,0,0,0,0,0,0],"sum_hessian":[3.6569995E3,3.8614456E2,3.270855E3,3.1021902E2,7.592554E1,2.8740093E3,3.968456E2,5.498128E0,3.047209E2,5.853795E1,1.7387589E1,2.6095208E3,2.6448862E2,3.201498E2,7.66958E1],"tree_param":{"num_deleted":"0","num_feature":"26","num_nodes":"15","size_leaf_vector":"1"}},{"base_weights":[7.591306E-3,2.7807897E-1,3.5856134E-4,1.3892925E0,2.0180598E-1,-1.0083628E-2,2.1941887E-1,2.3765843E-2,2.6133478E-1,3.7505385E-2,-1.1606476E-2,9.068004E-4,-2.527827E-2,1.1069871E-2,1.1453682E-1],"categories":[],"categories_nodes":[],"categories_segments":[],"categories_sizes":[],"default_left":[0,0,0,0,0,0,0,0,0,0,0,0,0,0,0],"id":71,"left_children":[1,3,5,7,9,11,13,-1,-1,-1,-1,-1,-1,-1,-1],"loss_changes":[7.1593113E0,7.797272E0,8.157581E0,7.7686186E0,5.019339E0,1.5824261E1,1.6207767E1,0E0,0E0,0E0,0E0,0E0,0E0,0E0,0E0],"parents":[2147483647,0,0,1,1,2,2,3,3,4,4,5,5,6,6],"right_children":[2,4,6,8,10,12,14,-1,-1,-1,-1,-1,-1,-1,-1],"split_conditions":[-1.2E0,1E0,2E0,-1.28E0,2E0,1E0,3.44E0,2.3765843E-2,2.6133478E-1,3.7505385E-2,-1.1606476E-2,9.068004E-4,-2.527827E-2,1.1069871E-2,1.1453682E-1],"split_indices":[12,2,4,12,7,4,0,0,0,0,0,0,0,0,0],"split_type":[0,0,0,0,0,0,0,0,0,0,0,0,0,0,0],"sum_hessian":[3.6585417E3,9.430511E1,3.5642366E3,4.9515624E0,8.9353546E1,3.402977E3,1.6125949E2,3.1665335E0,1.7850287E0,5.7716595E1,3.1636951E1,3.1549773E3,2.4799983E2,1.4531671E2,1.5942781E1],"tree_param":{"num_deleted":"0","num_feature":"26","num_nodes":"15","size_leaf_vector":"1"}},{"base_weights":[-1.0762396E-2,1.943897E-2,-1.1800764E-1,-4.7309113E-5,1.5859278E-1,-1.874779E-1,1.888831E-1,-3.7323282E-4,6.765944E-2,5.190664E-2,5.09231E-3,1.0537519E-1,-2.1079991E-2,-1.9411674E-1,2.3718892E-2],"categories":[],"categories_nodes":[],"categories_segments":[],"categories_sizes":[],"default_left":[0,0,0,0,0,0,0,0,0,0,0,0,0,0,0],"id":72,"left_children":[1,3,5,7,9,11,13,-1,-1,-1,-1,-1,-1,-1,-1],"loss_changes":[1.1761001E1,7.6834273E0,1.7045523E1,6.202441E0,1.3482275E1,1.9069761E1,1.5665014E1,0E0,0E0,0E0,0E0,0E0,0E0,0E0,0E0],"parents":[2147483647,0,0,1,1,2,2,3,3,4,4,5,5,6,6],"right_children":[2,4,6,8,10,12,14,-1,-1,-1,-1,-1,-1,-1,-1],"split_conditions":[3.39E0,3.43E0,1E0,1.4E1,1E0,2.01E0,2.01E0,-3.7323282E-4,6.765944E-2,5.190664E-2,5.09231E-3,1.0537519E-1,-2.1079991E-2,-1.9411674E-1,2.3718892E-2],"split_indices":[5,0,3,3,1,0,0,0,0,0,0,0,0,0,0],"split_type":[0,0,0,0,0,0,0,0,0,0,0,0,0,0,0],"sum_hessian":[3.6294036E3,2.8325479E3,7.9685596E2,2.4854934E3,3.4705426E2,6.5008624E2,1.4676965E2,2.4730198E3,1.2473685E1,7.894125E1,2.68113E2,1.1174623E1,6.389116E2,2.3857296E0,1.4438393E2],"tree_param":{"num_deleted":"0","num_feature":"26","num_nodes":"15","size_leaf_vector":"1"}},{"base_weights":[-2.182381E-3,6.0984496E-2,-4.1605E-2,3.5415754E-2,4.5308816E-1,-1.0981512E-1,2.6934426E-2,5.3252023E-2,1.2263585E-3,-3.06321E-2,9.1928355E-2,-4.974622E-3,-3.643884E-2,1.16912975E-4,7.327961E-2],"categories":[],"categories_nodes":[],"categories_segments":[],"categories_sizes":[],"default_left":[0,0,0,0,0,0,0,0,0,0,0,0,0,0,0],"id":73,"left_children":[1,3,5,7,9,11,13,-1,-1,-1,-1,-1,-1,-1,-1],"loss_changes":[9.047849E0,1.3982007E1,1.046171E1,1.5091528E1,3.0511982E1,1.7131079E1,2.030778E1,0E0,0E0,0E0,0E0,0E0,0E0,0E0,0E0],"parents":[2147483647,0,0,1,1,2,2,3,3,4,4,5,5,6,6],"right_children":[2,4,6,8,10,12,14,-1,-1,-1,-1,-1,-1,-1,-1],"split_conditions":[2E0,1E0,3E0,2.03E0,2.75E0,1E0,2E0,5.3252023E-2,1.2263585E-3,-3.06321E-2,9.1928355E-2,-4.974622E-3,-3.643884E-2,1.16912975E-4,7.327961E-2],"split_indices":[2,4,2,0,5,4,4,0,0,0,0,0,0,0,0],"split_type":[0,0,0,0,0,0,0,0,0,0,0,0,0,0,0],"sum_hessian":[3.631358E3,1.3952313E3,2.2361267E3,1.3108427E3,8.438861E1,1.1204539E3,1.1156727E3,5.7355312E1,1.2534874E3,3.223018E1,5.2158432E1,9.0751324E2,2.1294067E2,1.0773491E3,3.832364E1],"tree_param":{"num_deleted":"0","num_feature":"26","num_nodes":"15","size_leaf_vector":"1"}},{"base_weights":[2.040839E-3,6.9043964E-2,-3.9468702E-2,-6.425417E-2,1.1953108E-1,-7.718386E-2,9.486566E-2,-1.8427644E-2,4.143287E-2,1.9640388E-2,-1.5068108E-2,-9.4669815E-3,6.064728E-2,1.3512242E-2,-5.4230448E-2],"categories":[],"categories_nodes":[],"categories_segments":[],"categories_sizes":[],"default_left":[0,0,0,0,0,0,0,0,0,0,0,0,0,0,0],"id":74,"left_children":[1,3,5,7,9,11,13,-1,-1,-1,-1,-1,-1,-1,-1],"loss_changes":[1.0129465E1,9.383564E0,1.1401087E1,2.2097185E1,2.1026188E1,2.1054615E1,1.2729843E1,0E0,0E0,0E0,0E0,0E0,0E0,0E0,0E0],"parents":[2147483647,0,0,1,1,2,2,3,3,4,4,5,5,6,6],"right_children":[2,4,6,8,10,12,14,-1,-1,-1,-1,-1,-1,-1,-1],"split_conditions":[2E0,1E0,1E0,1E0,1E0,3E0,3E0,-1.8427644E-2,4.143287E-2,1.9640388E-2,-1.5068108E-2,-9.4669815E-3,6.064728E-2,1.3512242E-2,-5.4230448E-2],"split_indices":[2,2,14,13,14,4,4,0,0,0,0,0,0,0,0],"split_type":[0,0,0,0,0,0,0,0,0,0,0,0,0,0,0],"sum_hessian":[3.6400503E3,1.3921812E3,2.2478691E3,3.8236716E2,1.009814E3,1.7554436E3,4.9242566E2,3.0619296E2,7.6174194E1,7.863718E2,2.2344217E2,1.7125043E3,4.2939354E1,4.6390387E2,2.8521767E1],"tree_param":{"num_deleted":"0","num_feature":"26","num_nodes":"15","size_leaf_vector":"1"}},{"base_weights":[9.656345E-3,2.5209084E-2,-1.7572622E-1,-6.821497E-3,1.1919453E-1,-5.3767856E-2,-5.2850795E-1,3.1013289E-3,-1.5913213E-2,-5.430048E-3,2.3276892E-2,-7.769079E-3,1.16543055E-1,-1.06880836E-1,-2.899493E-2],"categories":[],"categories_nodes":[],"categories_segments":[],"categories_sizes":[],"default_left":[0,0,0,0,0,0,0,0,0,0,0,0,0,0,0],"id":75,"left_children":[1,3,5,7,9,11,13,-1,-1,-1,-1,-1,-1,-1,-1],"loss_changes":[1.0506241E1,1.0119858E1,1.2106866E1,1.4457142E1,1.684899E1,6.236251E0,9.014889E0,0E0,0E0,0E0,0E0,0E0,0E0,0E0,0E0],"parents":[2147483647,0,0,1,1,2,2,3,3,4,4,5,5,6,6],"right_children":[2,4,6,8,10,12,14,-1,-1,-1,-1,-1,-1,-1,-1],"split_conditions":[5E0,3E0,3.25E0,3.47E0,-2.4E-1,3.22E0,4.4E-1,3.1013289E-3,-1.5913213E-2,-5.430048E-3,2.3276892E-2,-7.769079E-3,1.16543055E-1,-1.06880836E-1,-2.899493E-2],"split_indices":[2,2,5,7,12,5,12,0,0,0,0,0,0,0,0],"split_type":[0,0,0,0,0,0,0,0,0,0,0,0,0,0,0],"sum_hessian":[3.6414065E3,3.3603525E3,2.8105405E2,2.5069143E3,8.534381E2,2.0970901E2,7.134502E1,2.0087311E3,4.981833E2,3.3785553E2,5.155826E2,2.0659158E2,3.1174324E0,2.0786457E1,5.055856E1],"tree_param":{"num_deleted":"0","num_feature":"26","num_nodes":"15","size_leaf_vector":"1"}},{"base_weights":[6.7256936E-3,3.8543902E-3,7.067154E-1,1.9674562E-2,-1.1879547E-1,9.364257E-2,1.5479141E-1,3.787635E-3,-1.878734E-2,3.0009303E-2,-2.2138279E-2,6.056502E-2,-9.164462E-2],"categories":[],"categories_nodes":[],"categories_segments":[],"categories_sizes":[],"default_left":[0,0,0,0,0,0,0,0,0,0,0,0,0],"id":76,"left_children":[1,3,5,7,9,-1,11,-1,-1,-1,-1,-1,-1],"loss_changes":[7.296426E0,7.022105E0,1.7352777E0,1.2116009E1,1.7834547E1,0E0,3.2386775E0,0E0,0E0,0E0,0E0,0E0,0E0],"parents":[2147483647,0,0,1,1,2,2,3,3,4,4,6,6],"right_children":[2,4,6,8,10,-1,12,-1,-1,-1,-1,-1,-1],"split_conditions":[1.4E1,1E0,2.8E-1,5E0,2E0,9.364257E-2,2.35E0,3.787635E-3,-1.878734E-2,3.0009303E-2,-2.2138279E-2,6.056502E-2,-9.164462E-2],"split_indices":[3,4,12,2,2,0,0,0,0,0,0,0,0],"split_type":[0,0,0,0,0,0,0,0,0,0,0,0,0],"sum_hessian":[3.6306294E3,3.616799E3,1.3830324E1,3.2043242E3,4.1247488E2,9.273884E0,4.55644E0,2.946717E3,2.5760715E2,8.076537E1,3.3170953E2,3.5126667E0,1.0437732E0],"tree_param":{"num_deleted":"0","num_feature":"26","num_nodes":"13","size_leaf_vector":"1"}},{"base_weights":[-1.2122017E-2,5.8752527E-3,-1.5426429E-1,-1.5022616E-1,2.5427986E-2,2.7148896E-1,-2.6138526E-1,-2.5767356E-2,6.233291E-2,1.5941719E-3,3.5892054E-2,-3.115733E-2,7.2454706E-2,-4.7914893E-3,-6.1481476E-2],"categories":[],"categories_nodes":[],"categories_segments":[],"categories_sizes":[],"default_left":[0,0,0,0,0,0,0,0,0,0,0,0,0,0,0],"id":77,"left_children":[1,3,5,7,9,11,13,-1,-1,-1,-1,-1,-1,-1,-1],"loss_changes":[9.272865E0,9.826062E0,1.8649918E1,2.9946339E1,9.044434E0,2.1987864E1,2.4565254E1,0E0,0E0,0E0,0E0,0E0,0E0,0E0,0E0],"parents":[2147483647,0,0,1,1,2,2,3,3,4,4,5,5,6,6],"right_children":[2,4,6,8,10,12,14,-1,-1,-1,-1,-1,-1,-1,-1],"split_conditions":[1E0,1E0,2E0,2E0,3.86E0,2.82E0,2.79E0,-2.5767356E-2,6.233291E-2,1.5941719E-3,3.5892054E-2,-3.115733E-2,7.2454706E-2,-4.7914893E-3,-6.1481476E-2],"split_indices":[4,2,2,3,7,7,5,0,0,0,0,0,0,0,0],"split_type":[0,0,0,0,0,0,0,0,0,0,0,0,0,0,0],"sum_hessian":[3.6234458E3,3.2170762E3,4.0636975E2,3.5736108E2,2.859715E3,8.138198E1,3.249878E2,3.1436276E2,4.2998325E1,2.7816387E3,7.807649E1,3.5721962E1,4.5660023E1,2.0331917E2,1.2166861E2],"tree_param":{"num_deleted":"0","num_feature":"26","num_nodes":"15","size_leaf_vector":"1"}},{"base_weights":[1.2921227E-2,3.429116E-1,4.1846386E-3,7.254737E-1,1.441993E-1,-3.763854E-1,9.040799E-3,8.304025E-2,-9.922614E-2,-7.937301E-3,5.2978467E-2,-7.502066E-2,9.538238E-3,2.4432562E-2,2.6972644E-4],"categories":[],"categories_nodes":[],"categories_segments":[],"categories_sizes":[],"default_left":[0,0,0,0,0,0,0,0,0,0,0,0,0,0,0],"id":78,"left_children":[1,3,5,7,9,11,13,-1,-1,-1,-1,-1,-1,-1,-1],"loss_changes":[1.0508962E1,7.042617E0,6.5690703E0,6.5722904E0,5.483856E0,7.96966E0,5.23644E0,0E0,0E0,0E0,0E0,0E0,0E0,0E0,0E0],"parents":[2147483647,0,0,1,1,2,2,3,3,4,4,5,5,6,6],"right_children":[2,4,6,8,10,12,14,-1,-1,-1,-1,-1,-1,-1,-1],"split_conditions":[-1.2E0,1E0,-1.05E0,3.82E0,4E0,2E0,-9E-1,8.304025E-2,-9.922614E-2,-7.937301E-3,5.2978467E-2,-7.502066E-2,9.538238E-3,2.4432562E-2,2.6972644E-4],"split_indices":[12,3,12,0,3,3,12,0,0,0,0,0,0,0,0],"split_type":[0,0,0,0,0,0,0,0,0,0,0,0,0,0,0],"sum_hessian":[3.6446584E3,9.3018005E1,3.5516404E3,3.089257E1,6.2125435E1,4.3784794E1,3.5078557E3,2.9600952E1,1.2916197E0,3.9826916E1,2.2298517E1,2.409896E1,1.9685835E1,9.110777E1,3.4167478E3],"tree_param":{"num_deleted":"0","num_feature":"26","num_nodes":"15","size_leaf_vector":"1"}},{"base_weights":[1.173477E-2,2.3908129E-2,-1.3595797E-1,1.8226193E-3,2.2504923E-1,-1.9999586E-1,5.765252E-1,-3.1507513E-4,6.243741E-2,-9.151587E-3,3.5353467E-2,-1.017524E-2,-5.294034E-2,1.0315072E-1,-7.449772E-2],"categories":[],"categories_nodes":[],"categories_segments":[],"categories_sizes":[],"default_left":[0,0,0,0,0,0,0,0,0,0,0,0,0,0,0],"id":79,"left_children":[1,3,5,7,9,11,13,-1,-1,-1,-1,-1,-1,-1,-1],"loss_changes":[6.542583E0,1.4930446E1,1.2758703E1,9.381947E0,1.3557568E1,8.198473E0,1.4663668E1,0E0,0E0,0E0,0E0,0E0,0E0,0E0,0E0],"parents":[2147483647,0,0,1,1,2,2,3,3,4,4,5,5,6,6],"right_children":[2,4,6,8,10,12,14,-1,-1,-1,-1,-1,-1,-1,-1],"split_conditions":[5E0,4E0,1E0,1.51E0,2.62E0,3E0,5E-1,-3.1507513E-4,6.243741E-2,-9.151587E-3,3.5353467E-2,-1.017524E-2,-5.294034E-2,1.0315072E-1,-7.449772E-2],"split_indices":[2,2,4,12,5,0,12,0,0,0,0,0,0,0,0],"split_type":[0,0,0,0,0,0,0,0,0,0,0,0,0,0,0],"sum_hessian":[3.6361714E3,3.3600613E3,2.7611008E2,3.0285342E3,3.3152725E2,2.539999E2,2.2110178E1,3.0055188E3,2.3015219E1,9.57945E1,2.3573276E2,1.9665718E2,5.7342716E1,1.66107E1,5.499478E0],"tree_param":{"num_deleted":"0","num_feature":"26","num_nodes":"15","size_leaf_vector":"1"}},{"base_weights":[-5.13212E-3,6.932226E-1,-7.65521E-3,3.1763944E-1,8.4776685E-2,-1.5229411E-2,2.1694767E-1,-1.9400546E-2,7.153579E-2,-1.8880395E-3,6.0409017E-2,7.7013928E-3,4.5206703E-2],"categories":[],"categories_nodes":[],"categories_segments":[],"categories_sizes":[],"default_left":[0,0,0,0,0,0,0,0,0,0,0,0,0],"id":80,"left_children":[1,3,5,7,-1,9,11,-1,-1,-1,-1,-1,-1],"loss_changes":[6.3699565E0,4.8612022E-1,6.127809E0,1.2362369E0,0E0,7.8883185E0,3.8314319E0,0E0,0E0,0E0,0E0,0E0,0E0],"parents":[2147483647,0,0,1,1,2,2,3,3,5,5,6,6],"right_children":[2,4,6,8,-1,10,12,-1,-1,-1,-1,-1,-1],"split_conditions":[9.2E-1,-2.09E0,1.1E0,1E0,8.4776685E-2,1.2E1,1E0,-1.9400546E-2,7.153579E-2,-1.8880395E-3,6.0409017E-2,7.7013928E-3,4.5206703E-2],"split_indices":[5,12,12,1,0,3,1,0,0,0,0,0,0],"split_type":[0,0,0,0,0,0,0,0,0,0,0,0,0],"sum_hessian":[3.6111492E3,1.2014298E1,3.599135E3,4.393141E0,7.6211576E0,3.482624E3,1.1651106E2,2.145398E0,2.247743E0,3.4631775E3,1.9446451E1,7.3872574E1,4.263849E1],"tree_param":{"num_deleted":"0","num_feature":"26","num_nodes":"13","size_leaf_vector":"1"}},{"base_weights":[1.7867388E-2,-4.3156797E-1,2.1763591E-2,-6.1171854E-1,2.8206712E-1,6.025402E-1,1.8078096E-2,-9.180988E-2,-7.431363E-3,8.483034E-2,-4.1987345E-2,9.71741E-2,-9.698744E-2,1.0588171E-3,2.1572474E-2],"categories":[],"categories_nodes":[],"categories_segments":[],"categories_sizes":[],"default_left":[0,0,0,0,0,0,0,0,0,0,0,0,0,0,0],"id":81,"left_children":[1,3,5,7,9,11,13,-1,-1,-1,-1,-1,-1,-1,-1],"loss_changes":[6.3750896E0,4.195465E0,7.7053914E0,4.097456E0,3.135069E0,1.4121425E1,5.3022575E0,0E0,0E0,0E0,0E0,0E0,0E0,0E0,0E0],"parents":[2147483647,0,0,1,1,2,2,3,3,4,4,5,5,6,6],"right_children":[2,4,6,8,10,12,14,-1,-1,-1,-1,-1,-1,-1,-1],"split_conditions":[1.77E0,1E0,1.85E0,1.1E0,2.45E0,2.71E0,6E0,-9.180988E-2,-7.431363E-3,8.483034E-2,-4.1987345E-2,9.71741E-2,-9.698744E-2,1.0588171E-3,2.1572474E-2],"split_indices":[0,1,0,12,5,5,3,0,0,0,0,0,0,0,0],"split_type":[0,0,0,0,0,0,0,0,0,0,0,0,0,0,0],"sum_hessian":[3.6342751E3,3.0291733E1,3.6039834E3,2.4300188E1,5.991544E0,2.1701336E1,3.5822822E3,1.5025561E1,9.274627E0,3.2009296E0,2.7906144E0,1.7884165E1,3.8171701E0,3.4525012E3,1.297808E2],"tree_param":{"num_deleted":"0","num_feature":"26","num_nodes":"15","size_leaf_vector":"1"}},{"base_weights":[-1.4030794E-3,9.5351425E-4,-8.5772324E-1,-9.593033E-3,2.3283495E-1,-1.1880727E0,2.3493446E-1,-3.0479913E-3,7.3396177E-3,6.7305915E-2,-2.6662212E-3,-1.356373E-1,-4.996403E-2,-1.1322235E-1,1.4631441E-1],"categories":[],"categories_nodes":[],"categories_segments":[],"categories_sizes":[],"default_left":[0,0,0,0,0,0,0,0,0,0,0,0,0,0,0],"id":82,"left_children":[1,3,5,7,9,11,13,-1,-1,-1,-1,-1,-1,-1,-1],"loss_changes":[7.3013077E0,8.827628E0,3.8633208E0,5.9871397E0,1.7957077E1,2.2483158E-1,6.929264E0,0E0,0E0,0E0,0E0,0E0,0E0,0E0,0E0],"parents":[2147483647,0,0,1,1,2,2,3,3,4,4,5,5,6,6],"right_children":[2,4,6,8,10,12,14,-1,-1,-1,-1,-1,-1,-1,-1],"split_conditions":[2.8E1,2E0,3.34E0,1E0,1E0,1E0,5.8E1,-3.0479913E-3,7.3396177E-3,6.7305915E-2,-2.6662212E-3,-1.356373E-1,-4.996403E-2,-1.1322235E-1,1.4631441E-1],"split_indices":[4,4,5,14,1,15,4,0,0,0,0,0,0,0,0],"split_type":[0,0,0,0,0,0,0,0,0,0,0,0,0,0,0],"sum_hessian":[3.6166885E3,3.6077588E3,8.929667E0,3.4517244E3,1.5603442E2,6.7896037E0,2.1400635E0,2.7581746E3,6.935498E2,5.727555E1,9.875887E1,4.6761875E0,2.1134162E0,1.0497291E0,1.0903345E0],"tree_param":{"num_deleted":"0","num_feature":"26","num_nodes":"15","size_leaf_vector":"1"}},{"base_weights":[-7.576174E-3,-1.4455944E-2,2.2463061E-1,-1.153048E-2,-8.111679E-1,2.8692156E-1,-1.0704856E-1,-1.544517E-3,7.497006E-2,-1.13121204E-1,7.766198E-2,5.736847E-2,-7.6956586E-3],"categories":[],"categories_nodes":[],"categories_segments":[],"categories_sizes":[],"default_left":[0,0,0,0,0,0,0,0,0,0,0,0,0],"id":83,